svm_type c_svc
kernel_type rbf
gamma 0.25
nr_class 2
total_sv 129
rho 0.75416
label 1 -1
nr_sv 48 81
SV
1 1:0.28030739 2:0.093435796 3:0.093435796 4:0.093435796 
1 1:0.0051100322 2:0.0017033441 3:0.0017033441 4:0.0017033441 
1 1:0.0027102351 2:0.00090341169 3:0.00090341169 4:0.00090341169 
1 1:0.0050072826 2:0.0016690942 3:0.0016690942 4:0.0016690942 
1 1:0.31376881 2:0.1045896 3:0.1045896 4:0.1045896 
1 1:0.33721874 2:0.11240625 3:0.11240625 4:0.11240625 
1 1:0.0030233805 2:0.0010077935 3:0.0010077935 4:0.0010077935 
1 1:0.0056539896 2:0.0018846632 3:0.0018846632 4:0.0018846632 
1 1:0.74325753 2:0.24775251 3:0.24775251 4:0.24775251 
1 1:0.88677495 2:0.29559165 3:0.29559165 4:0.29559165 
0.9456472992285254 1:0.74015659 2:0.24671886 3:0.24671886 4:0.24671886 
1 1:0.31654172 2:0.10551391 3:0.10551391 4:0.10551391 
1 1:0.85579779 2:0.28526593 3:0.28526593 4:0.28526593 
1 1:0.3184439 2:0.10614797 3:0.10614797 4:0.10614797 
0.9961862107085999 1:0.37017413 2:0.12339138 3:0.12339138 4:0.12339138 
1 1:0.0057322598 2:0.0019107533 3:0.0019107533 4:0.0019107533 
1 1:0.0029421044 2:0.00098070147 3:0.00098070147 4:0.00098070147 
1 1:0.37116649 2:0.12372216 3:0.12372216 4:0.12372216 
1 1:0.0032622074 2:0.0010874025 3:0.0010874025 4:0.0010874025 
1 1:0.89747551 2:0.2991585 3:0.2991585 4:0.2991585 
1 1:0.0048806036 2:0.0016268679 3:0.0016268679 4:0.0016268679 
1 1:0.0041661682 2:0.0013887227 3:0.0013887227 4:0.0013887227 
1 1:0.0025469683 2:0.00084898945 3:0.00084898945 4:0.00084898945 
1 1:0.0030115067 2:0.0010038356 3:0.0010038356 4:0.0010038356 
1 1:0.32433153 2:0.10811051 3:0.10811051 4:0.10811051 
1 1:0.20283853 2:0.067612845 3:0.067612845 4:0.067612845 
1 1:0.0055223503 2:0.0018407834 3:0.0018407834 4:0.0018407834 
1 1:0.29858943 2:0.099529811 3:0.099529811 4:0.099529811 
1 1:0.0047430622 2:0.0015810207 3:0.0015810207 4:0.0015810207 
1 1:0.24116786 2:0.080389286 3:0.080389286 4:0.080389286 
1 1:0.0016847217 2:0.00056157391 3:0.00056157391 4:0.00056157391 
1 1:0.0024965293 2:0.00083217643 3:0.00083217643 4:0.00083217643 
1 1:0.0010594051 2:0.00035313502 3:0.00035313502 4:0.00035313502 
1 1:0.24334007 2:0.081113358 3:0.081113358 4:0.081113358 
1 1:0.84236622 2:0.28078874 3:0.28078874 4:0.28078874 
0.2408402068317936 1:0.4204901 2:0.14016337 3:0.14016337 4:0.14016337 
0.02178801032722316 1:0.16756703 2:0.055855678 3:0.055855678 4:0.055855678 
1 1:0.0045545762 2:0.0015181921 3:0.0015181921 4:0.0015181921 
1 1:0.22194409 2:0.073981364 3:0.073981364 4:0.073981364 
1 1:0.0035996477 2:0.0011998826 3:0.0011998826 4:0.0011998826 
1 1:0.0052709746 2:0.0017569915 3:0.0017569915 4:0.0017569915 
1 1:0.32751853 2:0.10917284 3:0.10917284 4:0.10917284 
0.6626214279282915 1:0.005693489 2:0.0018978297 3:0.0018978297 4:0.0018978297 
1 1:0.29048656 2:0.096828852 3:0.096828852 4:0.096828852 
1 1:0.20898911 2:0.069663037 3:0.069663037 4:0.069663037 
1 1:0.22062408 2:0.073541362 3:0.073541362 4:0.073541362 
1 1:0.21653564 2:0.072178545 3:0.072178545 4:0.072178545 
1 1:0.0047220958 2:0.0015740319 3:0.0015740319 4:0.0015740319 
-0.05024107128859483 1:0.64385935 2:0.04547218 3:1.0170326 4:7.9073966 
-1 1:0.10547751 2:0.029032469 3:0.13709818 4:0.37762087 
-1 1:0.26094191 2:0.11363559 3:0.11789483 4:0.30222782 
-0.07563773728747769 1:0.35775328 2:0.0453578 3:1.7259343 4:21.697302 
-0.09179996343431027 1:0.45635044 2:0.081938338 3:1.5488037 4:18.785806 
-1 1:0.23543305 2:0.099132408 3:0.071936073 4:0.24803242 
-1 1:0.2106537 2:0.03428518 3:0.10303456 4:0.39773911 
-0.02558621373267936 1:0.22521463 2:0.07788232 3:1.0408578 4:19.95668 
-1 1:0.043916942 2:0.026155024 3:0.054678605 4:0.3142658 
-1 1:0.022417319 2:0.010501398 3:0.011155577 4:0.013155697 
-0.07927367231677812 1:0.37992577 2:0.079867028 3:1.4883584 4:26.018667 
-0.07144349992998972 1:0.011794165 2:0.0026115362 3:0.43693172 4:8.6921086 
-0.08715969243005793 1:0.35862712 2:0.069784211 3:1.6241881 4:24.239067 
-1 1:0.13327483 2:0.039103726 3:0.080918194 4:0.35445063 
-1 1:0.12961 2:0.053467622 3:0.12765143 4:0.38358199 
-0.04112776149572129 1:0.0073967798 2:0.0036213766 3:1.1775154 4:12.761375 
-1 1:0.11081029 2:0.043656262 3:0.12003958 4:0.35303516 
-0.1065296657539088 1:0.13169614 2:0.04592714 3:0.81483241 4:17.448664 
-1 1:0.018243875 2:0.0088287254 3:0.042070597 4:0.23338381 
-1 1:0.1703671 2:0.034754293 3:0.08504495 4:0.24543907 
-1 1:0.19165128 2:0.034655434 3:0.13143762 4:0.38308023 
-0.02383136305615647 1:0.036580073 2:0.0030004789 3:0.8047076 4:5.5400934 
-0.02652400026771853 1:0.017263639 2:0.0042103581 3:0.6293041 4:11.986582 
-0.04279519954552252 1:0.58990999 2:0.070856633 3:1.1612252 4:9.9205316 
-1 1:0.045186861 2:0.029141219 3:0.031437051 4:0.15388448 
-1 1:0.54490891 2:0.10696922 3:0.18502072 4:0.49908218 
-0.1062453509055985 1:0.7241574 2:0.060124711 3:0.83201759 4:5.6676891 
-1 1:0.26343661 2:0.087672502 3:0.16525197 4:0.31122299 
-1 1:0.22789478 2:0.062078558 3:0.10102379 4:0.26485006 
-0.0239367374607472 1:0.49555394 2:0.055944129 3:1.1801425 4:9.3786979 
-0.07432106382771525 1:0.043363614 2:0.013804284 3:0.48371763 4:10.628034 
-1 1:0.040920938 2:0.019390647 3:0.092535492 4:0.29478769 
-0.001291047584385938 1:0.51274314 2:0.083781132 3:1.3536809 4:14.158971 
-1 1:0.052847175 2:0.026612041 3:0.084491087 4:0.32795651 
-1 1:0.079679728 2:0.051420955 3:0.13074671 4:0.39022391 
-1 1:0.14368867 2:0.066333639 3:0.11944626 4:0.3200454 
-1 1:0.41207347 2:0.065581946 3:0.12098466 4:0.19455919 
-1 1:0.25922661 2:0.020066622 3:0.13900699 4:0.35106178 
-0.06289463769437707 1:0.655484 2:0.058489009 3:1.3785124 4:15.381775 
-0.08959571365588438 1:0.21343834 2:0.048397258 3:0.89121577 4:21.534187 
-0.07024125749688893 1:0.74041606 2:0.05759006 3:1.173452 4:11.689031 
-0.01842659965760806 1:0.58803955 2:0.048951393 3:1.482404 4:22.479547 
-1 1:0.04483398 2:0.023877759 3:0.069141615 4:0.34452358 
-1 1:0.17826778 2:0.039273185 3:0.10021365 4:0.36577727 
-0.02718311793041525 1:0.61664253 2:0.067330395 3:1.1763591 4:13.694065 
-0.008551210868749076 1:0.34583167 2:0.036509774 3:1.5187023 4:15.316963 
-1 1:0.078920403 2:0.042692167 3:0.086481782 4:0.34776334 
-1 1:0.16920177 2:0.084117271 3:0.065594777 4:0.29497691 
-1 1:0.21403522 2:0.026004931 3:0.11847591 4:0.4256419 
-0.01928159154844607 1:0.60506627 2:0.086801413 3:1.3040527 4:20.186375 
-1 1:0.017214554 2:0.012594232 3:0.044106558 4:0.27174365 
-0.02479798799031194 1:0.021620287 2:0.0053301479 3:0.42375751 4:7.6470344 
-1 1:0.0308127 2:0.012340362 3:0.069932316 4:0.34056873 
-1 1:0.0071371733 2:0.0028426465 3:0.055439727 4:0.33726744 
-0.02837041231309224 1:0.78038205 2:0.08894938 3:0.66661635 4:7.9175712 
-0.0337373494122404 1:0.10519109 2:0.028839719 3:1.4198486 4:19.723207 
-0.08276908937896145 1:0.42890458 2:0.10330704 3:1.1529038 4:24.132299 
-1 1:0.026703971 2:0.015096661 3:0.042436677 4:0.2321255 
-5.047261312046605e-05 1:0.023700465 2:0.0087370348 3:1.3992923 4:18.482837 
-1 1:0.03387965 2:0.0094184088 3:0.11965479 4:0.31466591 
-1 1:0.094582094 2:0.051129608 3:0.09851491 4:0.36837133 
-0.2029525813006712 1:0.21389822 2:0.066017327 3:1.1427538 4:27.750109 
-1 1:0.081629506 2:0.065683748 3:0.074949135 4:0.25735891 
-0.04170057116908953 1:0.49831908 2:0.046635601 3:1.4848697 4:16.17907 
-0.07330264540991478 1:0.082140147 2:0.049092481 3:0.30493167 4:5.749295 
-1 1:0.14178423 2:0.033424426 3:0.11839212 4:0.36413839 
-1 1:0.049869559 2:0.03657335 3:0.085842826 4:0.35384045 
-1 1:0.13088336 2:0.049542766 3:0.097176363 4:0.33388699 
-1 1:0.22123032 2:0.085128604 3:0.087540914 4:0.35581792 
-0.007035279890023567 1:0.05581428 2:0.018312324 3:0.75249418 4:13.31165 
-1 1:0.067528335 2:0.034723556 3:0.098001373 4:0.38516191 
-1 1:0.24780221 2:0.043894581 3:0.082592464 4:0.41119667 
-0.04826368592118131 1:0.02081706 2:0.0079464589 3:0.73162742 4:15.156836 
-0.00822953740007978 1:0.035695332 2:0.017036172 3:0.3309193 4:5.4332748 
-0.009715259697685861 1:0.52983768 2:0.055298402 3:1.4645264 4:17.528259 
-1 1:0.20782746 2:0.054095141 3:0.052936625 4:0.057185624 
-1 1:0.14067939 2:0.04749426 3:0.12653384 4:0.35859783 
-1 1:0.015895926 2:0.012267305 3:0.061704381 4:0.23603582 
-0.06137230358147173 1:0.089438283 2:0.040195509 3:0.69878404 4:14.042129 
-1 1:0.094433704 2:0.045119088 3:0.088046308 4:0.39665052 
-0.02086780977685785 1:0.63378705 2:0.064959344 3:1.2626665 4:12.364555 
