svm_type c_svc
kernel_type rbf
gamma 0.25
nr_class 2
total_sv 43
rho 0.832259
label 1 -1
nr_sv 6 37
SV
1 1:0.88677495 2:0.29559165 3:0.29559165 4:0.29559165 
0.05658020721049211 1:0.0018888236 2:0.00037776472 3:0.00037776472 4:0.00037776472 
0.6399178726587645 1:0.85579779 2:0.28526593 3:0.28526593 4:0.28526593 
1 1:0.89747551 2:0.2991585 3:0.2991585 4:0.2991585 
1 1:0.0016847217 2:0.00056157391 3:0.00056157391 4:0.00056157391 
1 1:0.0010594051 2:0.00035313502 3:0.00035313502 4:0.00035313502 
-0.02515450062508083 1:0.19569897 2:0.051726921 3:0.44079972 4:8.347116 
-1 1:0.078812397 2:0.03409489 3:0.2014426 4:1.2137681 
-0.00703032740048354 1:0.19023262 2:0.053363398 3:0.95242142 4:15.99996 
-0.03168102335085034 1:0.15836985 2:0.031686039 3:0.96102582 4:15.793197 
-0.006414449693610802 1:0.10566931 2:0.024753096 3:1.2732333 4:19.642492 
-0.01331636116966739 1:0.31904065 2:0.064580363 3:1.4246822 4:27.13056 
-0.07070311418818478 1:0.72545406 2:0.081770232 3:1.839777 4:19.706372 
-0.1297709815594671 1:0.4800748 2:0.094563007 3:1.658382 4:26.40176 
-0.01219228020888825 1:0.55872945 2:0.076943078 3:1.3086765 4:21.394642 
-0.1158805877440632 1:0.4236282 2:0.070554116 3:1.1480608 4:23.381421 
-0.03643687082428686 1:0.078712246 2:0.035857621 3:0.60552922 4:9.7392143 
-0.07743416906098513 1:0.039770404 2:0.018922826 3:0.40290404 4:5.9552429 
-0.02805139844828262 1:0.53165046 2:0.06099042 3:1.6736391 4:17.745881 
-0.04190738435425438 1:0.20439961 2:0.066054783 3:1.0900718 4:18.981097 
-0.03232548615227358 1:0.67566407 2:0.09631555 3:0.79478078 4:5.6711982 
-0.07458479617285034 1:0.92326354 2:0.08410709 3:1.2276559 4:11.282746 
-0.1506376344303444 1:0.21694306 2:0.06701244 3:1.7345834 4:29.413316 
-0.006355854652717088 1:0.053655605 2:0.015587086 3:0.60320808 4:7.9375908 
-0.02166562928033937 1:0.9061699 2:0.097935086 3:1.0560952 4:9.2439175 
-0.04857255063718961 1:0.85363906 2:0.063147407 3:1.0494383 4:8.2291141 
-0.02952981832370556 1:0.0749512 2:0.02555629 3:0.74790863 4:10.99302 
-0.05935917124247272 1:0.19304228 2:0.034813319 3:1.8299977 4:21.866205 
-1 1:0.21629936 2:0.086705886 3:0.23514953 4:1.2632979 
-0.05338843442894989 1:0.66394875 2:0.081596223 3:1.5804808 4:15.718558 
-0.01727872121510636 1:0.041188209 2:0.012048785 3:0.84380725 4:12.892596 
-0.008379018423561613 1:0.51032273 2:0.11023945 3:1.6407608 4:16.716081 
-0.04797003477506404 1:0.22185936 2:0.078082953 3:1.0354716 4:17.403127 
-0.03904671589194347 1:0.08724741 2:0.025909699 3:0.76369566 4:13.015158 
-0.004225138425247155 1:0.36867532 2:0.056031334 3:1.4466905 4:12.295765 
-0.04673769792209171 1:0.63882326 2:0.099258149 3:1.4683535 4:13.956046 
-0.0397737434782674 1:0.84841168 2:0.058123907 3:0.94862366 4:6.3715807 
-0.001037813769785403 1:0.21694281 2:0.026990334 3:1.2647049 4:9.9003728 
-0.01369444385972427 1:0.069299743 2:0.011155242 3:0.64005432 4:9.0132765 
-0.02879682912568173 1:0.21202828 2:0.071237289 3:0.75455099 4:13.988711 
-0.359439601369657 1:0.31105116 2:0.071792606 3:0.23818281 4:1.2978027 
-0.01772549766417859 1:0.26300789 2:0.052594744 3:1.3821695 4:20.711256 
-1 1:0.35169792 2:0.049829377 3:0.27356152 4:1.113315 
