svm_type c_svc
kernel_type rbf
gamma 0.0192308
nr_class 2
total_sv 10953
rho -0.508245
label 1 -1
nr_sv 6469 4484
SV
0.2049563052241526 1:0.37052216 2:0.09263054 3:0.09263054 4:0.09263054 5:1 6:2 7:0 8:0 9:3 10:0 11:0 12:2 13:0 14:0 15:3 16:0 17:0 18:0 19:0 20:0 21:0 22:0 23:0 24:0 25:0 26:0 27:0 28:0 29:4 30:4 31:4 32:4 33:4 34:4 35:0 36:0 37:0 38:0 39:0 40:0 41:0 42:0 43:0 44:0 45:0 46:0 47:0 48:0 49:0 50:0 51:0 52:0 
0.9073985449430884 1:0.29966921 2:0.074917304 3:0.074917304 4:0.074917304 5:4 6:0 7:0 8:0 9:0 10:0 11:0 12:0 13:2 14:2 15:1 16:1 17:3 18:0 19:0 20:0 21:0 22:0 23:0 24:0 25:0 26:0 27:0 28:0 29:0 30:0 31:0 32:0 33:0 34:0 35:0 36:0 37:0 38:0 39:0 40:0 41:0 42:0 43:0 44:0 45:0 46:0 47:0 48:0 49:0 50:0 51:0 52:0 
0.134265542463063 1:0.052273877 2:0.013068469 3:0.013068469 4:0.013068469 5:0 6:0 7:0 8:0 9:0 10:0 11:0 12:0 13:0 14:2 15:2 16:2 17:0 18:0 19:0 20:4 21:4 22:4 23:0 24:0 25:0 26:4 27:4 28:4 29:0 30:0 31:0 32:0 33:0 34:0 35:0 36:0 37:0 38:0 39:0 40:0 41:0 42:0 43:0 44:0 45:0 46:0 47:0 48:0 49:0 50:0 51:0 52:0 
0.4916776955942618 1:0.4310315 2:0.019592341 3:0.019592341 4:0.019592341 5:22 6:22 7:22 8:0 9:0 10:0 11:22 12:22 13:22 14:12 15:12 16:12 17:15 18:15 19:15 20:12 21:12 22:12 23:16 24:16 25:16 26:16 27:16 28:16 29:10 30:10 31:5 32:5 33:4 34:4 35:18 36:18 37:17 38:0 39:0 40:0 41:18 42:18 43:0 44:0 45:0 46:0 47:0 48:0 49:0 50:0 51:0 52:0 
0.4915965016278624 1:0.17379761 2:0.011586508 3:0.011586508 4:0.011586508 5:0 6:0 7:0 8:0 9:0 10:0 11:0 12:0 13:10 14:10 15:0 16:0 17:0 18:11 19:13 20:13 21:11 22:0 23:14 24:14 25:14 26:15 27:15 28:15 29:0 30:0 31:8 32:8 33:0 34:0 35:0 36:0 37:7 38:7 39:0 40:0 41:2 42:3 43:7 44:7 45:3 46:1 47:0 48:3 49:3 50:3 51:3 52:0 
0.4916616819791818 1:0.2081758 2:0.013878387 3:0.013878387 4:0.013878387 5:0 6:0 7:2 8:2 9:3 10:3 11:5 12:5 13:4 14:0 15:3 16:3 17:7 18:7 19:7 20:7 21:0 22:0 23:8 24:8 25:8 26:7 27:0 28:0 29:9 30:9 31:9 32:9 33:0 34:0 35:15 36:15 37:15 38:14 39:14 40:0 41:13 42:14 43:14 44:14 45:14 46:12 47:0 48:0 49:0 50:0 51:0 52:10 
0.1280080445902751 1:0.13706847 2:0.034267118 3:0.034267118 4:0.034267118 5:0 6:0 7:0 8:0 9:0 10:0 11:2 12:2 13:2 14:2 15:2 16:2 17:0 18:0 19:0 20:0 21:0 22:0 23:0 24:0 25:0 26:0 27:0 28:0 29:0 30:0 31:0 32:0 33:0 34:0 35:0 36:0 37:0 38:0 39:0 40:0 41:0 42:0 43:0 44:0 45:0 46:0 47:0 48:3 49:3 50:4 51:4 52:0 
0.4699525352942281 1:0.61705917 2:0.036297598 3:0.036297598 4:0.036297598 5:3 6:0 7:0 8:0 9:1 10:1 11:7 12:6 13:0 14:0 15:0 16:0 17:17 18:16 19:0 20:0 21:2 22:2 23:11 24:11 25:0 26:0 27:2 28:2 29:13 30:11 31:0 32:0 33:0 34:0 35:15 36:14 37:0 38:0 39:0 40:0 41:0 42:0 43:0 44:0 45:0 46:0 47:0 48:0 49:0 50:0 51:0 52:0 
0.03034887566926679 1:0.029642283 2:0.0074105707 3:0.0074105707 4:0.0074105707 5:1 6:1 7:2 8:2 9:1 10:1 11:0 12:0 13:2 14:2 15:0 16:0 17:3 18:3 19:4 20:4 21:3 22:3 23:0 24:0 25:4 26:4 27:0 28:0 29:0 30:0 31:0 32:0 33:0 34:0 35:0 36:0 37:0 38:0 39:0 40:0 41:0 42:0 43:0 44:0 45:0 46:0 47:0 48:0 49:0 50:0 51:0 52:0 
0.7098765153099273 1:0.11679072 2:0.019465119 3:0.019465119 4:0.019465119 5:0 6:0 7:0 8:0 9:0 10:0 11:6 12:6 13:6 14:6 15:6 16:6 17:6 18:6 19:6 20:6 21:6 22:6 23:0 24:0 25:0 26:0 27:0 28:0 29:0 30:0 31:0 32:0 33:0 34:0 35:0 36:0 37:0 38:0 39:0 40:0 41:0 42:0 43:0 44:0 45:0 46:0 47:2 48:2 49:2 50:4 51:4 52:4 
0.4916542393796119 1:0.14340644 2:0.010243317 3:0.010243317 4:0.010243317 5:0 6:0 7:0 8:0 9:0 10:0 11:14 12:14 13:0 14:0 15:0 16:0 17:14 18:14 19:0 20:0 21:0 22:0 23:10 24:0 25:0 26:0 27:0 28:0 29:3 30:3 31:0 32:0 33:0 34:0 35:5 36:4 37:0 38:0 39:0 40:0 41:7 42:7 43:7 44:7 45:0 46:0 47:11 48:7 49:7 50:7 51:0 52:0 
0.2988643606176498 1:0.40107466 2:0.13369155 3:0.13369155 4:0.13369155 5:0 6:0 7:0 8:0 9:0 10:0 11:0 12:0 13:0 14:3 15:3 16:3 17:0 18:0 19:0 20:3 21:3 22:3 23:0 24:0 25:0 26:0 27:0 28:0 29:0 30:0 31:0 32:0 33:0 34:0 35:0 36:0 37:0 38:0 39:0 40:0 41:0 42:0 43:0 44:0 45:0 46:0 47:0 48:0 49:0 50:0 51:0 52:0 
0.4297197867008792 1:0.38784975 2:0.048481219 3:0.048481219 4:0.048481219 5:0 6:0 7:0 8:0 9:0 10:0 11:5 12:2 13:6 14:6 15:1 16:4 17:5 18:0 19:0 20:0 21:0 22:4 23:0 24:0 25:0 26:0 27:0 28:0 29:0 30:0 31:0 32:0 33:0 34:0 35:3 36:0 37:0 38:0 39:0 40:8 41:0 42:0 43:0 44:0 45:0 46:0 47:0 48:0 49:0 50:0 51:0 52:0 
0.4919438246658452 1:0.40339034 2:0.020169517 3:0.020169517 4:0.020169517 5:16 6:16 7:16 8:16 9:16 10:16 11:15 12:15 13:15 14:0 15:0 16:0 17:14 18:14 19:8 20:0 21:0 22:0 23:14 24:14 25:6 26:6 27:6 28:6 29:17 30:17 31:6 32:6 33:6 34:6 35:18 36:18 37:4 38:0 39:0 40:20 41:19 42:19 43:19 44:0 45:0 46:20 47:0 48:0 49:0 50:0 51:0 52:0 
0.200093429452036 1:0.3221003 2:0.053683383 3:0.053683383 4:0.053683383 5:0 6:0 7:0 8:0 9:0 10:0 11:0 12:0 13:0 14:0 15:0 16:2 17:0 18:0 19:1 20:1 21:0 22:0 23:6 24:6 25:5 26:5 27:0 28:0 29:0 30:0 31:0 32:0 33:0 34:0 35:0 36:0 37:0 38:0 39:0 40:3 41:0 42:0 43:0 44:0 45:0 46:4 47:0 48:0 49:0 50:0 51:0 52:0 
1 1:0.33787889 2:0.1126263 3:0.1126263 4:0.1126263 5:3 6:3 7:3 8:3 9:3 10:3 11:3 12:3 13:3 14:3 15:3 16:3 17:3 18:3 19:3 20:3 21:3 22:3 23:3 24:3 25:3 26:3 27:3 28:3 29:3 30:3 31:3 32:3 33:3 34:3 35:3 36:3 37:3 38:3 39:3 40:3 41:3 42:3 43:3 44:3 45:3 46:3 47:3 48:3 49:3 50:3 51:3 52:3 
0.4801058527504956 1:0.38059194 2:0.027185138 3:0.027185138 4:0.027185138 5:4 6:3 7:0 8:0 9:0 10:6 11:10 12:0 13:0 14:0 15:0 16:9 17:13 18:0 19:0 20:0 21:0 22:0 23:14 24:1 25:1 26:1 27:1 28:1 29:1 30:1 31:1 32:1 33:1 34:1 35:0 36:0 37:0 38:0 39:0 40:0 41:0 42:0 43:0 44:0 45:0 46:0 47:0 48:0 49:0 50:0 51:0 52:0 
0.4786366605555563 1:0.22059558 2:0.02451062 3:0.02451062 4:0.02451062 5:0 6:0 7:6 8:6 9:0 10:0 11:0 12:0 13:0 14:0 15:0 16:0 17:0 18:0 19:0 20:0 21:0 22:0 23:0 24:0 25:9 26:9 27:9 28:9 29:5 30:5 31:5 32:5 33:5 34:5 35:4 36:4 37:4 38:4 39:4 40:4 41:3 42:3 43:3 44:3 45:3 46:2 47:2 48:2 49:2 50:8 51:8 52:2 
0.4902647908925479 1:0.38065568 2:0.034605062 3:0.034605062 4:0.034605062 5:3 6:0 7:0 8:0 9:0 10:6 11:0 12:0 13:0 14:0 15:0 16:0 17:0 18:0 19:0 20:0 21:0 22:0 23:0 24:0 25:0 26:0 27:0 28:0 29:0 30:0 31:0 32:0 33:0 34:0 35:0 36:0 37:0 38:0 39:0 40:8 41:11 42:11 43:11 44:11 45:0 46:8 47:10 48:10 49:1 50:0 51:7 52:7 
0.2805039673448456 1:0.15082428 2:0.021546326 3:0.021546326 4:0.021546326 5:3 6:1 7:0 8:0 9:0 10:0 11:0 12:0 13:0 14:0 15:0 16:0 17:0 18:0 19:0 20:0 21:0 22:0 23:6 24:6 25:6 26:6 27:6 28:6 29:7 30:7 31:6 32:6 33:6 34:6 35:7 36:7 37:5 38:5 39:5 40:2 41:0 42:0 43:0 44:0 45:0 46:0 47:0 48:0 49:0 50:0 51:0 52:0 
0.3357981309961658 1:0.16443597 2:0.014948725 3:0.014948725 4:0.014948725 5:1 6:1 7:1 8:1 9:1 10:1 11:1 12:1 13:1 14:1 15:1 16:1 17:0 18:0 19:0 20:0 21:0 22:0 23:0 24:0 25:0 26:0 27:0 28:0 29:0 30:0 31:0 32:0 33:0 34:0 35:8 36:8 37:8 38:8 39:6 40:6 41:9 42:9 43:9 44:9 45:9 46:9 47:11 48:11 49:10 50:10 51:10 52:10 
0.4880667162989007 1:0.055698778 2:0.0050635253 3:0.0050635253 4:0.0050635253 5:6 6:6 7:6 8:0 9:0 10:0 11:6 12:6 13:6 14:0 15:0 16:0 17:10 18:10 19:10 20:0 21:0 22:0 23:10 24:10 25:10 26:0 27:11 28:11 29:8 30:8 31:8 32:0 33:0 34:0 35:0 36:0 37:0 38:0 39:0 40:0 41:0 42:0 43:0 44:0 45:2 46:2 47:0 48:0 49:0 50:0 51:0 52:0 
0.498728542149442 1:0.058008101 2:0.0072510126 3:0.0072510126 4:0.0072510126 5:2 6:2 7:2 8:2 9:2 10:2 11:0 12:0 13:0 14:0 15:0 16:0 17:1 18:1 19:8 20:8 21:7 22:7 23:1 24:1 25:8 26:8 27:7 28:7 29:4 30:4 31:5 32:5 33:3 34:3 35:4 36:4 37:5 38:5 39:3 40:3 41:6 42:6 43:6 44:6 45:0 46:0 47:6 48:6 49:6 50:6 51:0 52:0 
0.3273904395371117 1:0.012663376 2:0.0025326752 3:0.0025326752 4:0.0025326752 5:0 6:0 7:5 8:5 9:0 10:0 11:0 12:0 13:5 14:5 15:0 16:0 17:0 18:0 19:3 20:3 21:0 22:0 23:0 24:0 25:4 26:4 27:0 28:0 29:0 30:0 31:4 32:4 33:0 34:0 35:0 36:0 37:2 38:2 39:0 40:0 41:0 42:0 43:2 44:2 45:0 46:0 47:0 48:0 49:0 50:0 51:0 52:0 
0.4713423106976327 1:0.12382326 2:0.024764652 3:0.024764652 4:0.024764652 5:0 6:0 7:0 8:0 9:0 10:0 11:5 12:2 13:2 14:0 15:1 16:4 17:2 18:3 19:3 20:3 21:3 22:1 23:0 24:3 25:3 26:3 27:3 28:0 29:0 30:3 31:3 32:3 33:3 34:0 35:0 36:3 37:3 38:3 39:3 40:0 41:0 42:0 43:0 44:0 45:0 46:0 47:0 48:0 49:0 50:0 51:0 52:0 
0.7587125496131787 1:0.059281325 2:0.011856265 3:0.011856265 4:0.011856265 5:3 6:3 7:0 8:0 9:0 10:0 11:2 12:2 13:2 14:2 15:2 16:2 17:0 18:0 19:0 20:0 21:0 22:0 23:0 24:0 25:0 26:0 27:0 28:0 29:4 30:4 31:4 32:4 33:4 34:4 35:4 36:4 37:4 38:4 39:4 40:4 41:5 42:5 43:5 44:5 45:5 46:5 47:0 48:0 49:0 50:0 51:0 52:0 
0.4758013408768509 1:0.47408014 2:0.047408014 3:0.047408014 4:0.047408014 5:0 6:0 7:0 8:0 9:0 10:0 11:0 12:0 13:0 14:0 15:0 16:0 17:0 18:0 19:0 20:0 21:0 22:0 23:0 24:5 25:5 26:3 27:0 28:0 29:0 30:6 31:6 32:0 33:0 34:0 35:0 36:9 37:9 38:7 39:7 40:7 41:0 42:10 43:10 44:10 45:10 46:0 47:0 48:0 49:0 50:0 51:0 52:0 
0.4637513988632315 1:0.67430927 2:0.056192439 3:0.056192439 4:0.056192439 5:0 6:0 7:1 8:1 9:1 10:1 11:2 12:0 13:1 14:12 15:1 16:1 17:0 18:0 19:0 20:6 21:0 22:0 23:0 24:0 25:0 26:9 27:0 28:0 29:0 30:0 31:0 32:10 33:0 34:0 35:0 36:0 37:0 38:8 39:0 40:0 41:0 42:0 43:0 44:0 45:0 46:0 47:0 48:0 49:0 50:0 51:0 52:0 
0.4918417007782028 1:0.67566486 2:0.029376733 3:0.029376733 4:0.029376733 5:0 6:0 7:0 8:0 9:0 10:0 11:6 12:6 13:2 14:0 15:0 16:5 17:14 18:14 19:0 20:0 21:0 22:10 23:15 24:15 25:0 26:0 27:0 28:10 29:16 30:16 31:0 32:0 33:0 34:11 35:23 36:23 37:0 38:0 39:0 40:22 41:21 42:21 43:21 44:0 45:0 46:0 47:0 48:0 49:0 50:0 51:0 52:0 
0.1617339415201323 1:0.14239024 2:0.023731707 3:0.023731707 4:0.023731707 5:6 6:6 7:6 8:4 9:4 10:5 11:3 12:3 13:3 14:0 15:0 16:0 17:0 18:0 19:0 20:0 21:0 22:0 23:0 24:0 25:0 26:0 27:0 28:0 29:0 30:0 31:0 32:0 33:0 34:0 35:0 36:0 37:0 38:0 39:0 40:0 41:0 42:0 43:0 44:0 45:0 46:0 47:1 48:1 49:1 50:2 51:2 52:2 
1 1:0.16697509 2:0.027829182 3:0.027829182 4:0.027829182 5:6 6:6 7:6 8:6 9:6 10:6 11:5 12:5 13:5 14:5 15:5 16:5 17:5 18:5 19:5 20:5 21:5 22:5 23:5 24:5 25:5 26:5 27:5 28:5 29:5 30:5 31:5 32:5 33:5 34:5 35:5 36:5 37:5 38:5 39:5 40:5 41:5 42:5 43:5 44:5 45:5 46:5 47:2 48:2 49:2 50:2 51:2 52:2 
0.427479361732986 1:0.39196643 2:0.097991607 3:0.097991607 4:0.097991607 5:0 6:0 7:0 8:0 9:0 10:0 11:4 12:4 13:0 14:0 15:0 16:0 17:0 18:0 19:0 20:0 21:0 22:0 23:1 24:1 25:0 26:0 27:0 28:0 29:0 30:0 31:0 32:0 33:0 34:0 35:3 36:3 37:2 38:2 39:2 40:2 41:0 42:0 43:0 44:0 45:0 46:0 47:0 48:0 49:0 50:0 51:0 52:0 
0.3973262528906597 1:0.025809082 2:0.0023462801 3:0.0023462801 4:0.0023462801 5:0 6:2 7:2 8:2 9:2 10:11 11:4 12:4 13:4 14:4 15:4 16:4 17:4 18:4 19:4 20:4 21:4 22:4 23:7 24:7 25:7 26:7 27:7 28:7 29:7 30:7 31:7 32:7 33:7 34:7 35:6 36:6 37:6 38:6 39:6 40:6 41:9 42:9 43:9 44:9 45:9 46:9 47:8 48:8 49:8 50:10 51:10 52:10 
0.2329175632945085 1:0.16315125 2:0.018127917 3:0.018127917 4:0.018127917 5:0 6:0 7:0 8:0 9:0 10:0 11:7 12:7 13:7 14:7 15:7 16:7 17:2 18:2 19:2 20:2 21:2 22:2 23:3 24:3 25:3 26:3 27:3 28:3 29:8 30:8 31:8 32:8 33:8 34:8 35:8 36:8 37:8 38:8 39:8 40:8 41:9 42:9 43:9 44:9 45:9 46:9 47:0 48:0 49:1 50:1 51:0 52:0 
0.2621445103789016 1:0.068903084 2:0.013780617 3:0.013780617 4:0.013780617 5:5 6:5 7:5 8:5 9:5 10:5 11:4 12:4 13:4 14:4 15:4 16:4 17:0 18:0 19:0 20:0 21:0 22:0 23:0 24:0 25:0 26:0 27:0 28:0 29:0 30:0 31:0 32:0 33:0 34:0 35:0 36:0 37:0 38:0 39:0 40:0 41:1 42:1 43:1 44:1 45:1 46:2 47:0 48:0 49:0 50:0 51:0 52:0 
0.9867538862110495 1:0.46818381 2:0.093636762 3:0.093636762 4:0.093636762 5:5 6:5 7:5 8:5 9:5 10:1 11:5 12:5 13:5 14:5 15:5 16:0 17:0 18:0 19:0 20:0 21:0 22:0 23:0 24:0 25:3 26:3 27:0 28:0 29:0 30:0 31:3 32:3 33:0 34:0 35:0 36:0 37:0 38:0 39:0 40:0 41:0 42:0 43:0 44:0 45:0 46:0 47:4 48:4 49:4 50:4 51:4 52:0 
0.7980616443224384 1:0.084163646 2:0.012023378 3:0.012023378 4:0.012023378 5:7 6:7 7:7 8:7 9:7 10:7 11:2 12:2 13:2 14:2 15:2 16:2 17:5 18:5 19:5 20:5 21:5 22:5 23:0 24:0 25:0 26:0 27:0 28:0 29:0 30:0 31:0 32:0 33:0 34:0 35:0 36:0 37:0 38:0 39:0 40:0 41:0 42:0 43:0 44:0 45:0 46:0 47:0 48:6 49:6 50:6 51:6 52:0 
0.2606794435756644 1:0.2877728 2:0.071943201 3:0.071943201 4:0.071943201 5:0 6:0 7:0 8:0 9:0 10:0 11:0 12:0 13:4 14:4 15:3 16:3 17:2 18:2 19:4 20:4 21:3 22:3 23:2 24:2 25:0 26:0 27:0 28:0 29:0 30:0 31:0 32:0 33:0 34:0 35:0 36:0 37:0 38:0 39:0 40:0 41:0 42:0 43:0 44:0 45:0 46:0 47:0 48:0 49:0 50:0 51:0 52:0 
0.4380678558437955 1:0.12602088 2:0.018002983 3:0.018002983 4:0.018002983 5:0 6:0 7:0 8:0 9:0 10:0 11:1 12:1 13:1 14:1 15:1 16:1 17:3 18:3 19:3 20:3 21:3 22:3 23:2 24:2 25:5 26:5 27:2 28:2 29:0 30:6 31:7 32:7 33:6 34:0 35:0 36:0 37:0 38:0 39:0 40:0 41:0 42:0 43:0 44:0 45:0 46:0 47:0 48:0 49:0 50:0 51:0 52:0 
0.4397403107636516 1:0.392126 2:0.078425201 3:0.078425201 4:0.078425201 5:0 6:0 7:0 8:0 9:0 10:0 11:0 12:0 13:0 14:0 15:0 16:0 17:2 18:2 19:2 20:2 21:2 22:2 23:0 24:0 25:0 26:0 27:0 28:0 29:0 30:0 31:0 32:0 33:0 34:0 35:4 36:4 37:3 38:3 39:3 40:5 41:0 42:0 43:0 44:0 45:0 46:0 47:0 48:0 49:0 50:0 51:0 52:0 
0.4918652702748468 1:0.11681555 2:0.0089858113 3:0.0089858113 4:0.0089858113 5:4 6:4 7:4 8:4 9:4 10:4 11:4 12:4 13:4 14:4 15:4 16:4 17:4 18:4 19:4 20:4 21:4 22:4 23:3 24:3 25:13 26:13 27:2 28:2 29:3 30:3 31:13 32:13 33:2 34:2 35:12 36:12 37:11 38:11 39:11 40:11 41:11 42:11 43:11 44:11 45:11 46:11 47:0 48:0 49:0 50:0 51:0 52:0 
0.4803399029874061 1:0.73375028 2:0.081527809 3:0.081527809 4:0.081527809 5:0 6:0 7:0 8:0 9:0 10:0 11:0 12:0 13:0 14:9 15:9 16:0 17:0 18:0 19:8 20:8 21:0 22:0 23:0 24:0 25:8 26:8 27:0 28:0 29:0 30:0 31:0 32:5 33:5 34:0 35:0 36:0 37:0 38:6 39:6 40:0 41:0 42:3 43:3 44:4 45:4 46:0 47:0 48:0 49:0 50:0 51:2 52:0 
0.4917692781928733 1:0.27967266 2:0.019976619 3:0.019976619 4:0.019976619 5:1 6:0 7:0 8:0 9:11 10:14 11:0 12:0 13:0 14:0 15:0 16:0 17:2 18:2 19:2 20:2 21:2 22:0 23:13 24:13 25:12 26:12 27:2 28:0 29:13 30:13 31:10 32:10 33:10 34:0 35:8 36:6 37:6 38:6 39:0 40:7 41:8 42:0 43:0 44:0 45:0 46:7 47:4 48:4 49:4 50:4 51:4 52:4 
0.4491043121422878 1:0.23383099 2:0.058457747 3:0.058457747 4:0.058457747 5:0 6:0 7:0 8:0 9:0 10:0 11:0 12:0 13:0 14:0 15:0 16:4 17:0 18:0 19:0 20:0 21:0 22:4 23:0 24:0 25:0 26:0 27:0 28:0 29:0 30:3 31:3 32:3 33:3 34:0 35:0 36:3 37:3 38:3 39:3 40:0 41:0 42:0 43:1 44:1 45:0 46:0 47:0 48:0 49:1 50:1 51:0 52:0 
0.4552827085841999 1:0.53091586 2:0.040839681 3:0.040839681 4:0.040839681 5:0 6:0 7:0 8:0 9:0 10:0 11:7 12:7 13:0 14:0 15:0 16:0 17:10 18:10 19:0 20:0 21:0 22:0 23:8 24:1 25:0 26:0 27:0 28:0 29:13 30:13 31:0 32:0 33:0 34:0 35:12 36:12 37:0 38:0 39:0 40:0 41:5 42:0 43:0 44:0 45:0 46:0 47:5 48:0 49:0 50:0 51:0 52:3 
0.5305563531326271 1:0.49414992 2:0.08235832 3:0.08235832 4:0.08235832 5:4 6:4 7:4 8:4 9:4 10:4 11:6 12:5 13:5 14:0 15:0 16:0 17:3 18:3 19:1 20:1 21:1 22:1 23:1 24:1 25:1 26:1 27:1 28:1 29:0 30:0 31:0 32:0 33:0 34:0 35:0 36:0 37:0 38:0 39:0 40:0 41:0 42:0 43:0 44:0 45:0 46:0 47:0 48:0 49:0 50:0 51:0 52:0 
0.2174673349789338 1:0.21665023 2:0.019695476 3:0.019695476 4:0.019695476 5:0 6:0 7:11 8:11 9:0 10:0 11:0 12:0 13:9 14:9 15:9 16:4 17:0 18:0 19:9 20:9 21:10 22:10 23:0 24:0 25:2 26:2 27:2 28:1 29:0 30:0 31:0 32:0 33:0 34:0 35:0 36:0 37:0 38:0 39:0 40:0 41:0 42:0 43:0 44:0 45:0 46:0 47:0 48:0 49:0 50:0 51:0 52:0 
0.456348586450987 1:0.3020942 2:0.018880888 3:0.018880888 4:0.018880888 5:0 6:0 7:0 8:0 9:0 10:0 11:13 12:13 13:14 14:14 15:15 16:15 17:12 18:12 19:14 20:14 21:16 22:16 23:12 24:12 25:0 26:0 27:11 28:11 29:0 30:0 31:0 32:0 33:0 34:0 35:0 36:0 37:0 38:0 39:0 40:0 41:0 42:0 43:0 44:0 45:0 46:0 47:0 48:0 49:0 50:0 51:0 52:0 
0.1246183943740694 1:0.0196961 2:0.0021884556 3:0.0021884556 4:0.0021884556 5:1 6:1 7:1 8:1 9:1 10:1 11:2 12:2 13:2 14:2 15:2 16:2 17:4 18:4 19:4 20:4 21:4 22:4 23:5 24:5 25:5 26:5 27:5 28:5 29:8 30:8 31:8 32:8 33:8 34:8 35:9 36:9 37:9 38:9 39:9 40:9 41:0 42:0 43:0 44:0 45:0 46:0 47:0 48:0 49:0 50:0 51:0 52:0 
0.4527537242182683 1:0.12532168 2:0.025064336 3:0.025064336 4:0.025064336 5:0 6:0 7:0 8:0 9:0 10:0 11:0 12:0 13:0 14:0 15:0 16:0 17:0 18:0 19:0 20:0 21:0 22:0 23:0 24:5 25:5 26:5 27:5 28:0 29:0 30:0 31:1 32:1 33:0 34:0 35:0 36:0 37:0 38:0 39:0 40:0 41:3 42:3 43:3 44:3 45:3 46:3 47:0 48:4 49:4 50:4 51:4 52:0 
0.4032762973816063 1:0.15355274 2:0.0095970462 3:0.0095970462 4:0.0095970462 5:0 6:0 7:0 8:0 9:0 10:0 11:5 12:5 13:1 14:0 15:0 16:0 17:3 18:3 19:0 20:0 21:0 22:0 23:7 24:7 25:0 26:0 27:0 28:0 29:15 30:14 31:0 32:0 33:0 34:0 35:15 36:13 37:0 38:0 39:0 40:0 41:11 42:11 43:0 44:0 45:0 46:0 47:16 48:16 49:0 50:0 51:0 52:0 
0.4915130760089869 1:0.38557763 2:0.025705176 3:0.025705176 4:0.025705176 5:15 6:15 7:15 8:15 9:15 10:14 11:10 12:10 13:10 14:10 15:9 16:14 17:12 18:12 19:12 20:11 21:0 22:0 23:13 24:13 25:13 26:13 27:13 28:0 29:6 30:6 31:6 32:0 33:0 34:0 35:7 36:7 37:7 38:2 39:0 40:0 41:8 42:8 43:8 44:3 45:3 46:0 47:4 48:4 49:4 50:4 51:4 52:4 
0.4853436649365114 1:0.38009479 2:0.031674566 3:0.031674566 4:0.031674566 5:7 6:7 7:6 8:6 9:6 10:6 11:9 12:9 13:9 14:8 15:0 16:0 17:12 18:12 19:12 20:12 21:0 22:0 23:11 24:11 25:11 26:10 27:0 28:1 29:0 30:0 31:0 32:0 33:0 34:0 35:0 36:0 37:0 38:0 39:0 40:0 41:0 42:0 43:0 44:0 45:0 46:0 47:0 48:0 49:0 50:0 51:0 52:0 
0.1119522866869078 1:0.020623369 2:0.0022914854 3:0.0022914854 4:0.0022914854 5:9 6:9 7:8 8:5 9:5 10:5 11:5 12:5 13:6 14:7 15:7 16:7 17:4 18:4 19:6 20:7 21:7 22:7 23:2 24:2 25:2 26:3 27:3 28:3 29:0 30:0 31:0 32:0 33:0 34:0 35:0 36:0 37:0 38:0 39:0 40:0 41:0 42:0 43:0 44:0 45:0 46:0 47:0 48:0 49:0 50:0 51:0 52:0 
0.491528172692593 1:0.23289542 2:0.013699731 3:0.013699731 4:0.013699731 5:6 6:6 7:9 8:9 9:9 10:9 11:7 12:7 13:15 14:15 15:15 16:15 17:17 18:17 19:15 20:15 21:15 22:15 23:16 24:16 25:13 26:13 27:13 28:13 29:0 30:0 31:5 32:5 33:5 34:5 35:11 36:11 37:3 38:3 39:3 40:3 41:10 42:10 43:0 44:0 45:0 46:0 47:0 48:0 49:0 50:0 51:0 52:0 
0.4834036435031545 1:0.44063029 2:0.033894637 3:0.033894637 4:0.033894637 5:2 6:2 7:0 8:0 9:0 10:0 11:6 12:6 13:6 14:0 15:0 16:0 17:8 18:8 19:8 20:0 21:0 22:0 23:10 24:10 25:9 26:0 27:0 28:0 29:13 30:13 31:0 32:0 33:0 34:0 35:13 36:13 37:0 38:0 39:0 40:0 41:0 42:0 43:0 44:0 45:0 46:0 47:0 48:0 49:0 50:0 51:0 52:0 
0.4920139897098239 1:0.11594729 2:0.0064415162 3:0.0064415162 4:0.0064415162 5:17 6:17 7:17 8:0 9:0 10:0 11:18 12:18 13:18 14:0 15:0 16:0 17:18 18:18 19:18 20:14 21:14 22:0 23:14 24:14 25:14 26:14 27:14 28:0 29:16 30:15 31:15 32:1 33:1 34:0 35:13 36:11 37:12 38:10 39:0 40:0 41:9 42:9 43:6 44:6 45:6 46:4 47:7 48:7 49:6 50:6 51:6 52:0 
0.3320216951327435 1:0.11142827 2:0.015918324 3:0.015918324 4:0.015918324 5:7 6:7 7:7 8:7 9:0 10:0 11:7 12:7 13:7 14:7 15:0 16:0 17:5 18:5 19:5 20:5 21:0 22:0 23:0 24:0 25:0 26:0 27:0 28:0 29:0 30:0 31:0 32:0 33:0 34:0 35:0 36:0 37:0 38:0 39:0 40:0 41:3 42:3 43:0 44:0 45:0 46:0 47:3 48:3 49:1 50:1 51:0 52:0 
0.4916984351646721 1:0.11777573 2:0.0053534421 3:0.0053534421 4:0.0053534421 5:22 6:22 7:22 8:22 9:22 10:22 11:22 12:22 13:22 14:22 15:22 16:22 17:20 18:20 19:20 20:20 21:20 22:20 23:17 24:17 25:17 26:17 27:17 28:17 29:9 30:9 31:9 32:9 33:9 34:9 35:10 36:10 37:10 38:10 39:10 40:10 41:16 42:16 43:16 44:16 45:16 46:16 47:15 48:15 49:11 50:14 51:14 52:11 
0.4508295439273435 1:0.076969627 2:0.0076969627 3:0.0076969627 4:0.0076969627 5:0 6:0 7:0 8:0 9:0 10:0 11:0 12:2 13:2 14:2 15:2 16:2 17:0 18:0 19:0 20:3 21:9 22:9 23:0 24:0 25:7 26:10 27:10 28:8 29:0 30:0 31:0 32:6 33:6 34:4 35:0 36:0 37:0 38:0 39:0 40:0 41:0 42:0 43:0 44:0 45:0 46:0 47:0 48:0 49:0 50:0 51:0 52:0 
0.4915514967342167 1:0.21221595 2:0.019292359 3:0.019292359 4:0.019292359 5:2 6:0 7:0 8:0 9:1 10:4 11:2 12:3 13:3 14:3 15:3 16:4 17:0 18:0 19:0 20:0 21:0 22:0 23:0 24:0 25:0 26:0 27:9 28:9 29:0 30:0 31:0 32:10 33:11 34:11 35:0 36:0 37:0 38:0 39:0 40:0 41:0 42:0 43:0 44:0 45:0 46:0 47:0 48:0 49:0 50:0 51:0 52:0 
0.8106218261639819 1:0.11993444 2:0.019989073 3:0.019989073 4:0.019989073 5:6 6:6 7:6 8:6 9:0 10:0 11:6 12:6 13:6 14:6 15:0 16:0 17:5 18:5 19:5 20:5 21:0 22:0 23:2 24:2 25:2 26:2 27:0 28:0 29:1 30:1 31:1 32:1 33:0 34:0 35:1 36:1 37:1 38:1 39:0 40:0 41:3 42:3 43:3 44:3 45:0 46:0 47:3 48:3 49:3 50:3 51:0 52:0 
0.1725844062474914 1:0.30294604 2:0.07573651 3:0.07573651 4:0.07573651 5:0 6:0 7:0 8:0 9:0 10:0 11:2 12:2 13:2 14:2 15:2 16:2 17:1 18:1 19:1 20:1 21:1 22:1 23:0 24:0 25:0 26:0 27:0 28:0 29:4 30:4 31:0 32:0 33:0 34:3 35:0 36:0 37:0 38:0 39:0 40:0 41:0 42:0 43:0 44:0 45:0 46:0 47:0 48:0 49:0 50:0 51:0 52:0 
0.09169787026464161 1:0.34245322 2:0.057075536 3:0.057075536 4:0.057075536 5:3 6:3 7:2 8:6 9:0 10:0 11:5 12:4 13:4 14:6 15:4 16:4 17:0 18:0 19:0 20:0 21:0 22:0 23:0 24:0 25:0 26:0 27:0 28:0 29:0 30:0 31:0 32:0 33:0 34:0 35:0 36:0 37:0 38:0 39:0 40:0 41:0 42:0 43:0 44:0 45:0 46:0 47:0 48:0 49:0 50:0 51:0 52:0 
0.4758786219543797 1:0.13649048 2:0.027298095 3:0.027298095 4:0.027298095 5:0 6:0 7:0 8:0 9:0 10:0 11:0 12:0 13:0 14:0 15:0 16:0 17:0 18:1 19:1 20:1 21:1 22:1 23:0 24:2 25:2 26:2 27:2 28:2 29:0 30:3 31:3 32:3 33:3 34:3 35:0 36:0 37:0 38:0 39:0 40:0 41:0 42:0 43:0 44:0 45:0 46:0 47:0 48:5 49:5 50:5 51:5 52:5 
0.4016194282143877 1:0.55885924 2:0.079837035 3:0.079837035 4:0.079837035 5:0 6:0 7:0 8:0 9:0 10:0 11:0 12:0 13:0 14:0 15:0 16:0 17:0 18:0 19:0 20:0 21:0 22:0 23:0 24:0 25:1 26:1 27:6 28:6 29:7 30:7 31:5 32:0 33:0 34:0 35:5 36:5 37:5 38:0 39:0 40:0 41:0 42:0 43:0 44:0 45:0 46:0 47:0 48:0 49:0 50:0 51:0 52:0 
0.4377006442149498 1:0.04079133 2:0.0033992775 3:0.0033992775 4:0.0033992775 5:12 6:12 7:12 8:0 9:0 10:0 11:11 12:11 13:11 14:0 15:0 16:0 17:9 18:9 19:9 20:0 21:0 22:0 23:10 24:10 25:10 26:0 27:0 28:0 29:10 30:10 31:10 32:0 33:0 34:0 35:4 36:4 37:4 38:0 39:0 40:0 41:0 42:0 43:0 44:0 45:0 46:0 47:0 48:0 49:0 50:0 51:0 52:0 
0.4999323251122381 1:0.38077471 2:0.042308301 3:0.042308301 4:0.042308301 5:3 6:3 7:0 8:0 9:0 10:0 11:4 12:4 13:4 14:0 15:0 16:0 17:7 18:7 19:7 20:0 21:0 22:0 23:7 24:7 25:7 26:0 27:0 28:0 29:0 30:0 31:0 32:0 33:0 34:0 35:0 36:0 37:0 38:0 39:0 40:0 41:0 42:6 43:6 44:6 45:6 46:0 47:5 48:5 49:9 50:8 51:5 52:5 
0.3585579791595542 1:0.14982721 2:0.021403887 3:0.021403887 4:0.021403887 5:0 6:0 7:0 8:0 9:0 10:0 11:0 12:0 13:0 14:0 15:0 16:0 17:0 18:0 19:7 20:7 21:0 22:0 23:0 24:1 25:7 26:7 27:0 28:0 29:0 30:0 31:0 32:0 33:0 34:0 35:0 36:0 37:0 38:4 39:0 40:0 41:0 42:0 43:3 44:3 45:0 46:0 47:0 48:0 49:6 50:5 51:0 52:0 
0.6202359278087649 1:0.23939244 2:0.029924055 3:0.029924055 4:0.029924055 5:5 6:5 7:5 8:5 9:5 10:5 11:5 12:5 13:5 14:5 15:5 16:5 17:5 18:5 19:5 20:5 21:5 22:5 23:3 24:3 25:0 26:0 27:0 28:0 29:0 30:0 31:0 32:0 33:0 34:0 35:0 36:0 37:2 38:2 39:0 40:0 41:1 42:7 43:7 44:8 45:6 46:0 47:1 48:7 49:7 50:8 51:6 52:0 
0.4917742172641422 1:0.57933885 2:0.028966943 3:0.028966943 4:0.028966943 5:2 6:2 7:4 8:4 9:0 10:0 11:3 12:3 13:4 14:6 15:6 16:6 17:0 18:20 19:20 20:19 21:19 22:0 23:0 24:20 25:20 26:0 27:0 28:0 29:0 30:0 31:18 32:18 33:15 34:0 35:0 36:0 37:14 38:14 39:13 40:0 41:0 42:11 43:12 44:9 45:9 46:0 47:0 48:0 49:10 50:8 51:7 52:0 
0.4921511728961276 1:0.43216175 2:0.0080029954 3:0.0080029954 4:0.0080029954 5:0 6:0 7:0 8:0 9:0 10:0 11:14 12:14 13:0 14:0 15:0 16:0 17:39 18:39 19:0 20:0 21:0 22:0 23:41 24:41 25:0 26:0 27:0 28:0 29:30 30:30 31:0 32:0 33:0 34:0 35:51 36:51 37:0 38:0 39:0 40:0 41:52 42:52 43:0 44:0 45:0 46:0 47:54 48:53 49:0 50:0 51:0 52:0 
0.4753550211693004 1:0.044883916 2:0.0024935509 3:0.0024935509 4:0.0024935509 5:7 6:7 7:7 8:7 9:7 10:7 11:18 12:18 13:18 14:18 15:18 16:18 17:16 18:16 19:16 20:16 21:16 22:16 23:14 24:14 25:14 26:14 27:14 28:14 29:14 30:14 31:14 32:14 33:14 34:14 35:11 36:11 37:11 38:11 39:11 40:11 41:10 42:10 43:10 44:10 45:10 46:10 47:3 48:3 49:3 50:3 51:3 52:3 
0.04368246313356592 1:0.1573479 2:0.0524493 3:0.0524493 4:0.0524493 5:0 6:0 7:0 8:0 9:0 10:1 11:0 12:0 13:0 14:0 15:0 16:0 17:3 18:3 19:3 20:3 21:3 22:0 23:3 24:3 25:3 26:3 27:3 28:2 29:2 30:2 31:2 32:2 33:2 34:2 35:2 36:2 37:2 38:2 39:2 40:2 41:0 42:0 43:0 44:0 45:0 46:0 47:0 48:0 49:0 50:0 51:0 52:0 
0.4909649369021721 1:0.19325861 2:0.011368154 3:0.011368154 4:0.011368154 5:15 6:15 7:15 8:0 9:0 10:0 11:16 12:17 13:17 14:17 15:17 16:17 17:13 18:13 19:12 20:12 21:12 22:12 23:13 24:13 25:12 26:12 27:12 28:12 29:4 30:4 31:4 32:4 33:4 34:4 35:6 36:6 37:6 38:6 39:6 40:7 41:6 42:6 43:6 44:6 45:6 46:7 47:0 48:0 49:0 50:0 51:0 52:0 
1 1:0.33609587 2:0.067219174 3:0.067219174 4:0.067219174 5:0 6:0 7:0 8:0 9:0 10:0 11:0 12:0 13:0 14:0 15:0 16:0 17:5 18:5 19:5 20:3 21:3 22:3 23:0 24:0 25:0 26:0 27:0 28:0 29:4 30:4 31:4 32:4 33:4 34:4 35:0 36:0 37:0 38:0 39:0 40:0 41:0 42:0 43:0 44:0 45:0 46:0 47:0 48:0 49:0 50:0 51:0 52:0 
0.5463722119818979 1:0.48280731 2:0.053645257 3:0.053645257 4:0.053645257 5:7 6:7 7:3 8:2 9:5 10:5 11:1 12:3 13:3 14:2 15:5 16:5 17:4 18:8 19:8 20:9 21:9 22:6 23:0 24:0 25:0 26:0 27:0 28:0 29:0 30:0 31:0 32:0 33:0 34:0 35:0 36:0 37:0 38:0 39:0 40:0 41:0 42:0 43:0 44:0 45:0 46:0 47:0 48:0 49:0 50:0 51:0 52:0 
0.4918883742364631 1:0.41340739 2:0.02067037 3:0.02067037 4:0.02067037 5:1 6:1 7:0 8:0 9:0 10:0 11:5 12:4 13:4 14:4 15:2 16:0 17:8 18:8 19:8 20:8 21:8 22:0 23:19 24:19 25:19 26:19 27:17 28:0 29:17 30:17 31:17 32:17 33:17 34:0 35:13 36:13 37:13 38:13 39:13 40:0 41:20 42:20 43:20 44:20 45:0 46:0 47:0 48:0 49:0 50:0 51:0 52:0 
0.6373308027567557 1:0.32813369 2:0.054688949 3:0.054688949 4:0.054688949 5:5 6:5 7:0 8:0 9:0 10:0 11:0 12:0 13:0 14:0 15:0 16:0 17:4 18:4 19:0 20:0 21:0 22:0 23:3 24:3 25:3 26:0 27:0 28:0 29:0 30:6 31:6 32:6 33:6 34:6 35:0 36:0 37:0 38:0 39:0 40:0 41:0 42:0 43:0 44:0 45:0 46:0 47:0 48:0 49:0 50:0 51:0 52:0 
0.2242130870485604 1:0.080221027 2:0.016044205 3:0.016044205 4:0.016044205 5:2 6:2 7:2 8:0 9:0 10:0 11:1 12:1 13:1 14:1 15:1 16:5 17:4 18:4 19:4 20:4 21:3 22:5 23:4 24:4 25:4 26:4 27:3 28:3 29:0 30:0 31:0 32:0 33:0 34:0 35:0 36:0 37:0 38:0 39:0 40:0 41:0 42:0 43:0 44:0 45:0 46:0 47:0 48:0 49:0 50:0 51:0 52:0 
0.4915349236104226 1:0.44106843 2:0.023214128 3:0.023214128 4:0.023214128 5:12 6:12 7:12 8:0 9:0 10:0 11:19 12:13 13:12 14:0 15:0 16:0 17:16 18:16 19:16 20:0 21:0 22:0 23:18 24:18 25:16 26:0 27:0 28:0 29:2 30:2 31:0 32:0 33:0 34:0 35:6 36:6 37:0 38:0 39:0 40:0 41:9 42:9 43:0 44:0 45:0 46:0 47:8 48:8 49:0 50:0 51:0 52:0 
0.4918850076632991 1:0.24276612 2:0.022069647 3:0.022069647 4:0.022069647 5:0 6:6 7:6 8:6 9:6 10:0 11:0 12:0 13:0 14:0 15:0 16:0 17:0 18:0 19:0 20:0 21:0 22:0 23:0 24:11 25:11 26:11 27:11 28:0 29:0 30:7 31:7 32:7 33:7 34:0 35:0 36:1 37:1 38:1 39:1 40:0 41:0 42:9 43:9 44:9 45:9 46:0 47:0 48:9 49:9 50:9 51:9 52:0 
0.4914368520649665 1:0.25560133 2:0.018257238 3:0.018257238 4:0.018257238 5:11 6:11 7:11 8:0 9:0 10:0 11:7 12:7 13:0 14:0 15:0 16:0 17:0 18:0 19:0 20:0 21:0 22:0 23:8 24:8 25:8 26:0 27:0 28:0 29:6 30:6 31:6 32:0 33:0 34:0 35:4 36:4 37:4 38:0 39:0 40:0 41:14 42:14 43:14 44:0 45:0 46:0 47:14 48:14 49:14 50:0 51:0 52:0 
0.4915733392743683 1:0.25415328 2:0.018153806 3:0.018153806 4:0.018153806 5:12 6:4 7:0 8:0 9:0 10:0 11:7 12:7 13:5 14:5 15:5 16:5 17:1 18:1 19:0 20:0 21:0 22:0 23:9 24:9 25:2 26:2 27:2 28:2 29:11 30:11 31:0 32:0 33:14 34:14 35:10 36:10 37:0 38:0 39:13 40:13 41:0 42:0 43:0 44:0 45:13 46:13 47:0 48:0 49:0 50:0 51:0 52:0 
0.4917722108014627 1:0.17132543 2:0.0065894398 3:0.0065894398 4:0.0065894398 5:0 6:0 7:0 8:0 9:0 10:0 11:0 12:0 13:0 14:0 15:0 16:0 17:26 18:26 19:26 20:26 21:26 22:26 23:26 24:26 25:26 26:26 27:26 28:26 29:19 30:0 31:23 32:22 33:21 34:20 35:19 36:18 37:17 38:16 39:14 40:14 41:11 42:11 43:25 44:25 45:24 46:24 47:11 48:11 49:25 50:25 51:24 52:24 
0.4916954068167103 1:0.16012796 2:0.010007997 3:0.010007997 4:0.010007997 5:0 6:0 7:0 8:0 9:0 10:0 11:16 12:16 13:16 14:0 15:0 16:0 17:12 18:12 19:12 20:0 21:0 22:0 23:11 24:11 25:11 26:0 27:0 28:0 29:7 30:7 31:7 32:0 33:0 34:0 35:5 36:5 37:5 38:0 39:0 40:0 41:13 42:13 43:13 44:13 45:14 46:14 47:13 48:13 49:13 50:13 51:13 52:13 
0.4014822422639108 1:0.12689719 2:0.01812817 3:0.01812817 4:0.01812817 5:0 6:0 7:7 8:7 9:0 10:0 11:0 12:0 13:0 14:0 15:0 16:0 17:0 18:0 19:0 20:0 21:0 22:0 23:6 24:6 25:5 26:5 27:5 28:5 29:4 30:4 31:4 32:4 33:4 34:4 35:4 36:4 37:4 38:4 39:4 40:4 41:0 42:0 43:0 44:0 45:0 46:0 47:0 48:0 49:0 50:0 51:0 52:0 
0.4650177787165741 1:0.048632181 2:0.0027017878 3:0.0027017878 4:0.0027017878 5:0 6:0 7:0 8:0 9:0 10:0 11:0 12:0 13:0 14:0 15:0 16:0 17:0 18:0 19:0 20:0 21:0 22:0 23:0 24:0 25:0 26:0 27:0 28:0 29:0 30:0 31:0 32:0 33:0 34:0 35:16 36:11 37:13 38:14 39:15 40:15 41:18 42:18 43:8 44:5 45:17 46:17 47:0 48:0 49:0 50:0 51:0 52:0 
0.7121016914824491 1:0.14039589 2:0.046798632 3:0.046798632 4:0.046798632 5:3 6:3 7:3 8:3 9:3 10:3 11:0 12:0 13:0 14:0 15:0 16:0 17:2 18:2 19:2 20:2 21:0 22:0 23:1 24:1 25:1 26:1 27:0 28:0 29:0 30:0 31:0 32:0 33:0 34:0 35:0 36:0 37:0 38:0 39:0 40:0 41:0 42:0 43:0 44:0 45:0 46:0 47:0 48:0 49:0 50:0 51:0 52:0 
0.4917500065931278 1:0.25757583 2:0.018398274 3:0.018398274 4:0.018398274 5:0 6:0 7:0 8:0 9:11 10:11 11:0 12:0 13:0 14:0 15:11 16:11 17:13 18:13 19:13 20:0 21:0 22:0 23:14 24:14 25:14 26:3 27:4 28:4 29:10 30:10 31:7 32:7 33:7 34:0 35:5 36:5 37:5 38:0 39:9 40:9 41:2 42:2 43:2 44:2 45:9 46:9 47:8 48:8 49:1 50:0 51:6 52:6 
0.4919076554977308 1:0.37865869 2:0.014563796 3:0.014563796 4:0.014563796 5:1 6:3 7:3 8:2 9:22 10:23 11:6 12:6 13:6 14:6 15:22 16:23 17:7 18:7 19:7 20:7 21:7 22:10 23:26 24:26 25:26 26:26 27:26 28:26 29:24 30:24 31:24 32:24 33:24 34:24 35:18 36:18 37:18 38:18 39:18 40:18 41:25 42:25 43:25 44:25 45:25 46:25 47:15 48:15 49:14 50:0 51:13 52:13 
0.4915477508885574 1:0.34810915 2:0.017405457 3:0.017405457 4:0.017405457 5:0 6:0 7:0 8:0 9:0 10:0 11:0 12:0 13:0 14:0 15:0 16:0 17:9 18:9 19:9 20:9 21:9 22:9 23:16 24:16 25:16 26:16 27:18 28:18 29:16 30:16 31:16 32:16 33:20 34:20 35:4 36:6 37:6 38:3 39:7 40:8 41:4 42:6 43:6 44:2 45:7 46:8 47:0 48:0 49:0 50:0 51:0 52:0 
0.4792903945289382 1:0.32500146 2:0.029545587 3:0.029545587 4:0.029545587 5:9 6:9 7:0 8:0 9:0 10:0 11:10 12:10 13:0 14:0 15:0 16:0 17:8 18:8 19:0 20:0 21:0 22:0 23:8 24:8 25:0 26:0 27:0 28:0 29:0 30:0 31:0 32:0 33:0 34:0 35:0 36:0 37:0 38:0 39:0 40:0 41:0 42:0 43:0 44:0 45:0 46:0 47:0 48:0 49:4 50:4 51:0 52:11 
0.4917675127138955 1:0.061568831 2:0.004736064 3:0.004736064 4:0.004736064 5:0 6:0 7:0 8:0 9:0 10:0 11:0 12:11 13:11 14:11 15:11 16:11 17:0 18:8 19:8 20:10 21:10 22:10 23:0 24:0 25:0 26:7 27:7 28:7 29:0 30:0 31:0 32:0 33:0 34:0 35:0 36:13 37:13 38:13 39:13 40:13 41:0 42:5 43:5 44:6 45:6 46:6 47:0 48:0 49:0 50:0 51:0 52:0 
0.447873915451952 1:0.53512695 2:0.13378174 3:0.13378174 4:0.13378174 5:0 6:3 7:3 8:3 9:3 10:0 11:0 12:4 13:4 14:4 15:4 16:0 17:0 18:4 19:4 20:4 21:4 22:0 23:0 24:0 25:0 26:0 27:0 28:0 29:0 30:0 31:0 32:0 33:0 34:0 35:0 36:0 37:0 38:0 39:0 40:0 41:0 42:0 43:0 44:0 45:0 46:0 47:0 48:0 49:0 50:0 51:0 52:0 
0.6379973418852453 1:0.40900461 2:0.05842923 3:0.05842923 4:0.05842923 5:0 6:0 7:7 8:7 9:6 10:6 11:0 12:0 13:7 14:7 15:6 16:6 17:0 18:0 19:0 20:0 21:0 22:0 23:0 24:0 25:0 26:0 27:0 28:0 29:0 30:0 31:0 32:3 33:3 34:0 35:0 36:0 37:0 38:1 39:5 40:4 41:0 42:0 43:0 44:0 45:0 46:0 47:0 48:0 49:0 50:0 51:0 52:0 
0.3839885661277066 1:0.074286235 2:0.0074286235 3:0.0074286235 4:0.0074286235 5:9 6:9 7:9 8:9 9:9 10:9 11:9 12:9 13:9 14:9 15:9 16:9 17:4 18:4 19:4 20:4 21:4 22:4 23:10 24:10 25:10 26:10 27:10 28:10 29:0 30:0 31:0 32:0 33:0 34:0 35:0 36:0 37:0 38:0 39:0 40:0 41:0 42:0 43:0 44:0 45:0 46:0 47:0 48:0 49:0 50:0 51:0 52:0 
0.50675875702603 1:0.22618814 2:0.028273518 3:0.028273518 4:0.028273518 5:0 6:0 7:0 8:0 9:0 10:0 11:8 12:8 13:0 14:0 15:6 16:6 17:0 18:0 19:0 20:7 21:7 22:7 23:0 24:0 25:0 26:7 27:7 28:7 29:0 30:0 31:0 32:0 33:2 34:0 35:0 36:0 37:1 38:1 39:2 40:0 41:0 42:0 43:0 44:0 45:0 46:0 47:0 48:0 49:0 50:0 51:0 52:0 
0.09520554026765192 1:0.026514557 2:0.0033143196 3:0.0033143196 4:0.0033143196 5:0 6:0 7:0 8:0 9:0 10:0 11:0 12:0 13:0 14:0 15:0 16:0 17:0 18:0 19:0 20:0 21:0 22:0 23:1 24:1 25:1 26:1 27:1 28:1 29:5 30:5 31:5 32:5 33:5 34:5 35:2 36:2 37:2 38:2 39:2 40:2 41:7 42:7 43:7 44:7 45:7 46:7 47:8 48:8 49:8 50:8 51:8 52:8 
0.5761110949510293 1:0.08642799 2:0.014404665 3:0.014404665 4:0.014404665 5:5 6:1 7:0 8:0 9:0 10:0 11:0 12:0 13:0 14:0 15:0 16:0 17:0 18:0 19:0 20:0 21:0 22:0 23:4 24:4 25:4 26:4 27:4 28:4 29:6 30:6 31:6 32:6 33:6 34:6 35:0 36:0 37:3 38:3 39:0 40:0 41:0 42:0 43:0 44:0 45:0 46:0 47:0 48:0 49:0 50:0 51:0 52:0 
0.500143860643651 1:0.21267003 2:0.030381433 3:0.030381433 4:0.030381433 5:0 6:0 7:0 8:0 9:0 10:0 11:0 12:0 13:0 14:0 15:0 16:0 17:7 18:7 19:7 20:7 21:7 22:0 23:7 24:7 25:7 26:7 27:7 28:0 29:7 30:7 31:7 32:7 33:7 34:0 35:0 36:0 37:3 38:3 39:0 40:0 41:0 42:0 43:6 44:6 45:5 46:5 47:0 48:0 49:5 50:5 51:5 52:5 
0.4828212349418519 1:0.049941872 2:0.0099883743 3:0.0099883743 4:0.0099883743 5:4 6:4 7:0 8:0 9:0 10:0 11:2 12:2 13:2 14:2 15:2 16:2 17:5 18:5 19:5 20:5 21:5 22:5 23:5 24:5 25:5 26:5 27:5 28:5 29:0 30:0 31:0 32:0 33:0 34:0 35:0 36:0 37:0 38:0 39:0 40:0 41:0 42:0 43:0 44:0 45:0 46:0 47:0 48:0 49:0 50:0 51:0 52:0 
0.2339753213606009 1:0.239697 2:0.039949501 3:0.039949501 4:0.039949501 5:0 6:0 7:0 8:0 9:0 10:6 11:5 12:5 13:0 14:0 15:0 16:6 17:3 18:3 19:3 20:0 21:0 22:0 23:1 24:1 25:0 26:0 27:0 28:0 29:0 30:0 31:0 32:0 33:0 34:0 35:0 36:0 37:0 38:0 39:0 40:0 41:0 42:0 43:0 44:0 45:0 46:0 47:0 48:0 49:0 50:0 51:0 52:0 
0.4797274379801815 1:0.12377225 2:0.015471531 3:0.015471531 4:0.015471531 5:0 6:0 7:0 8:0 9:0 10:0 11:0 12:0 13:0 14:0 15:0 16:0 17:0 18:0 19:0 20:0 21:0 22:0 23:7 24:7 25:7 26:7 27:7 28:7 29:7 30:7 31:7 32:7 33:7 34:7 35:0 36:0 37:0 38:0 39:0 40:0 41:3 42:8 43:8 44:6 45:0 46:0 47:3 48:8 49:8 50:6 51:0 52:0 
0.4767293571708592 1:0.17930288 2:0.012807348 3:0.012807348 4:0.012807348 5:0 6:0 7:0 8:0 9:0 10:0 11:0 12:5 13:0 14:6 15:6 16:6 17:1 18:2 19:2 20:3 21:4 22:4 23:8 24:8 25:7 26:12 27:12 28:11 29:8 30:8 31:7 32:12 33:12 34:11 35:10 36:10 37:9 38:14 39:14 40:13 41:0 42:0 43:0 44:0 45:0 46:0 47:0 48:0 49:0 50:0 51:0 52:0 
0.152475946441852 1:0.47216853 2:0.05246317 3:0.05246317 4:0.05246317 5:0 6:0 7:0 8:0 9:0 10:0 11:5 12:5 13:5 14:5 15:5 16:5 17:9 18:9 19:8 20:8 21:8 22:8 23:7 24:7 25:6 26:1 27:1 28:1 29:1 30:1 31:1 32:1 33:1 34:1 35:0 36:0 37:0 38:0 39:0 40:0 41:0 42:0 43:0 44:0 45:0 46:0 47:0 48:0 49:0 50:0 51:0 52:0 
0.4914662925225866 1:0.331252 2:0.023660857 3:0.023660857 4:0.023660857 5:0 6:0 7:0 8:0 9:0 10:0 11:0 12:0 13:0 14:0 15:0 16:0 17:0 18:0 19:0 20:0 21:0 22:0 23:0 24:0 25:10 26:10 27:0 28:0 29:14 30:14 31:14 32:11 33:13 34:13 35:7 36:3 37:5 38:4 39:0 40:1 41:6 42:2 43:0 44:0 45:0 46:0 47:0 48:0 49:0 50:0 51:0 52:0 
0.4897208433557019 1:0.10334981 2:0.0068899875 3:0.0068899875 4:0.0068899875 5:0 6:0 7:0 8:0 9:0 10:13 11:0 12:0 13:0 14:0 15:0 16:0 17:12 18:12 19:12 20:12 21:12 22:14 23:15 24:15 25:15 26:15 27:15 28:10 29:11 30:11 31:11 32:11 33:11 34:11 35:7 36:7 37:7 38:7 39:8 40:8 41:9 42:9 43:9 44:9 45:8 46:8 47:9 48:9 49:9 50:9 51:4 52:4 
0.2581524822112977 1:0.0883223 2:0.0098135889 3:0.0098135889 4:0.0098135889 5:8 6:8 7:8 8:8 9:8 10:8 11:8 12:8 13:8 14:8 15:8 16:8 17:9 18:9 19:9 20:9 21:9 22:9 23:9 24:9 25:9 26:9 27:9 28:9 29:7 30:7 31:7 32:7 33:7 34:7 35:4 36:4 37:4 38:4 39:4 40:4 41:4 42:4 43:4 44:4 45:4 46:4 47:1 48:1 49:1 50:1 51:2 52:2 
0.2022216991686111 1:0.043993331 2:0.0073322219 3:0.0073322219 4:0.0073322219 5:5 6:5 7:5 8:5 9:1 10:1 11:6 12:6 13:6 14:6 15:6 16:6 17:4 18:4 19:4 20:4 21:4 22:4 23:0 24:0 25:0 26:0 27:0 28:0 29:0 30:0 31:0 32:0 33:0 34:0 35:0 36:0 37:0 38:0 39:0 40:0 41:0 42:0 43:0 44:0 45:0 46:0 47:0 48:0 49:0 50:0 51:0 52:0 
0.4906045744317103 1:0.01898222 2:0.0014601708 3:0.0014601708 4:0.0014601708 5:0 6:0 7:0 8:0 9:0 10:0 11:0 12:0 13:0 14:0 15:0 16:0 17:0 18:0 19:0 20:0 21:0 22:0 23:0 24:0 25:0 26:0 27:0 28:0 29:12 30:13 31:13 32:13 33:7 34:2 35:12 36:13 37:13 38:13 39:7 40:2 41:12 42:13 43:13 44:13 45:7 46:6 47:5 48:8 49:9 50:10 51:11 52:11 
0.2741192047807498 1:0.01808949 2:0.0025842128 3:0.0025842128 4:0.0025842128 5:0 6:0 7:6 8:6 9:0 10:0 11:7 12:7 13:7 14:7 15:7 16:7 17:5 18:5 19:5 20:5 21:5 22:5 23:3 24:3 25:3 26:3 27:3 28:3 29:3 30:3 31:3 32:3 33:3 34:3 35:0 36:0 37:0 38:0 39:0 40:0 41:0 42:0 43:0 44:0 45:0 46:0 47:0 48:0 49:0 50:0 51:0 52:0 
0.3794120230129039 1:0.46518602 2:0.11629651 3:0.11629651 4:0.11629651 5:0 6:0 7:0 8:0 9:0 10:0 11:0 12:0 13:0 14:0 15:0 16:0 17:0 18:0 19:0 20:0 21:0 22:0 23:4 24:4 25:4 26:4 27:0 28:0 29:0 30:0 31:0 32:0 33:0 34:0 35:3 36:3 37:3 38:3 39:0 40:0 41:2 42:2 43:2 44:2 45:2 46:0 47:1 48:1 49:1 50:1 51:1 52:0 
0.4701117861430147 1:0.022957754 2:0.0013504561 3:0.0013504561 4:0.0013504561 5:0 6:0 7:0 8:0 9:0 10:0 11:17 12:17 13:17 14:17 15:17 16:17 17:14 18:14 19:14 20:14 21:14 22:14 23:15 24:15 25:15 26:15 27:15 28:15 29:11 30:11 31:11 32:11 33:11 34:11 35:8 36:8 37:8 38:8 39:8 40:8 41:8 42:8 43:8 44:8 45:8 46:8 47:9 48:9 49:9 50:9 51:9 52:9 
0.3062921678896015 1:0.10287959 2:0.025719898 3:0.025719898 4:0.025719898 5:0 6:4 7:4 8:4 9:4 10:0 11:0 12:4 13:4 14:4 15:4 16:0 17:0 18:0 19:0 20:0 21:0 22:0 23:0 24:0 25:0 26:0 27:0 28:0 29:0 30:0 31:0 32:0 33:0 34:0 35:0 36:0 37:0 38:0 39:0 40:0 41:0 42:0 43:0 44:0 45:0 46:0 47:3 48:3 49:3 50:1 51:1 52:1 
0.4141568987444122 1:0.20142912 2:0.028775589 3:0.028775589 4:0.028775589 5:2 6:2 7:2 8:2 9:2 10:2 11:3 12:4 13:4 14:4 15:4 16:2 17:6 18:7 19:7 20:7 21:7 22:0 23:0 24:0 25:0 26:0 27:0 28:0 29:0 30:0 31:0 32:0 33:0 34:0 35:0 36:0 37:0 38:0 39:0 40:0 41:0 42:0 43:0 44:0 45:0 46:0 47:0 48:0 49:0 50:0 51:0 52:0 
0.2382336438369506 1:0.47938881 2:0.047938881 3:0.047938881 4:0.047938881 5:0 6:0 7:0 8:0 9:0 10:0 11:0 12:0 13:0 14:0 15:0 16:0 17:0 18:0 19:0 20:0 21:5 22:5 23:0 24:0 25:0 26:0 27:2 28:2 29:0 30:0 31:0 32:0 33:4 34:4 35:0 36:0 37:0 38:0 39:7 40:7 41:0 42:0 43:0 44:0 45:9 46:9 47:0 48:0 49:0 50:0 51:10 52:10 
1 1:0.38490989 2:0.064151649 3:0.064151649 4:0.064151649 5:2 6:2 7:2 8:2 9:2 10:2 11:4 12:4 13:4 14:2 15:2 16:2 17:4 18:4 19:4 20:0 21:0 22:0 23:5 24:5 25:5 26:0 27:0 28:0 29:0 30:0 31:0 32:0 33:0 34:0 35:0 36:0 37:0 38:0 39:0 40:0 41:0 42:0 43:0 44:0 45:0 46:0 47:6 48:6 49:6 50:6 51:6 52:6 
0.6109828478844967 1:0.089100686 2:0.017820137 3:0.017820137 4:0.017820137 5:0 6:0 7:0 8:0 9:0 10:0 11:0 12:0 13:0 14:0 15:0 16:0 17:5 18:5 19:5 20:5 21:5 22:5 23:5 24:5 25:5 26:5 27:5 28:5 29:4 30:4 31:4 32:4 33:4 34:4 35:2 36:2 37:2 38:2 39:2 40:2 41:3 42:3 43:3 44:3 45:3 46:3 47:3 48:3 49:3 50:3 51:3 52:3 
0.4916933155327839 1:0.16185845 2:0.0080929226 3:0.0080929226 4:0.0080929226 5:0 6:0 7:0 8:0 9:11 10:11 11:0 12:0 13:0 14:0 15:20 16:20 17:0 18:0 19:0 20:0 21:20 22:20 23:0 24:0 25:0 26:0 27:18 28:18 29:0 30:0 31:0 32:0 33:18 34:18 35:0 36:0 37:0 38:0 39:15 40:15 41:12 42:12 43:0 44:0 45:15 46:15 47:1 48:0 49:0 50:0 51:5 52:5 
0.7624401943929955 1:0.12270577 2:0.017529395 3:0.017529395 4:0.017529395 5:0 6:0 7:6 8:6 9:0 10:0 11:5 12:5 13:6 14:6 15:5 16:5 17:4 18:4 19:4 20:4 21:4 22:4 23:2 24:2 25:2 26:2 27:2 28:2 29:0 30:0 31:0 32:0 33:0 34:0 35:0 36:0 37:0 38:0 39:0 40:0 41:0 42:0 43:0 44:0 45:0 46:0 47:0 48:7 49:7 50:7 51:7 52:0 
0.512022943832506 1:0.0054211209 2:0.0013552802 3:0.0013552802 4:0.0013552802 5:2 6:2 7:2 8:2 9:2 10:2 11:2 12:2 13:2 14:2 15:2 16:2 17:1 18:1 19:1 20:1 21:1 22:1 23:1 24:1 25:1 26:1 27:1 28:1 29:1 30:1 31:1 32:1 33:1 34:1 35:1 36:1 37:1 38:1 39:1 40:1 41:1 42:4 43:4 44:4 45:4 46:1 47:0 48:4 49:4 50:4 51:4 52:0 
0.5717350418517718 1:0.0298265 2:0.0049710833 3:0.0049710833 4:0.0049710833 5:4 6:2 7:2 8:2 9:2 10:2 11:3 12:3 13:3 14:3 15:3 16:3 17:3 18:3 19:3 20:3 21:3 22:3 23:1 24:1 25:1 26:1 27:1 28:1 29:0 30:0 31:0 32:0 33:0 34:0 35:0 36:0 37:0 38:0 39:0 40:0 41:0 42:6 43:6 44:6 45:6 46:0 47:0 48:6 49:6 50:6 51:6 52:0 
0.5273331378753807 1:0.26347371 2:0.029274857 3:0.029274857 4:0.029274857 5:4 6:0 7:0 8:0 9:0 10:7 11:9 12:0 13:0 14:0 15:0 16:0 17:3 18:3 19:3 20:3 21:3 22:3 23:0 24:0 25:0 26:0 27:0 28:0 29:0 30:0 31:0 32:5 33:5 34:0 35:0 36:0 37:0 38:5 39:5 40:0 41:0 42:0 43:0 44:0 45:0 46:0 47:8 48:8 49:8 50:8 51:8 52:8 
0.4484744495145792 1:0.61673549 2:0.1233471 3:0.1233471 4:0.1233471 5:4 6:4 7:4 8:4 9:4 10:4 11:2 12:5 13:0 14:3 15:1 16:0 17:0 18:0 19:0 20:0 21:0 22:0 23:0 24:0 25:0 26:0 27:0 28:0 29:0 30:0 31:0 32:0 33:0 34:0 35:0 36:0 37:0 38:0 39:0 40:0 41:0 42:0 43:0 44:0 45:0 46:0 47:0 48:0 49:0 50:0 51:0 52:0 
0.4772121118491824 1:0.11943464 2:0.0079623092 3:0.0079623092 4:0.0079623092 5:0 6:0 7:0 8:0 9:0 10:0 11:0 12:0 13:0 14:0 15:0 16:15 17:0 18:0 19:0 20:0 21:0 22:14 23:0 24:0 25:0 26:0 27:0 28:12 29:0 30:0 31:0 32:0 33:0 34:11 35:0 36:0 37:0 38:0 39:0 40:4 41:6 42:6 43:6 44:6 45:6 46:7 47:8 48:8 49:8 50:8 51:8 52:8 
0.5120538127344088 1:0.22406981 2:0.044813962 3:0.044813962 4:0.044813962 5:0 6:0 7:0 8:0 9:0 10:0 11:0 12:0 13:0 14:0 15:0 16:0 17:0 18:0 19:0 20:0 21:5 22:5 23:4 24:4 25:4 26:4 27:4 28:0 29:0 30:0 31:0 32:0 33:0 34:0 35:3 36:3 37:3 38:3 39:3 40:3 41:0 42:0 43:0 44:0 45:0 46:0 47:0 48:0 49:0 50:0 51:0 52:0 
0.4916218350636728 1:0.39517469 2:0.019758734 3:0.019758734 4:0.019758734 5:17 6:15 7:16 8:16 9:16 10:16 11:19 12:6 13:6 14:0 15:13 16:13 17:10 18:9 19:9 20:0 21:20 22:20 23:11 24:11 25:5 26:5 27:4 28:4 29:0 30:1 31:1 32:1 33:1 34:0 35:0 36:0 37:0 38:0 39:0 40:0 41:0 42:0 43:0 44:0 45:0 46:0 47:0 48:0 49:0 50:0 51:0 52:0 
0.3907718154955772 1:0.20284342 2:0.040568684 3:0.040568684 4:0.040568684 5:0 6:0 7:0 8:0 9:0 10:2 11:0 12:0 13:0 14:0 15:0 16:0 17:1 18:1 19:1 20:1 21:1 22:1 23:5 24:5 25:5 26:5 27:5 28:5 29:0 30:0 31:0 32:0 33:0 34:0 35:0 36:0 37:0 38:0 39:0 40:0 41:0 42:0 43:0 44:0 45:0 46:0 47:0 48:0 49:0 50:0 51:0 52:0 
0.3494170157159038 1:0.40464276 2:0.050580345 3:0.050580345 4:0.050580345 5:5 6:5 7:5 8:5 9:5 10:5 11:7 12:8 13:8 14:7 15:7 16:7 17:7 18:7 19:7 20:7 21:7 22:7 23:0 24:0 25:0 26:0 27:0 28:0 29:0 30:0 31:0 32:0 33:0 34:0 35:0 36:0 37:0 38:0 39:0 40:0 41:0 42:0 43:0 44:0 45:0 46:0 47:0 48:0 49:0 50:0 51:0 52:0 
0.4441318427064297 1:0.19552558 2:0.017775053 3:0.017775053 4:0.017775053 5:9 6:9 7:9 8:3 9:3 10:3 11:4 12:4 13:4 14:4 15:4 16:4 17:2 18:2 19:2 20:2 21:2 22:2 23:7 24:7 25:7 26:7 27:7 28:7 29:8 30:8 31:8 32:8 33:8 34:8 35:6 36:6 37:6 38:6 39:6 40:6 41:11 42:11 43:11 44:11 45:11 46:11 47:10 48:10 49:10 50:10 51:10 52:10 
0.4915499916582743 1:0.12452669 2:0.0044473818 3:0.0044473818 4:0.0044473818 5:7 6:8 7:8 8:0 9:0 10:0 11:23 12:23 13:17 14:0 15:0 16:0 17:28 18:28 19:0 20:0 21:0 22:0 23:26 24:26 25:0 26:0 27:0 28:0 29:0 30:0 31:0 32:0 33:0 34:0 35:0 36:0 37:0 38:3 39:0 40:0 41:0 42:0 43:0 44:0 45:0 46:0 47:0 48:0 49:0 50:0 51:0 52:0 
0.4023174559935072 1:0.39031925 2:0.035483568 3:0.035483568 4:0.035483568 5:7 6:7 7:6 8:0 9:0 10:0 11:11 12:11 13:11 14:11 15:10 16:0 17:9 18:9 19:8 20:1 21:1 22:1 23:5 24:5 25:5 26:3 27:1 28:1 29:3 30:3 31:3 32:3 33:0 34:0 35:0 36:0 37:0 38:0 39:0 40:0 41:0 42:0 43:0 44:0 45:0 46:0 47:0 48:0 49:0 50:0 51:0 52:0 
0.4814303294535935 1:0.4179614 2:0.03799649 3:0.03799649 4:0.03799649 5:10 6:10 7:1 8:0 9:0 10:0 11:11 12:11 13:11 14:5 15:5 16:0 17:9 18:9 19:9 20:9 21:9 22:9 23:9 24:9 25:9 26:9 27:9 28:9 29:7 30:7 31:7 32:7 33:0 34:0 35:0 36:0 37:0 38:0 39:0 40:0 41:0 42:0 43:0 44:0 45:0 46:0 47:0 48:0 49:0 50:0 51:0 52:0 
0.3727495651593346 1:0.3995349 2:0.044392767 3:0.044392767 4:0.044392767 5:0 6:0 7:0 8:0 9:0 10:0 11:0 12:0 13:0 14:0 15:0 16:0 17:0 18:0 19:0 20:0 21:0 22:0 23:5 24:5 25:5 26:0 27:0 28:0 29:7 30:7 31:7 32:0 33:0 34:0 35:9 36:9 37:9 38:0 39:0 40:0 41:9 42:9 43:9 44:0 45:0 46:0 47:8 48:8 49:8 50:0 51:0 52:0 
0.5719989306600856 1:0.37732245 2:0.094330612 3:0.094330612 4:0.094330612 5:3 6:3 7:3 8:2 9:2 10:2 11:0 12:0 13:2 14:2 15:2 16:2 17:0 18:0 19:0 20:0 21:0 22:0 23:0 24:0 25:0 26:0 27:0 28:0 29:0 30:0 31:0 32:0 33:0 34:0 35:0 36:0 37:0 38:0 39:0 40:0 41:0 42:0 43:0 44:1 45:1 46:1 47:0 48:0 49:0 50:4 51:4 52:1 
0.3679960180934925 1:0.11327858 2:0.0066634459 3:0.0066634459 4:0.0066634459 5:0 6:0 7:0 8:0 9:0 10:0 11:7 12:7 13:7 14:7 15:7 16:7 17:7 18:7 19:7 20:7 21:7 22:7 23:15 24:15 25:15 26:15 27:15 28:15 29:17 30:17 31:17 32:17 33:17 34:17 35:17 36:17 37:17 38:17 39:17 40:17 41:13 42:13 43:13 44:13 45:13 46:13 47:3 48:3 49:3 50:3 51:3 52:0 
0.4919442540270751 1:0.09540631 2:0.0016449364 3:0.0016449364 4:0.0016449364 5:48 6:48 7:48 8:48 9:39 10:10 11:46 12:21 13:34 14:39 15:39 16:11 17:58 18:18 19:34 20:37 21:37 22:12 23:58 24:27 25:33 26:33 27:13 28:13 29:52 30:27 31:32 32:40 33:40 34:14 35:56 36:23 37:36 38:40 39:42 40:42 41:56 42:25 43:38 44:38 45:42 46:42 47:54 48:25 49:38 50:38 51:41 52:41 
0.7130080539654275 1:0.10284498 2:0.01469214 3:0.01469214 4:0.01469214 5:6 6:6 7:5 8:5 9:5 10:5 11:7 12:7 13:7 14:7 15:7 16:7 17:3 18:3 19:3 20:3 21:3 22:3 23:0 24:0 25:0 26:0 27:0 28:0 29:0 30:0 31:0 32:0 33:0 34:0 35:0 36:0 37:0 38:0 39:0 40:0 41:0 42:0 43:0 44:0 45:0 46:0 47:2 48:2 49:2 50:2 51:2 52:2 
0.8813096684559936 1:0.14870792 2:0.016523103 3:0.016523103 4:0.016523103 5:7 6:7 7:8 8:9 9:9 10:4 11:7 12:7 13:8 14:9 15:9 16:4 17:0 18:0 19:0 20:0 21:0 22:0 23:5 24:5 25:5 26:5 27:5 28:5 29:0 30:0 31:0 32:0 33:0 34:0 35:0 36:0 37:0 38:0 39:0 40:0 41:0 42:0 43:0 44:0 45:0 46:0 47:0 48:0 49:0 50:0 51:0 52:0 
0.7123159991696109 1:0.1153067 2:0.019217783 3:0.019217783 4:0.019217783 5:0 6:0 7:0 8:0 9:0 10:0 11:6 12:6 13:6 14:6 15:6 16:6 17:5 18:5 19:0 20:0 21:0 22:0 23:4 24:4 25:4 26:4 27:4 28:4 29:2 30:2 31:2 32:2 33:2 34:1 35:1 36:1 37:1 38:1 39:1 40:1 41:0 42:0 43:0 44:0 45:0 46:0 47:0 48:0 49:0 50:0 51:0 52:0 
0.1452886267806179 1:0.38366893 2:0.076733786 3:0.076733786 4:0.076733786 5:4 6:4 7:4 8:4 9:4 10:4 11:0 12:0 13:0 14:0 15:0 16:0 17:0 18:0 19:0 20:0 21:0 22:0 23:0 24:0 25:0 26:0 27:0 28:0 29:5 30:0 31:0 32:0 33:0 34:0 35:3 36:0 37:0 38:0 39:0 40:0 41:0 42:0 43:0 44:0 45:0 46:0 47:1 48:0 49:0 50:0 51:0 52:0 
0.4919892176703828 1:0.56746848 2:0.025794022 3:0.025794022 4:0.025794022 5:20 6:20 7:22 8:21 9:21 10:17 11:20 12:20 13:22 14:21 15:21 16:17 17:0 18:19 19:19 20:19 21:19 22:0 23:2 24:18 25:2 26:4 27:4 28:4 29:0 30:0 31:6 32:6 33:0 34:0 35:0 36:7 37:0 38:0 39:9 40:0 41:8 42:8 43:8 44:10 45:10 46:10 47:0 48:15 49:14 50:13 51:12 52:0 
0.002264794046241532 1:0.081499719 2:0.027166573 3:0.027166573 4:0.027166573 5:2 6:2 7:2 8:2 9:2 10:2 11:2 12:2 13:2 14:2 15:2 16:2 17:0 18:1 19:1 20:1 21:1 22:1 23:0 24:3 25:3 26:3 27:3 28:3 29:0 30:0 31:0 32:0 33:0 34:0 35:0 36:0 37:0 38:0 39:0 40:0 41:0 42:0 43:0 44:0 45:0 46:0 47:0 48:0 49:0 50:0 51:0 52:0 
0.6685392495801359 1:0.05618637 2:0.011237274 3:0.011237274 4:0.011237274 5:0 6:0 7:0 8:0 9:0 10:0 11:0 12:0 13:0 14:0 15:0 16:0 17:0 18:0 19:0 20:0 21:0 22:0 23:0 24:0 25:0 26:0 27:0 28:0 29:0 30:0 31:0 32:0 33:0 34:0 35:5 36:5 37:5 38:5 39:5 40:5 41:0 42:0 43:4 44:4 45:0 46:0 47:2 48:2 49:2 50:2 51:2 52:2 
0.4316263604052941 1:0.10186578 2:0.01131842 3:0.01131842 4:0.01131842 5:5 6:5 7:0 8:0 9:0 10:0 11:0 12:0 13:0 14:0 15:0 16:0 17:0 18:0 19:0 20:0 21:0 22:0 23:4 24:4 25:4 26:4 27:4 28:4 29:9 30:9 31:9 32:9 33:9 34:9 35:8 36:8 37:8 38:8 39:8 40:8 41:7 42:7 43:7 44:7 45:7 46:7 47:2 48:2 49:2 50:2 51:2 52:2 
0.4916906183255498 1:0.34468931 2:0.021543082 3:0.021543082 4:0.021543082 5:5 6:1 7:1 8:0 9:0 10:0 11:4 12:4 13:3 14:3 15:3 16:3 17:4 18:4 19:0 20:0 21:0 22:15 23:14 24:14 25:14 26:14 27:14 28:14 29:6 30:6 31:9 32:9 33:0 34:8 35:11 36:11 37:11 38:0 39:0 40:0 41:16 42:16 43:0 44:0 45:0 46:0 47:16 48:16 49:0 50:0 51:0 52:0 
0.7341011221069921 1:0.2834997 2:0.047249951 3:0.047249951 4:0.047249951 5:0 6:0 7:0 8:0 9:0 10:0 11:1 12:1 13:1 14:0 15:0 16:0 17:2 18:2 19:2 20:0 21:0 22:3 23:4 24:4 25:4 26:4 27:4 28:4 29:4 30:4 31:4 32:4 33:4 34:5 35:0 36:0 37:0 38:0 39:0 40:5 41:6 42:6 43:0 44:0 45:0 46:0 47:0 48:0 49:0 50:0 51:0 52:0 
0.3042452928636644 1:0.57269294 2:0.063632549 3:0.063632549 4:0.063632549 5:0 6:0 7:0 8:1 9:0 10:0 11:0 12:0 13:0 14:1 15:0 16:0 17:0 18:0 19:0 20:0 21:0 22:0 23:0 24:0 25:0 26:0 27:0 28:0 29:0 30:0 31:0 32:2 33:2 34:2 35:0 36:0 37:0 38:6 39:0 40:0 41:7 42:7 43:7 44:3 45:3 46:3 47:9 48:7 49:7 50:5 51:3 52:3 
0.4731341098572655 1:0.57651413 2:0.057651413 3:0.057651413 4:0.057651413 5:0 6:0 7:0 8:0 9:0 10:0 11:10 12:10 13:0 14:0 15:0 16:0 17:8 18:8 19:3 20:0 21:0 22:0 23:8 24:8 25:0 26:0 27:0 28:0 29:0 30:0 31:0 32:0 33:0 34:0 35:7 36:7 37:0 38:0 39:0 40:0 41:6 42:6 43:6 44:6 45:6 46:0 47:2 48:2 49:1 50:1 51:1 52:0 
0.4916495806627295 1:0.3312586 2:0.018403256 3:0.018403256 4:0.018403256 5:0 6:0 7:0 8:0 9:16 10:16 11:0 12:15 13:0 14:18 15:18 16:0 17:17 18:17 19:17 20:14 21:14 22:0 23:14 24:14 25:14 26:14 27:14 28:0 29:10 30:10 31:0 32:0 33:0 34:0 35:10 36:10 37:0 38:0 39:0 40:0 41:6 42:6 43:4 44:5 45:5 46:5 47:0 48:0 49:0 50:0 51:0 52:0 
0.4916686850227596 1:0.4446598 2:0.027791238 3:0.027791238 4:0.027791238 5:0 6:0 7:0 8:0 9:0 10:13 11:15 12:15 13:15 14:15 15:15 16:15 17:12 18:12 19:12 20:0 21:0 22:0 23:16 24:16 25:16 26:0 27:0 28:0 29:16 30:16 31:16 32:0 33:0 34:0 35:6 36:6 37:6 38:0 39:0 40:0 41:7 42:7 43:7 44:0 45:0 46:1 47:3 48:3 49:0 50:0 51:0 52:1 
0.4917004045742245 1:0.33063805 2:0.023617004 3:0.023617004 4:0.023617004 5:0 6:0 7:0 8:0 9:0 10:0 11:9 12:9 13:0 14:5 15:4 16:0 17:13 18:13 19:13 20:13 21:13 22:13 23:13 24:13 25:13 26:13 27:13 28:13 29:11 30:11 31:14 32:14 33:11 34:11 35:0 36:0 37:14 38:14 39:0 40:0 41:0 42:0 43:0 44:0 45:0 46:0 47:0 48:0 49:0 50:0 51:0 52:0 
0.4866809069047997 1:0.12259552 2:0.0076622202 3:0.0076622202 4:0.0076622202 5:0 6:0 7:0 8:0 9:0 10:0 11:12 12:12 13:12 14:12 15:12 16:12 17:14 18:14 19:14 20:14 21:14 22:14 23:14 24:14 25:14 26:14 27:14 28:14 29:16 30:16 31:16 32:16 33:16 34:16 35:15 36:15 37:15 38:15 39:15 40:15 41:5 42:5 43:5 44:5 45:5 46:5 47:0 48:0 49:0 50:0 51:0 52:0 
0.4988312953868687 1:0.22432776 2:0.056081941 3:0.056081941 4:0.056081941 5:4 6:4 7:4 8:4 9:0 10:0 11:2 12:2 13:0 14:0 15:0 16:0 17:0 18:0 19:0 20:0 21:0 22:0 23:1 24:0 25:0 26:0 27:0 28:0 29:3 30:3 31:3 32:3 33:3 34:3 35:0 36:0 37:0 38:0 39:0 40:0 41:0 42:0 43:0 44:0 45:0 46:0 47:0 48:0 49:0 50:0 51:0 52:0 
0.4919557408312808 1:0.26711913 2:0.007856445 3:0.007856445 4:0.007856445 5:24 6:24 7:0 8:0 9:0 10:0 11:32 12:34 13:34 14:27 15:26 16:26 17:30 18:33 19:33 20:0 21:0 22:2 23:11 24:33 25:33 26:0 27:3 28:3 29:17 30:17 31:0 32:0 33:0 34:0 35:23 36:23 37:5 38:5 39:5 40:5 41:19 42:19 43:0 44:0 45:1 46:1 47:0 48:0 49:0 50:0 51:0 52:0 
0.4688142700446005 1:0.30553078 2:0.030553078 3:0.030553078 4:0.030553078 5:0 6:0 7:0 8:0 9:0 10:0 11:0 12:0 13:0 14:0 15:0 16:0 17:0 18:0 19:0 20:0 21:0 22:0 23:8 24:8 25:8 26:8 27:8 28:8 29:5 30:5 31:5 32:0 33:0 34:0 35:6 36:6 37:6 38:2 39:2 40:2 41:10 42:10 43:9 44:9 45:9 46:9 47:9 48:9 49:9 50:9 51:9 52:9 
0.4899904095925406 1:0.24955201 2:0.020796001 3:0.020796001 4:0.020796001 5:1 6:1 7:0 8:0 9:0 10:0 11:0 12:0 13:0 14:0 15:0 16:0 17:0 18:0 19:0 20:0 21:0 22:0 23:0 24:0 25:0 26:0 27:0 28:0 29:11 30:11 31:0 32:0 33:0 34:0 35:10 36:10 37:10 38:10 39:5 40:5 41:0 42:6 43:6 44:7 45:7 46:7 47:12 48:12 49:0 50:0 51:0 52:0 
0.4916544227772727 1:0.47809794 2:0.026560997 3:0.026560997 4:0.026560997 5:8 6:8 7:8 8:6 9:6 10:6 11:6 12:7 13:6 14:6 15:9 16:6 17:0 18:0 19:0 20:0 21:0 22:0 23:0 24:2 25:3 26:3 27:11 28:0 29:10 30:10 31:15 32:15 33:14 34:14 35:0 36:13 37:12 38:12 39:18 40:0 41:17 42:17 43:17 44:17 45:17 46:17 47:17 48:17 49:17 50:17 51:17 52:17 
0.4190599378229403 1:0.03528506 2:0.0039205622 3:0.0039205622 4:0.0039205622 5:3 6:3 7:3 8:3 9:0 10:0 11:7 12:7 13:7 14:7 15:7 16:7 17:8 18:8 19:8 20:8 21:8 22:8 23:9 24:9 25:9 26:9 27:9 28:9 29:1 30:1 31:1 32:1 33:1 34:1 35:0 36:0 37:0 38:0 39:0 40:0 41:2 42:2 43:2 44:2 45:2 46:2 47:0 48:0 49:0 50:0 51:0 52:0 
0.4139173470360124 1:0.080415812 2:0.0080415812 3:0.0080415812 4:0.0080415812 5:10 6:10 7:10 8:10 9:0 10:0 11:10 12:10 13:10 14:10 15:0 16:0 17:8 18:8 19:8 20:8 21:0 22:0 23:6 24:6 25:6 26:6 27:0 28:0 29:0 30:0 31:0 32:0 33:0 34:0 35:0 36:0 37:0 38:0 39:0 40:0 41:0 42:0 43:0 44:0 45:0 46:0 47:2 48:2 49:2 50:2 51:0 52:0 
0.4915787438224256 1:0.060398673 2:0.0030199336 3:0.0030199336 4:0.0030199336 5:13 6:13 7:0 8:0 9:0 10:11 11:12 12:12 13:1 14:1 15:1 16:1 17:4 18:4 19:4 20:4 21:4 22:4 23:6 24:6 25:6 26:6 27:6 28:6 29:10 30:10 31:10 32:10 33:10 34:10 35:15 36:15 37:15 38:15 39:15 40:15 41:20 42:17 43:17 44:17 45:17 46:17 47:20 48:17 49:17 50:18 51:19 52:19 
0.4915459757557296 1:0.19910977 2:0.0094814177 3:0.0094814177 4:0.0094814177 5:13 6:13 7:0 8:0 9:0 10:0 11:21 12:21 13:20 14:0 15:0 16:0 17:19 18:19 19:19 20:18 21:0 22:0 23:14 24:14 25:11 26:11 27:0 28:0 29:9 30:9 31:9 32:9 33:0 34:0 35:5 36:5 37:5 38:5 39:0 40:0 41:0 42:0 43:0 44:0 45:0 46:0 47:0 48:0 49:0 50:0 51:0 52:0 
0.1760877542711683 1:0.6048455 2:0.15121137 3:0.15121137 4:0.15121137 5:0 6:0 7:0 8:0 9:0 10:0 11:0 12:0 13:0 14:0 15:0 16:0 17:0 18:0 19:0 20:0 21:0 22:0 23:0 24:0 25:4 26:4 27:0 28:0 29:0 30:0 31:1 32:1 33:0 34:0 35:0 36:0 37:3 38:3 39:0 40:0 41:0 42:0 43:0 44:0 45:0 46:0 47:0 48:0 49:2 50:0 51:0 52:0 
0.5784058570036024 1:0.16602945 2:0.041507362 3:0.041507362 4:0.041507362 5:1 6:1 7:1 8:1 9:1 10:1 11:1 12:1 13:1 14:1 15:1 16:1 17:4 18:4 19:4 20:4 21:4 22:4 23:3 24:3 25:3 26:3 27:3 28:3 29:2 30:2 31:2 32:2 33:2 34:2 35:0 36:0 37:0 38:0 39:0 40:0 41:0 42:0 43:0 44:0 45:0 46:0 47:0 48:0 49:0 50:0 51:0 52:0 
0.6507027891568423 1:0.25685151 2:0.042808585 3:0.042808585 4:0.042808585 5:4 6:4 7:4 8:4 9:4 10:4 11:4 12:4 13:4 14:4 15:4 16:4 17:6 18:6 19:6 20:6 21:6 22:6 23:0 24:0 25:0 26:0 27:0 28:0 29:0 30:0 31:0 32:0 33:0 34:0 35:0 36:0 37:0 38:0 39:0 40:0 41:0 42:0 43:0 44:0 45:0 46:0 47:1 48:1 49:1 50:1 51:1 52:1 
0.3324313518438832 1:0.06789146 2:0.006789146 3:0.006789146 4:0.006789146 5:0 6:0 7:0 8:0 9:0 10:0 11:8 12:8 13:8 14:8 15:8 16:8 17:10 18:10 19:10 20:10 21:10 22:10 23:9 24:9 25:9 26:9 27:9 28:9 29:4 30:4 31:4 32:4 33:4 34:4 35:7 36:7 37:7 38:7 39:7 40:7 41:7 42:7 43:7 44:7 45:7 46:7 47:3 48:3 49:3 50:3 51:3 52:3 
0.400752412381006 1:0.59628384 2:0.074535479 3:0.074535479 4:0.074535479 5:8 6:8 7:0 8:0 9:0 10:0 11:7 12:0 13:0 14:0 15:0 16:0 17:6 18:6 19:2 20:2 21:1 22:1 23:4 24:4 25:3 26:3 27:5 28:5 29:0 30:0 31:0 32:0 33:0 34:0 35:0 36:0 37:0 38:0 39:0 40:0 41:0 42:0 43:0 44:0 45:0 46:0 47:0 48:0 49:0 50:0 51:0 52:0 
0.3263494258698547 1:0.10690845 2:0.021381691 3:0.021381691 4:0.021381691 5:2 6:2 7:1 8:3 9:4 10:5 11:1 12:1 13:1 14:1 15:1 16:1 17:1 18:1 19:1 20:1 21:1 22:1 23:1 24:1 25:1 26:1 27:1 28:1 29:1 30:1 31:1 32:1 33:1 34:1 35:1 36:1 37:1 38:1 39:1 40:1 41:1 42:1 43:1 44:1 45:1 46:1 47:1 48:1 49:1 50:1 51:1 52:1 
0.180733360167486 1:0.40946709 2:0.045496344 3:0.045496344 4:0.045496344 5:9 6:9 7:9 8:9 9:9 10:6 11:0 12:0 13:0 14:0 15:0 16:0 17:0 18:0 19:0 20:0 21:0 22:0 23:0 24:0 25:0 26:0 27:0 28:0 29:0 30:0 31:0 32:0 33:0 34:0 35:0 36:0 37:0 38:0 39:0 40:0 41:0 42:0 43:0 44:0 45:0 46:0 47:0 48:5 49:5 50:4 51:2 52:0 
0.600830578501663 1:0.42152661 2:0.052690826 3:0.052690826 4:0.052690826 5:8 6:8 7:8 8:8 9:8 10:3 11:0 12:0 13:0 14:0 15:0 16:0 17:0 18:0 19:0 20:0 21:0 22:0 23:0 24:0 25:0 26:0 27:0 28:0 29:0 30:0 31:0 32:0 33:0 34:0 35:0 36:0 37:0 38:0 39:0 40:0 41:0 42:0 43:0 44:0 45:0 46:0 47:6 48:5 49:5 50:5 51:5 52:5 
0.3854574648947606 1:0.30443398 2:0.043490569 3:0.043490569 4:0.043490569 5:0 6:0 7:0 8:0 9:0 10:0 11:0 12:0 13:0 14:0 15:0 16:0 17:0 18:0 19:0 20:0 21:0 22:0 23:0 24:7 25:7 26:7 27:0 28:0 29:0 30:6 31:6 32:6 33:0 34:0 35:0 36:0 37:0 38:0 39:0 40:0 41:0 42:5 43:5 44:0 45:0 46:0 47:0 48:0 49:0 50:0 51:0 52:0 
0.4246548206667196 1:0.27088004 2:0.033860005 3:0.033860005 4:0.033860005 5:8 6:8 7:0 8:0 9:0 10:7 11:5 12:0 13:0 14:0 15:0 16:1 17:0 18:0 19:0 20:0 21:0 22:0 23:0 24:0 25:0 26:0 27:0 28:0 29:0 30:0 31:6 32:3 33:0 34:0 35:0 36:0 37:3 38:3 39:0 40:0 41:0 42:0 43:0 44:0 45:0 46:0 47:2 48:2 49:2 50:2 51:2 52:4 
0.01513839938222923 1:0.10244406 2:0.012805507 3:0.012805507 4:0.012805507 5:0 6:0 7:4 8:4 9:3 10:3 11:0 12:0 13:0 14:0 15:0 16:0 17:0 18:0 19:0 20:0 21:0 22:0 23:0 24:0 25:0 26:0 27:0 28:0 29:0 30:0 31:0 32:0 33:0 34:0 35:0 36:0 37:0 38:0 39:0 40:0 41:0 42:0 43:0 44:0 45:0 46:0 47:8 48:8 49:8 50:8 51:8 52:6 
0.4920993764035826 1:0.27398681 2:0.013046991 3:0.013046991 4:0.013046991 5:21 6:21 7:2 8:2 9:2 10:10 11:21 12:21 13:0 14:0 15:0 16:0 17:14 18:14 19:12 20:12 21:12 22:12 23:7 24:7 25:7 26:7 27:7 28:7 29:5 30:5 31:5 32:5 33:5 34:5 35:3 36:3 37:3 38:3 39:3 40:3 41:13 42:13 43:13 44:13 45:20 46:20 47:18 48:18 49:18 50:18 51:19 52:19 
0.491768084217026 1:0.49184325 2:0.018917048 3:0.018917048 4:0.018917048 5:0 6:0 7:0 8:0 9:0 10:0 11:0 12:0 13:0 14:0 15:0 16:0 17:0 18:26 19:26 20:0 21:0 22:0 23:0 24:15 25:15 26:12 27:12 28:0 29:0 30:9 31:16 32:19 33:18 34:0 35:0 36:23 37:25 38:20 39:20 40:0 41:0 42:23 43:25 44:24 45:2 46:0 47:0 48:4 49:4 50:0 51:0 52:0 
0.491717194754362 1:0.41785582 2:0.016714233 3:0.016714233 4:0.016714233 5:16 6:16 7:16 8:16 9:16 10:16 11:18 12:18 13:18 14:16 15:16 16:16 17:22 18:22 19:20 20:20 21:20 22:0 23:24 24:24 25:23 26:0 27:0 28:0 29:9 30:9 31:9 32:0 33:0 34:0 35:13 36:13 37:13 38:13 39:0 40:0 41:13 42:13 43:13 44:13 45:0 46:0 47:25 48:25 49:25 50:1 51:1 52:14 
0.09617256084675488 1:0.24874643 2:0.041457738 3:0.041457738 4:0.041457738 5:0 6:0 7:0 8:0 9:0 10:0 11:0 12:0 13:0 14:0 15:0 16:0 17:0 18:0 19:0 20:0 21:0 22:0 23:0 24:0 25:0 26:0 27:0 28:0 29:0 30:0 31:0 32:0 33:0 34:0 35:2 36:2 37:2 38:2 39:2 40:6 41:3 42:3 43:3 44:3 45:3 46:0 47:5 48:4 49:4 50:4 51:4 52:0 
1 1:0.063950846 2:0.021316949 3:0.021316949 4:0.021316949 5:2 6:2 7:2 8:2 9:2 10:2 11:3 12:3 13:3 14:3 15:3 16:3 17:3 18:3 19:3 20:3 21:3 22:3 23:3 24:3 25:3 26:3 27:3 28:3 29:3 30:3 31:3 32:3 33:3 34:3 35:3 36:3 37:3 38:3 39:3 40:3 41:3 42:3 43:3 44:3 45:3 46:3 47:3 48:3 49:3 50:3 51:3 52:3 
0.4915930584487675 1:0.13832128 2:0.0065867274 3:0.0065867274 4:0.0065867274 5:17 6:17 7:17 8:17 9:16 10:16 11:17 12:17 13:17 14:17 15:16 16:16 17:0 18:15 19:15 20:15 21:15 22:15 23:0 24:21 25:21 26:21 27:21 28:15 29:20 30:21 31:21 32:21 33:21 34:19 35:13 36:13 37:12 38:12 39:12 40:11 41:10 42:11 43:11 44:11 45:11 46:11 47:5 48:7 49:7 50:7 51:7 52:6 
0.492032658728363 1:0.12050993 2:0.0080339951 3:0.0080339951 4:0.0080339951 5:1 6:1 7:1 8:2 9:2 10:2 11:1 12:1 13:1 14:2 15:2 16:2 17:0 18:12 19:12 20:12 21:12 22:12 23:0 24:12 25:12 26:12 27:12 28:12 29:8 30:11 31:11 32:11 33:11 34:0 35:0 36:10 37:10 38:10 39:10 40:9 41:14 42:15 43:15 44:15 45:15 46:15 47:14 48:14 49:13 50:13 51:13 52:13 
0.4891549859793867 1:0.49515243 2:0.029126613 3:0.029126613 4:0.029126613 5:0 6:0 7:0 8:0 9:0 10:15 11:0 12:0 13:0 14:0 15:0 16:0 17:0 18:0 19:0 20:0 21:0 22:0 23:0 24:0 25:0 26:0 27:0 28:0 29:17 30:17 31:0 32:0 33:0 34:13 35:14 36:14 37:14 38:14 39:14 40:14 41:12 42:12 43:12 44:12 45:12 46:12 47:6 48:10 49:10 50:4 51:4 52:7 
0.4784061195821609 1:0.40871574 2:0.034059645 3:0.034059645 4:0.034059645 5:0 6:0 7:0 8:0 9:0 10:0 11:0 12:4 13:4 14:3 15:3 16:3 17:0 18:2 19:2 20:1 21:1 22:1 23:0 24:12 25:12 26:12 27:12 28:12 29:0 30:8 31:8 32:8 33:8 34:8 35:0 36:10 37:10 38:10 39:10 40:10 41:0 42:10 43:10 44:10 45:10 46:10 47:0 48:0 49:0 50:0 51:0 52:0 
0.4878811949339519 1:0.30196045 2:0.015892655 3:0.015892655 4:0.015892655 5:0 6:0 7:10 8:10 9:0 10:0 11:9 12:9 13:9 14:9 15:9 16:9 17:8 18:8 19:8 20:8 21:8 22:8 23:7 24:7 25:7 26:7 27:7 28:7 29:19 30:19 31:19 32:19 33:19 34:19 35:19 36:19 37:19 38:19 39:19 40:19 41:17 42:17 43:17 44:17 45:17 46:17 47:17 48:17 49:17 50:17 51:17 52:17 
0.1412644552759758 1:0.28073907 2:0.040105581 3:0.040105581 4:0.040105581 5:0 6:1 7:1 8:1 9:1 10:0 11:0 12:7 13:7 14:7 15:7 16:0 17:0 18:7 19:7 20:7 21:7 22:0 23:0 24:0 25:4 26:4 27:2 28:0 29:0 30:0 31:0 32:0 33:0 34:0 35:0 36:0 37:0 38:0 39:0 40:0 41:0 42:0 43:0 44:0 45:0 46:0 47:0 48:0 49:0 50:0 51:0 52:0 
0.5076073048118257 1:0.098190717 2:0.019638143 3:0.019638143 4:0.019638143 5:0 6:0 7:0 8:0 9:0 10:0 11:0 12:0 13:0 14:0 15:0 16:0 17:0 18:0 19:0 20:0 21:0 22:0 23:5 24:5 25:5 26:2 27:2 28:2 29:1 30:1 31:1 32:4 33:4 34:4 35:1 36:1 37:1 38:4 39:4 40:4 41:3 42:3 43:3 44:3 45:3 46:3 47:3 48:3 49:3 50:3 51:3 52:3 
0.491527815099903 1:0.19177408 2:0.012784939 3:0.012784939 4:0.012784939 5:0 6:0 7:0 8:0 9:0 10:0 11:0 12:4 13:4 14:2 15:2 16:0 17:8 18:8 19:8 20:2 21:2 22:0 23:8 24:8 25:8 26:7 27:7 28:0 29:6 30:6 31:14 32:14 33:14 34:0 35:15 36:15 37:15 38:15 39:15 40:0 41:10 42:10 43:10 44:10 45:10 46:0 47:12 48:12 49:13 50:13 51:13 52:0 
0.2319417864925931 1:0.13506235 2:0.016882794 3:0.016882794 4:0.016882794 5:0 6:0 7:0 8:0 9:0 10:0 11:0 12:0 13:0 14:0 15:0 16:0 17:2 18:2 19:2 20:2 21:2 22:2 23:2 24:2 25:2 26:2 27:2 28:2 29:5 30:5 31:3 32:4 33:7 34:7 35:6 36:6 37:6 38:6 39:7 40:7 41:8 42:8 43:8 44:8 45:8 46:8 47:0 48:0 49:0 50:0 51:0 52:0 
0.4618734827900984 1:0.07441323 2:0.0082681366 3:0.0082681366 4:0.0082681366 5:8 6:8 7:0 8:0 9:0 10:0 11:9 12:9 13:9 14:9 15:9 16:9 17:9 18:9 19:9 20:9 21:9 22:9 23:3 24:3 25:3 26:3 27:3 28:3 29:3 30:3 31:3 32:3 33:3 34:3 35:6 36:6 37:6 38:6 39:6 40:6 41:7 42:7 43:7 44:7 45:7 46:7 47:0 48:0 49:0 50:0 51:0 52:0 
0.1872241307866009 1:0.34538296 2:0.069076593 3:0.069076593 4:0.069076593 5:2 6:2 7:0 8:0 9:0 10:0 11:0 12:0 13:0 14:0 15:0 16:0 17:0 18:0 19:0 20:0 21:0 22:1 23:0 24:0 25:0 26:0 27:0 28:0 29:0 30:0 31:0 32:0 33:0 34:0 35:0 36:0 37:0 38:0 39:0 40:0 41:0 42:0 43:0 44:0 45:0 46:4 47:5 48:0 49:0 50:0 51:0 52:0 
0.4916667312622863 1:0.41605838 2:0.017335766 3:0.017335766 4:0.017335766 5:20 6:20 7:20 8:0 9:0 10:0 11:24 12:24 13:19 14:0 15:0 16:0 17:24 18:24 19:22 20:22 21:0 22:0 23:21 24:21 25:8 26:2 27:2 28:2 29:10 30:10 31:10 32:10 33:2 34:2 35:13 36:13 37:13 38:13 39:13 40:13 41:15 42:15 43:15 44:15 45:15 46:18 47:17 48:17 49:17 50:17 51:0 52:0 
0.4894951771077496 1:0.075095963 2:0.0053639974 3:0.0053639974 4:0.0053639974 5:0 6:0 7:0 8:5 9:5 10:4 11:0 12:0 13:0 14:13 15:13 16:13 17:0 18:0 19:0 20:14 21:14 22:14 23:0 24:0 25:0 26:12 27:12 28:12 29:0 30:0 31:0 32:9 33:9 34:9 35:0 36:0 37:0 38:11 39:11 40:11 41:0 42:0 43:0 44:0 45:0 46:0 47:0 48:0 49:0 50:0 51:0 52:0 
0.4916587837074238 1:0.1501404 2:0.0125117 3:0.0125117 4:0.0125117 5:8 6:8 7:8 8:0 9:0 10:0 11:0 12:4 13:9 14:9 15:6 16:0 17:11 18:11 19:11 20:11 21:11 22:11 23:11 24:11 25:11 26:11 27:11 28:11 29:0 30:0 31:0 32:0 33:0 34:0 35:12 36:12 37:12 38:12 39:12 40:12 41:3 42:3 43:3 44:3 45:3 46:3 47:2 48:5 49:5 50:5 51:5 52:2 
0.3842876022850148 1:0.069930935 2:0.017482734 3:0.017482734 4:0.017482734 5:1 6:1 7:0 8:0 9:0 10:0 11:3 12:3 13:3 14:3 15:3 16:3 17:3 18:3 19:3 20:3 21:3 22:3 23:0 24:4 25:4 26:4 27:4 28:0 29:0 30:4 31:4 32:4 33:4 34:0 35:0 36:0 37:0 38:0 39:0 40:0 41:0 42:0 43:0 44:0 45:0 46:0 47:0 48:0 49:0 50:0 51:0 52:0 
0.4919789966809939 1:0.3941626 2:0.0207454 3:0.0207454 4:0.0207454 5:9 6:9 7:9 8:2 9:0 10:0 11:12 12:12 13:9 14:0 15:0 16:0 17:8 18:0 19:0 20:0 21:0 22:0 23:11 24:11 25:0 26:0 27:0 28:0 29:13 30:13 31:13 32:0 33:0 34:0 35:16 36:16 37:17 38:0 39:0 40:0 41:19 42:19 43:0 44:0 45:0 46:0 47:15 48:15 49:0 50:0 51:0 52:0 
0.4917843637971739 1:0.33889605 2:0.017836634 3:0.017836634 4:0.017836634 5:19 6:0 7:0 8:0 9:0 10:0 11:19 12:0 13:0 14:0 15:0 16:0 17:0 18:0 19:0 20:0 21:0 22:0 23:18 24:18 25:0 26:0 27:0 28:0 29:18 30:18 31:17 32:17 33:17 34:16 35:15 36:15 37:15 38:15 39:15 40:15 41:14 42:14 43:0 44:7 45:10 46:10 47:2 48:2 49:2 50:2 51:2 52:1 
0.4308444483290218 1:0.18747338 2:0.026781912 3:0.026781912 4:0.026781912 5:5 6:5 7:5 8:5 9:5 10:5 11:5 12:5 13:5 14:5 15:5 16:5 17:4 18:0 19:0 20:0 21:0 22:0 23:7 24:7 25:7 26:7 27:7 28:7 29:0 30:0 31:0 32:0 33:0 34:0 35:6 36:6 37:6 38:6 39:6 40:6 41:6 42:6 43:6 44:6 45:6 46:6 47:2 48:1 49:1 50:3 51:3 52:0 
0.4874740831506713 1:0.093804648 2:0.0085276953 3:0.0085276953 4:0.0085276953 5:10 6:10 7:10 8:10 9:10 10:10 11:10 12:10 13:10 14:10 15:10 16:10 17:0 18:0 19:0 20:0 21:0 22:0 23:6 24:6 25:6 26:6 27:6 28:6 29:6 30:6 31:6 32:6 33:6 34:6 35:0 36:0 37:0 38:0 39:0 40:0 41:0 42:0 43:0 44:0 45:0 46:0 47:11 48:11 49:11 50:11 51:11 52:11 
0.7538898146766442 1:0.096789698 2:0.024197425 3:0.024197425 4:0.024197425 5:2 6:2 7:2 8:2 9:2 10:2 11:2 12:3 13:3 14:3 15:3 16:2 17:4 18:4 19:4 20:4 21:4 22:4 23:4 24:4 25:4 26:4 27:4 28:4 29:4 30:4 31:4 32:4 33:4 34:4 35:4 36:4 37:4 38:4 39:4 40:4 41:4 42:4 43:4 44:4 45:4 46:4 47:0 48:0 49:0 50:0 51:0 52:0 
0.4463928088843273 1:0.065710294 2:0.0065710294 3:0.0065710294 4:0.0065710294 5:10 6:10 7:10 8:0 9:0 10:5 11:0 12:0 13:0 14:0 15:0 16:0 17:9 18:9 19:9 20:9 21:9 22:9 23:9 24:9 25:9 26:9 27:9 28:9 29:1 30:1 31:1 32:1 33:1 34:1 35:0 36:0 37:0 38:0 39:0 40:0 41:0 42:0 43:0 44:0 45:0 46:0 47:0 48:0 49:0 50:0 51:0 52:0 
0.3873655455110134 1:0.061218561 2:0.010203093 3:0.010203093 4:0.010203093 5:0 6:0 7:0 8:0 9:4 10:3 11:0 12:0 13:0 14:0 15:0 16:5 17:0 18:0 19:1 20:1 21:0 22:5 23:6 24:0 25:1 26:1 27:0 28:0 29:0 30:0 31:0 32:0 33:0 34:0 35:0 36:0 37:0 38:0 39:0 40:0 41:0 42:0 43:0 44:0 45:0 46:0 47:0 48:0 49:0 50:0 51:0 52:0 
0.6556410687088071 1:0.079584645 2:0.011369235 3:0.011369235 4:0.011369235 5:6 6:6 7:0 8:0 9:0 10:0 11:4 12:4 13:4 14:4 15:4 16:4 17:5 18:5 19:5 20:5 21:5 22:5 23:5 24:5 25:5 26:5 27:5 28:5 29:3 30:3 31:3 32:3 33:3 34:3 35:7 36:7 37:7 38:7 39:7 40:7 41:7 42:7 43:7 44:7 45:7 46:7 47:0 48:0 49:0 50:0 51:0 52:0 
0.2591651970192925 1:0.05616794 2:0.0070209925 3:0.0070209925 4:0.0070209925 5:0 6:0 7:0 8:0 9:0 10:0 11:0 12:0 13:0 14:0 15:0 16:0 17:0 18:0 19:0 20:0 21:0 22:0 23:0 24:0 25:0 26:0 27:0 28:0 29:8 30:8 31:8 32:8 33:8 34:8 35:8 36:8 37:8 38:8 39:8 40:8 41:5 42:5 43:5 44:5 45:5 46:5 47:6 48:6 49:6 50:6 51:6 52:6 
0.4796335056885055 1:0.27418167 2:0.019584405 3:0.019584405 4:0.019584405 5:7 6:8 7:8 8:13 9:14 10:14 11:7 12:8 13:8 14:13 15:14 16:14 17:11 18:11 19:11 20:11 21:11 22:11 23:12 24:12 25:12 26:12 27:12 28:12 29:6 30:6 31:6 32:6 33:6 34:0 35:4 36:4 37:4 38:3 39:3 40:0 41:0 42:0 43:0 44:0 45:0 46:0 47:0 48:0 49:0 50:0 51:0 52:0 
0.3180002162408896 1:0.22861426 2:0.045722851 3:0.045722851 4:0.045722851 5:4 6:0 7:0 8:0 9:0 10:2 11:0 12:0 13:0 14:0 15:0 16:0 17:1 18:1 19:1 20:1 21:1 22:1 23:0 24:0 25:0 26:0 27:3 28:5 29:0 30:0 31:0 32:0 33:0 34:0 35:0 36:0 37:0 38:0 39:0 40:0 41:0 42:0 43:0 44:0 45:0 46:0 47:0 48:0 49:0 50:0 51:0 52:0 
0.3857026678036986 1:0.61264452 2:0.068071614 3:0.068071614 4:0.068071614 5:0 6:0 7:0 8:0 9:0 10:0 11:1 12:1 13:0 14:0 15:0 16:0 17:9 18:9 19:0 20:0 21:0 22:0 23:7 24:7 25:7 26:0 27:0 28:0 29:7 30:7 31:7 32:0 33:0 34:0 35:5 36:5 37:2 38:0 39:0 40:0 41:3 42:3 43:3 44:0 45:0 46:0 47:0 48:0 49:0 50:0 51:0 52:0 
0.02480559319997694 1:0.079974807 2:0.013329134 3:0.013329134 4:0.013329134 5:0 6:0 7:0 8:0 9:0 10:0 11:0 12:0 13:6 14:6 15:6 16:6 17:0 18:0 19:4 20:4 21:4 22:4 23:0 24:0 25:4 26:4 27:4 28:4 29:0 30:0 31:2 32:2 33:2 34:2 35:0 36:0 37:0 38:0 39:0 40:0 41:0 42:0 43:0 44:0 45:0 46:0 47:0 48:0 49:0 50:0 51:0 52:0 
0.486463500794801 1:0.61032311 2:0.046947932 3:0.046947932 4:0.046947932 5:9 6:9 7:9 8:0 9:0 10:0 11:0 12:0 13:0 14:0 15:0 16:0 17:0 18:0 19:0 20:0 21:0 22:0 23:13 24:13 25:12 26:7 27:10 28:10 29:0 30:0 31:0 32:0 33:0 34:0 35:0 36:0 37:0 38:0 39:0 40:0 41:0 42:0 43:0 44:0 45:0 46:0 47:0 48:0 49:0 50:0 51:0 52:0 
0.3217473668985009 1:0.23673168 2:0.033818811 3:0.033818811 4:0.033818811 5:3 6:3 7:0 8:0 9:0 10:0 11:6 12:6 13:6 14:6 15:6 16:6 17:7 18:7 19:7 20:7 21:7 22:7 23:0 24:5 25:5 26:5 27:5 28:0 29:0 30:0 31:0 32:0 33:0 34:0 35:0 36:0 37:0 38:0 39:0 40:0 41:0 42:0 43:0 44:0 45:0 46:0 47:4 48:4 49:0 50:0 51:0 52:0 
0.4916859708288502 1:0.37775525 2:0.017988345 3:0.017988345 4:0.017988345 5:7 6:3 7:3 8:3 9:3 10:0 11:9 12:9 13:9 14:0 15:0 16:0 17:9 18:9 19:9 20:0 21:0 22:0 23:15 24:15 25:15 26:0 27:0 28:0 29:16 30:16 31:15 32:0 33:0 34:0 35:12 36:12 37:12 38:0 39:0 40:0 41:13 42:13 43:13 44:0 45:0 46:0 47:21 48:21 49:21 50:20 51:19 52:19 
0.4905706657690064 1:0.032076097 2:0.0040095121 3:0.0040095121 4:0.0040095121 5:2 6:2 7:0 8:6 9:6 10:1 11:7 12:7 13:7 14:7 15:7 16:7 17:0 18:0 19:0 20:0 21:0 22:5 23:0 24:0 25:0 26:0 27:0 28:0 29:0 30:0 31:0 32:0 33:0 34:0 35:4 36:4 37:0 38:3 39:8 40:8 41:0 42:0 43:0 44:0 45:0 46:0 47:0 48:0 49:0 50:0 51:0 52:0 
0.5634296055748919 1:0.44537049 2:0.074228415 3:0.074228415 4:0.074228415 5:2 6:2 7:6 8:6 9:2 10:5 11:3 12:3 13:4 14:2 15:2 16:2 17:0 18:0 19:0 20:0 21:0 22:0 23:0 24:0 25:0 26:0 27:0 28:0 29:0 30:0 31:0 32:0 33:0 34:0 35:0 36:0 37:0 38:0 39:0 40:0 41:0 42:0 43:0 44:0 45:0 46:0 47:0 48:0 49:0 50:0 51:0 52:0 
0.2317943070953956 1:0.074354692 2:0.014870938 3:0.014870938 4:0.014870938 5:0 6:0 7:0 8:0 9:0 10:0 11:0 12:0 13:0 14:0 15:0 16:0 17:0 18:0 19:0 20:0 21:0 22:0 23:0 24:0 25:0 26:0 27:0 28:0 29:0 30:0 31:0 32:1 33:1 34:1 35:0 36:0 37:0 38:1 39:1 40:1 41:0 42:0 43:0 44:0 45:0 46:0 47:4 48:4 49:4 50:4 51:5 52:5 
0.4915352808992707 1:0.10327325 2:0.0038249354 3:0.0038249354 4:0.0038249354 5:15 6:15 7:0 8:2 9:0 10:0 11:5 12:0 13:0 14:6 15:0 16:0 17:23 18:0 19:0 20:9 21:0 22:0 23:23 24:0 25:0 26:12 27:0 28:0 29:24 30:0 31:0 32:25 33:0 34:0 35:26 36:0 37:0 38:27 39:0 40:0 41:26 42:0 43:0 44:27 45:0 46:0 47:0 48:0 49:0 50:0 51:0 52:0 
0.4921496096782827 1:0.52915835 2:0.025198017 3:0.025198017 4:0.025198017 5:13 6:13 7:13 8:13 9:13 10:0 11:13 12:13 13:13 14:13 15:13 16:2 17:0 18:0 19:0 20:0 21:0 22:0 23:1 24:12 25:12 26:11 27:0 28:0 29:0 30:10 31:10 32:0 33:0 34:0 35:6 36:17 37:17 38:4 39:0 40:0 41:21 42:19 43:19 44:18 45:0 46:0 47:20 48:18 49:18 50:18 51:0 52:0 
0.09527776166823773 1:0.076887149 2:0.0096108936 3:0.0096108936 4:0.0096108936 5:8 6:6 7:6 8:6 9:6 10:6 11:7 12:7 13:7 14:7 15:7 16:7 17:5 18:5 19:5 20:5 21:5 22:5 23:0 24:0 25:4 26:4 27:0 28:0 29:0 30:0 31:0 32:0 33:0 34:0 35:0 36:0 37:0 38:0 39:0 40:0 41:0 42:0 43:0 44:0 45:0 46:0 47:0 48:0 49:0 50:0 51:0 52:0 
0.4596425845069307 1:0.097888238 2:0.0075298645 3:0.0075298645 4:0.0075298645 5:3 6:3 7:3 8:3 9:3 10:3 11:5 12:5 13:13 14:13 15:5 16:5 17:6 18:6 19:12 20:11 21:6 22:6 23:7 24:7 25:10 26:9 27:7 28:7 29:2 30:2 31:2 32:2 33:2 34:2 35:1 36:1 37:1 38:1 39:1 40:1 41:1 42:1 43:1 44:1 45:1 46:1 47:0 48:0 49:0 50:0 51:0 52:0 
1 1:0.097942458 2:0.016323743 3:0.016323743 4:0.016323743 5:0 6:0 7:0 8:0 9:0 10:5 11:0 12:0 13:0 14:0 15:0 16:0 17:2 18:2 19:0 20:0 21:0 22:0 23:3 24:3 25:3 26:3 27:3 28:3 29:6 30:6 31:6 32:6 33:6 34:6 35:0 36:0 37:0 38:0 39:0 40:0 41:0 42:0 43:0 44:0 45:0 46:0 47:1 48:1 49:1 50:1 51:1 52:1 
0.4917403740676398 1:0.47160676 2:0.031440451 3:0.031440451 4:0.031440451 5:0 6:5 7:5 8:0 9:0 10:0 11:0 12:6 13:6 14:0 15:0 16:0 17:0 18:9 19:9 20:4 21:4 22:0 23:0 24:10 25:10 26:10 27:10 28:0 29:0 30:8 31:8 32:0 33:0 34:0 35:0 36:12 37:2 38:2 39:0 40:0 41:0 42:14 43:14 44:11 45:11 46:0 47:0 48:15 49:15 50:0 51:0 52:0 
0.4919316440952198 1:0.34653805 2:0.016501812 3:0.016501812 4:0.016501812 5:20 6:20 7:0 8:0 9:0 10:21 11:20 12:20 13:7 14:7 15:8 16:8 17:0 18:0 19:9 20:9 21:0 22:0 23:0 24:0 25:11 26:11 27:0 28:0 29:13 30:13 31:13 32:13 33:13 34:13 35:13 36:13 37:18 38:14 39:13 40:13 41:0 42:0 43:3 44:2 45:0 46:0 47:17 48:17 49:17 50:17 51:17 52:17 
0.4915184576532191 1:0.50812181 2:0.036294415 3:0.036294415 4:0.036294415 5:0 6:0 7:0 8:0 9:0 10:0 11:0 12:0 13:0 14:0 15:0 16:0 17:0 18:0 19:0 20:0 21:0 22:0 23:9 24:2 25:0 26:0 27:0 28:1 29:9 30:4 31:4 32:4 33:4 34:4 35:13 36:13 37:0 38:0 39:14 40:14 41:11 42:11 43:11 44:11 45:11 46:11 47:0 48:0 49:12 50:12 51:0 52:0 
0.4897663871050076 1:0.15112961 2:0.011625355 3:0.011625355 4:0.011625355 5:13 6:13 7:12 8:7 9:7 10:4 11:10 12:10 13:10 14:10 15:10 16:4 17:11 18:11 19:0 20:0 21:0 22:0 23:0 24:0 25:0 26:0 27:0 28:0 29:0 30:0 31:0 32:0 33:0 34:0 35:0 36:0 37:0 38:0 39:0 40:0 41:0 42:0 43:0 44:0 45:0 46:0 47:9 48:9 49:9 50:9 51:9 52:0 
0.4916790976412205 1:0.74126077 2:0.029650431 3:0.029650431 4:0.029650431 5:0 6:21 7:21 8:21 9:21 10:21 11:0 12:20 13:0 14:0 15:0 16:0 17:24 18:0 19:25 20:25 21:0 22:0 23:24 24:0 25:25 26:25 27:0 28:0 29:17 30:0 31:19 32:19 33:18 34:18 35:16 36:0 37:15 38:15 39:14 40:14 41:8 42:0 43:0 44:0 45:9 46:9 47:6 48:0 49:0 50:0 51:7 52:7 
0.4941948685148361 1:0.045737849 2:0.0057172312 3:0.0057172312 4:0.0057172312 5:8 6:8 7:8 8:8 9:8 10:8 11:0 12:0 13:0 14:0 15:0 16:0 17:0 18:0 19:0 20:4 21:4 22:4 23:3 24:3 25:3 26:4 27:4 28:4 29:7 30:7 31:7 32:7 33:7 34:7 35:7 36:7 37:7 38:7 39:7 40:7 41:5 42:5 43:5 44:5 45:5 46:5 47:0 48:0 49:0 50:0 51:0 52:0 
0.2457792525590544 1:0.28292893 2:0.047154822 3:0.047154822 4:0.047154822 5:6 6:6 7:3 8:3 9:4 10:4 11:0 12:0 13:5 14:5 15:0 16:0 17:0 18:0 19:0 20:0 21:0 22:0 23:0 24:0 25:0 26:0 27:0 28:0 29:0 30:0 31:0 32:0 33:0 34:0 35:0 36:0 37:0 38:0 39:0 40:0 41:0 42:0 43:0 44:0 45:0 46:0 47:0 48:0 49:0 50:0 51:0 52:0 
0.1649806335516234 1:0.36598678 2:0.091496695 3:0.091496695 4:0.091496695 5:0 6:0 7:0 8:0 9:0 10:0 11:0 12:0 13:0 14:0 15:0 16:0 17:0 18:0 19:0 20:0 21:0 22:0 23:2 24:2 25:2 26:2 27:2 28:2 29:0 30:0 31:0 32:0 33:0 34:0 35:0 36:0 37:0 38:0 39:0 40:0 41:0 42:0 43:0 44:0 45:0 46:0 47:0 48:4 49:0 50:0 51:3 52:0 
0.5057893097240392 1:0.087421183 2:0.0097134648 3:0.0097134648 4:0.0097134648 5:9 6:9 7:0 8:0 9:0 10:0 11:0 12:0 13:0 14:0 15:0 16:0 17:0 18:0 19:0 20:0 21:0 22:0 23:8 24:8 25:8 26:8 27:8 28:8 29:7 30:7 31:7 32:7 33:7 34:7 35:5 36:5 37:5 38:5 39:5 40:5 41:4 42:4 43:4 44:4 45:4 46:4 47:2 48:2 49:2 50:2 51:2 52:2 
0.3376915065966303 1:0.060554164 2:0.0067282405 3:0.0067282405 4:0.0067282405 5:5 6:5 7:4 8:3 9:3 10:3 11:6 12:6 13:3 14:3 15:3 16:3 17:7 18:7 19:0 20:0 21:0 22:0 23:7 24:7 25:0 26:0 27:0 28:0 29:8 30:8 31:0 32:0 33:0 34:0 35:9 36:9 37:0 38:0 39:0 40:0 41:2 42:2 43:0 44:0 45:0 46:0 47:1 48:1 49:0 50:0 51:0 52:0 
0.49164021162485 1:0.31066221 2:0.016350643 3:0.016350643 4:0.016350643 5:17 6:17 7:17 8:17 9:17 10:17 11:18 12:18 13:17 14:17 15:17 16:17 17:12 18:12 19:10 20:0 21:0 22:0 23:2 24:0 25:0 26:0 27:0 28:0 29:16 30:11 31:15 32:19 33:8 34:8 35:6 36:6 37:0 38:0 39:0 40:7 41:5 42:5 43:0 44:0 45:0 46:0 47:0 48:0 49:0 50:0 51:0 52:0 
0.4818223343729295 1:0.47872447 2:0.039893706 3:0.039893706 4:0.039893706 5:7 6:6 7:6 8:6 9:6 10:12 11:7 12:5 13:0 14:0 15:0 16:0 17:9 18:5 19:0 20:0 21:0 22:0 23:11 24:10 25:0 26:0 27:0 28:0 29:11 30:0 31:0 32:0 33:0 34:0 35:3 36:0 37:0 38:0 39:0 40:0 41:0 42:0 43:0 44:0 45:0 46:0 47:0 48:0 49:0 50:0 51:0 52:0 
0.2709171591139483 1:0.61448491 2:0.068276101 3:0.068276101 4:0.068276101 5:0 6:0 7:0 8:0 9:0 10:0 11:3 12:3 13:0 14:0 15:0 16:0 17:2 18:2 19:0 20:0 21:0 22:0 23:9 24:9 25:0 26:0 27:0 28:0 29:9 30:9 31:8 32:0 33:0 34:0 35:5 36:5 37:0 38:0 39:0 40:0 41:6 42:6 43:0 44:0 45:0 46:0 47:0 48:0 49:0 50:0 51:0 52:0 
0.4914445892058266 1:0.55450499 2:0.011797978 3:0.011797978 4:0.011797978 5:21 6:25 7:38 8:38 9:38 10:20 11:21 12:25 13:38 14:38 15:38 16:0 17:0 18:23 19:38 20:38 21:38 22:0 23:0 24:0 25:0 26:0 27:0 28:0 29:0 30:0 31:0 32:0 33:0 34:0 35:0 36:47 37:47 38:46 39:45 40:0 41:44 42:43 43:42 44:41 45:40 46:26 47:36 48:36 49:35 50:34 51:37 52:37 
0.490909637041563 1:0.083383496 2:0.0075803179 3:0.0075803179 4:0.0075803179 5:5 6:6 7:6 8:0 9:0 10:1 11:0 12:6 13:6 14:0 15:0 16:0 17:0 18:11 19:11 20:0 21:0 22:0 23:0 24:11 25:11 26:0 27:0 28:0 29:0 30:10 31:10 32:0 33:0 34:0 35:0 36:8 37:8 38:0 39:0 40:0 41:0 42:0 43:0 44:0 45:0 46:0 47:0 48:0 49:7 50:7 51:7 52:7 
0.4918163801889268 1:0.26360765 2:0.013874087 3:0.013874087 4:0.013874087 5:18 6:18 7:3 8:1 9:2 10:19 11:18 12:18 13:3 14:5 15:9 16:9 17:6 18:0 19:0 20:5 21:9 22:9 23:8 24:8 25:8 26:8 27:0 28:0 29:8 30:11 31:11 32:11 33:14 34:14 35:13 36:13 37:13 38:13 39:17 40:17 41:15 42:15 43:15 44:15 45:16 46:16 47:15 48:15 49:15 50:15 51:0 52:0 
0.3198037827926113 1:0.083816654 2:0.020954163 3:0.020954163 4:0.020954163 5:0 6:0 7:0 8:0 9:0 10:0 11:0 12:0 13:0 14:0 15:0 16:0 17:0 18:0 19:0 20:0 21:0 22:0 23:0 24:0 25:0 26:0 27:0 28:0 29:0 30:0 31:0 32:0 33:0 34:0 35:0 36:0 37:0 38:0 39:0 40:3 41:4 42:4 43:4 44:4 45:4 46:4 47:0 48:0 49:1 50:2 51:0 52:0 
1 1:0.017421171 2:0.0034842342 3:0.0034842342 4:0.0034842342 5:1 6:1 7:1 8:1 9:1 10:1 11:5 12:5 13:5 14:5 15:5 16:5 17:5 18:5 19:5 20:5 21:5 22:5 23:5 24:5 25:5 26:5 27:5 28:5 29:5 30:5 31:5 32:5 33:5 34:5 35:5 36:5 37:5 38:5 39:5 40:5 41:0 42:0 43:0 44:0 45:0 46:4 47:0 48:0 49:0 50:0 51:0 52:3 
0.3560210501609656 1:0.15048621 2:0.02149803 3:0.02149803 4:0.02149803 5:0 6:0 7:0 8:0 9:0 10:0 11:0 12:0 13:0 14:0 15:0 16:0 17:0 18:0 19:0 20:0 21:0 22:0 23:4 24:4 25:4 26:4 27:4 28:4 29:4 30:4 31:4 32:4 33:4 34:4 35:0 36:3 37:3 38:3 39:3 40:3 41:0 42:7 43:7 44:7 45:7 46:7 47:0 48:6 49:6 50:6 51:6 52:6 
0.6118917308958183 1:0.10783579 2:0.015405113 3:0.015405113 4:0.015405113 5:2 6:2 7:1 8:0 9:6 10:6 11:0 12:0 13:0 14:0 15:0 16:0 17:0 18:0 19:0 20:0 21:0 22:0 23:0 24:0 25:0 26:0 27:0 28:0 29:4 30:4 31:4 32:4 33:4 34:4 35:4 36:4 37:4 38:4 39:4 40:4 41:4 42:4 43:4 44:4 45:4 46:4 47:7 48:7 49:7 50:7 51:7 52:7 
0.2221461522193406 1:0.008265311 2:0.0020663277 3:0.0020663277 4:0.0020663277 5:0 6:0 7:0 8:0 9:0 10:0 11:1 12:1 13:1 14:1 15:1 16:1 17:3 18:3 19:3 20:3 21:3 22:3 23:3 24:3 25:3 26:3 27:3 28:3 29:2 30:2 31:2 32:2 33:2 34:2 35:2 36:2 37:2 38:2 39:2 40:2 41:4 42:4 43:4 44:4 45:4 46:4 47:4 48:4 49:4 50:4 51:4 52:4 
0.7457011584692552 1:0.19217187 2:0.02135243 3:0.02135243 4:0.02135243 5:1 6:1 7:1 8:1 9:1 10:1 11:2 12:2 13:2 14:2 15:2 16:2 17:2 18:2 19:2 20:2 21:2 22:2 23:0 24:0 25:0 26:0 27:0 28:0 29:0 30:0 31:0 32:0 33:0 34:0 35:0 36:0 37:0 38:0 39:0 40:0 41:3 42:3 43:6 44:6 45:9 46:9 47:0 48:0 49:0 50:0 51:0 52:0 
0.4322128435237567 1:0.47733223 2:0.026518457 3:0.026518457 4:0.026518457 5:0 6:0 7:0 8:0 9:0 10:0 11:18 12:18 13:18 14:18 15:18 16:18 17:14 18:14 19:14 20:14 21:14 22:15 23:13 24:13 25:13 26:13 27:13 28:13 29:6 30:6 31:6 32:6 33:6 34:6 35:3 36:3 37:3 38:3 39:3 40:3 41:0 42:0 43:0 44:0 45:0 46:0 47:0 48:0 49:0 50:0 51:0 52:0 
0.4918495034165709 1:0.046784966 2:0.0031189978 3:0.0031189978 4:0.0031189978 5:1 6:1 7:1 8:1 9:1 10:15 11:9 12:9 13:9 14:9 15:6 16:6 17:8 18:8 19:8 20:8 21:0 22:0 23:3 24:3 25:3 26:3 27:0 28:0 29:5 30:5 31:5 32:5 33:0 34:0 35:11 36:11 37:11 38:11 39:0 40:0 41:12 42:12 43:12 44:12 45:0 46:0 47:10 48:10 49:14 50:14 51:0 52:13 
0.4889439098674623 1:0.26085532 2:0.02371412 3:0.02371412 4:0.02371412 5:10 6:1 7:0 8:0 9:0 10:0 11:8 12:8 13:8 14:5 15:9 16:9 17:6 18:6 19:6 20:2 21:7 22:7 23:4 24:4 25:4 26:2 27:3 28:3 29:11 30:11 31:11 32:11 33:11 34:0 35:0 36:0 37:0 38:0 39:0 40:0 41:0 42:0 43:0 44:0 45:0 46:0 47:0 48:0 49:0 50:0 51:0 52:0 
0.4921441793036858 1:0.41941254 2:0.018235328 3:0.018235328 4:0.018235328 5:21 6:21 7:21 8:21 9:21 10:21 11:23 12:22 13:21 14:21 15:21 16:21 17:19 18:19 19:18 20:18 21:18 22:18 23:10 24:10 25:0 26:0 27:0 28:0 29:10 30:10 31:9 32:9 33:9 34:9 35:14 36:14 37:13 38:13 39:13 40:13 41:15 42:14 43:0 44:0 45:0 46:0 47:0 48:0 49:0 50:0 51:0 52:0 
0.490996874195201 1:0.18435469 2:0.018435469 3:0.018435469 4:0.018435469 5:0 6:0 7:0 8:8 9:8 10:8 11:4 12:4 13:4 14:4 15:4 16:4 17:4 18:4 19:4 20:4 21:4 22:4 23:9 24:9 25:9 26:9 27:9 28:9 29:6 30:6 31:6 32:6 33:10 34:10 35:6 36:6 37:6 38:6 39:6 40:6 41:0 42:0 43:0 44:0 45:0 46:0 47:7 48:7 49:7 50:7 51:7 52:7 
0.4921450524299494 1:0.47031208 2:0.023515604 3:0.023515604 4:0.023515604 5:9 6:9 7:9 8:9 9:9 10:9 11:19 12:19 13:19 14:19 15:19 16:19 17:11 18:10 19:10 20:10 21:0 22:0 23:18 24:17 25:17 26:17 27:17 28:16 29:15 30:14 31:14 32:14 33:14 34:14 35:12 36:8 37:8 38:8 39:8 40:8 41:20 42:20 43:20 44:20 45:0 46:0 47:6 48:6 49:6 50:6 51:6 52:6 
0.4918572413791742 1:0.25945249 2:0.02162104 3:0.02162104 4:0.02162104 5:0 6:0 7:0 8:0 9:3 10:3 11:0 12:0 13:0 14:0 15:0 16:0 17:11 18:11 19:12 20:4 21:4 22:4 23:2 24:2 25:7 26:7 27:2 28:2 29:10 30:10 31:10 32:10 33:10 34:8 35:0 36:0 37:0 38:0 39:0 40:0 41:0 42:0 43:0 44:0 45:0 46:0 47:9 48:9 49:9 50:9 51:9 52:9 
0.4101279036336192 1:0.21175091 2:0.042350182 3:0.042350182 4:0.042350182 5:3 6:3 7:3 8:0 9:0 10:0 11:2 12:2 13:0 14:0 15:0 16:0 17:0 18:0 19:0 20:0 21:0 22:0 23:0 24:0 25:0 26:0 27:0 28:0 29:0 30:0 31:0 32:0 33:0 34:0 35:1 36:1 37:0 38:0 39:0 40:0 41:4 42:4 43:4 44:4 45:4 46:4 47:5 48:5 49:5 50:5 51:5 52:5 
0.4915616750777325 1:0.24478864 2:0.011126756 3:0.011126756 4:0.011126756 5:3 6:0 7:0 8:0 9:0 10:0 11:4 12:4 13:15 14:15 15:20 16:20 17:22 18:22 19:22 20:22 21:22 22:22 23:19 24:19 25:19 26:19 27:19 28:19 29:18 30:18 31:18 32:18 33:18 34:18 35:10 36:10 37:10 38:10 39:10 40:10 41:14 42:14 43:14 44:14 45:14 46:14 47:14 48:14 49:14 50:14 51:14 52:14 
0.4877797943777508 1:0.17566895 2:0.010979309 3:0.010979309 4:0.010979309 5:16 6:16 7:16 8:16 9:16 10:16 11:16 12:16 13:16 14:16 15:16 16:16 17:13 18:13 19:13 20:13 21:13 22:13 23:6 24:6 25:6 26:6 27:6 28:6 29:8 30:8 31:8 32:8 33:8 34:8 35:2 36:2 37:2 38:2 39:2 40:2 41:4 42:4 43:4 44:4 45:4 46:4 47:0 48:0 49:0 50:0 51:0 52:0 
0.4900182917473475 1:0.10856097 2:0.0083508441 3:0.0083508441 4:0.0083508441 5:8 6:8 7:0 8:0 9:5 10:5 11:0 12:13 13:13 14:13 15:13 16:13 17:0 18:12 19:12 20:12 21:12 22:12 23:2 24:9 25:9 26:9 27:9 28:9 29:2 30:1 31:1 32:1 33:1 34:1 35:0 36:0 37:0 38:0 39:0 40:0 41:0 42:0 43:0 44:0 45:0 46:0 47:0 48:0 49:0 50:0 51:0 52:0 
1 1:0.082392924 2:0.013732154 3:0.013732154 4:0.013732154 5:0 6:0 7:0 8:0 9:0 10:0 11:2 12:2 13:2 14:2 15:2 16:2 17:1 18:1 19:1 20:1 21:1 22:1 23:6 24:6 25:6 26:6 27:6 28:6 29:5 30:5 31:4 32:4 33:4 34:4 35:0 36:0 37:0 38:0 39:0 40:0 41:0 42:0 43:0 44:0 45:0 46:0 47:3 48:3 49:3 50:3 51:3 52:3 
0.4916887288970044 1:0.27500349 2:0.018333566 3:0.018333566 4:0.018333566 5:15 6:4 7:0 8:0 9:13 10:12 11:3 12:9 13:9 14:9 15:12 16:12 17:5 18:5 19:8 20:7 21:6 22:0 23:14 24:14 25:14 26:10 27:0 28:0 29:0 30:0 31:10 32:10 33:0 34:0 35:0 36:0 37:0 38:0 39:0 40:0 41:0 42:0 43:0 44:0 45:0 46:0 47:0 48:0 49:0 50:0 51:0 52:0 
0.4649042062602568 1:0.29009674 2:0.026372431 3:0.026372431 4:0.026372431 5:11 6:7 7:7 8:7 9:7 10:7 11:8 12:7 13:7 14:7 15:7 16:7 17:10 18:10 19:10 20:10 21:10 22:10 23:9 24:2 25:2 26:2 27:2 28:2 29:3 30:3 31:3 32:3 33:3 34:3 35:4 36:4 37:4 38:4 39:4 40:4 41:5 42:5 43:5 44:5 45:5 46:5 47:5 48:5 49:5 50:5 51:5 52:5 
0.4922772073617797 1:0.54244555 2:0.030135864 3:0.030135864 4:0.030135864 5:0 6:0 7:0 8:0 9:0 10:0 11:3 12:3 13:5 14:5 15:6 16:6 17:13 18:13 19:14 20:14 21:1 22:1 23:13 24:13 25:12 26:12 27:10 28:10 29:16 30:16 31:0 32:0 33:0 34:0 35:18 36:18 37:0 38:0 39:0 40:0 41:0 42:0 43:0 44:0 45:0 46:0 47:0 48:0 49:0 50:0 51:0 52:0 
0.645450758808316 1:0.14669493 2:0.024449155 3:0.024449155 4:0.024449155 5:6 6:6 7:6 8:0 9:0 10:0 11:3 12:3 13:3 14:3 15:3 16:3 17:2 18:2 19:2 20:2 21:2 22:2 23:4 24:4 25:4 26:4 27:4 28:4 29:5 30:5 31:5 32:5 33:5 34:5 35:0 36:0 37:0 38:0 39:0 40:0 41:0 42:0 43:0 44:0 45:0 46:0 47:0 48:0 49:0 50:0 51:0 52:0 
0.4842093361046287 1:0.19243532 2:0.014802717 3:0.014802717 4:0.014802717 5:12 6:12 7:0 8:0 9:0 10:0 11:12 12:12 13:6 14:6 15:6 16:0 17:7 18:7 19:7 20:7 21:7 22:0 23:3 24:10 25:10 26:10 27:13 28:13 29:0 30:0 31:0 32:0 33:0 34:0 35:0 36:0 37:0 38:0 39:0 40:0 41:0 42:0 43:0 44:0 45:0 46:0 47:0 48:0 49:0 50:0 51:0 52:0 
0.7581090986271644 1:0.025259051 2:0.0031573814 3:0.0031573814 4:0.0031573814 5:7 6:7 7:7 8:7 9:7 10:7 11:7 12:7 13:7 14:7 15:7 16:7 17:0 18:0 19:0 20:0 21:0 22:0 23:0 24:0 25:0 26:0 27:0 28:0 29:0 30:0 31:0 32:0 33:0 34:0 35:5 36:5 37:5 38:5 39:5 40:5 41:0 42:0 43:0 44:0 45:0 46:0 47:0 48:4 49:4 50:3 51:2 52:8 
0.2869524308107944 1:0.28484885 2:0.05696977 3:0.05696977 4:0.05696977 5:5 6:3 7:0 8:0 9:2 10:2 11:3 12:3 13:0 14:0 15:0 16:0 17:1 18:1 19:1 20:1 21:4 22:4 23:0 24:0 25:0 26:0 27:4 28:4 29:0 30:0 31:0 32:0 33:0 34:0 35:0 36:0 37:0 38:0 39:0 40:0 41:0 42:0 43:0 44:0 45:0 46:0 47:0 48:0 49:0 50:0 51:0 52:0 
0.4917858775877547 1:0.56980101 2:0.021103741 3:0.021103741 4:0.021103741 5:0 6:0 7:0 8:0 9:0 10:0 11:15 12:0 13:0 14:0 15:0 16:0 17:16 18:16 19:0 20:0 21:6 22:0 23:18 24:18 25:0 26:3 27:3 28:19 29:18 30:18 31:0 32:0 33:27 34:27 35:0 36:14 37:0 38:0 39:22 40:23 41:7 42:9 43:0 44:0 45:0 46:0 47:7 48:0 49:0 50:0 51:0 52:0 
0.4541943829002797 1:0.44632133 2:0.037193444 3:0.037193444 4:0.037193444 5:0 6:0 7:0 8:0 9:0 10:0 11:0 12:0 13:0 14:11 15:11 16:11 17:0 18:0 19:0 20:5 21:10 22:10 23:0 24:0 25:0 26:7 27:7 28:12 29:0 30:0 31:0 32:0 33:9 34:9 35:0 36:0 37:0 38:0 39:0 40:0 41:0 42:0 43:0 44:0 45:0 46:0 47:0 48:0 49:0 50:0 51:0 52:0 
0.3986681664307201 1:0.52470582 2:0.052470582 3:0.052470582 4:0.052470582 5:0 6:0 7:0 8:0 9:0 10:0 11:0 12:0 13:0 14:0 15:1 16:0 17:0 18:0 19:0 20:0 21:5 22:0 23:0 24:0 25:0 26:3 27:6 28:4 29:0 30:0 31:0 32:0 33:9 34:0 35:0 36:0 37:0 38:0 39:10 40:0 41:0 42:0 43:0 44:0 45:0 46:0 47:0 48:0 49:0 50:0 51:0 52:0 
0.4371397020054861 1:0.2073444 2:0.02591805 3:0.02591805 4:0.02591805 5:0 6:0 7:0 8:0 9:0 10:0 11:0 12:0 13:0 14:0 15:0 16:0 17:5 18:5 19:5 20:5 21:5 22:5 23:6 24:6 25:6 26:6 27:6 28:8 29:0 30:3 31:3 32:7 33:7 34:0 35:0 36:0 37:0 38:7 39:7 40:0 41:0 42:0 43:0 44:0 45:0 46:0 47:0 48:0 49:0 50:0 51:0 52:0 
0.4573301213241883 1:0.0027945495 2:0.00046575825 3:0.00046575825 4:0.00046575825 5:0 6:1 7:1 8:1 9:1 10:1 11:0 12:3 13:3 14:3 15:3 16:3 17:0 18:2 19:2 20:2 21:2 22:2 23:0 24:0 25:0 26:0 27:0 28:0 29:0 30:6 31:6 32:6 33:6 34:6 35:0 36:6 37:6 38:6 39:6 40:6 41:0 42:4 43:4 44:4 45:4 46:4 47:0 48:0 49:0 50:0 51:0 52:0 
0.461171314845754 1:0.43801427 2:0.036501189 3:0.036501189 4:0.036501189 5:4 6:4 7:4 8:4 9:4 10:4 11:5 12:5 13:0 14:0 15:0 16:0 17:6 18:6 19:0 20:0 21:0 22:0 23:10 24:9 25:9 26:9 27:9 28:9 29:9 30:9 31:9 32:9 33:9 34:9 35:12 36:12 37:7 38:7 39:7 40:7 41:0 42:0 43:0 44:0 45:0 46:0 47:0 48:0 49:0 50:0 51:0 52:0 
0.4736488857494042 1:0.0019189278 2:0.0002132142 3:0.0002132142 4:0.0002132142 5:0 6:8 7:8 8:8 9:8 10:8 11:0 12:9 13:9 14:9 15:9 16:9 17:0 18:2 19:2 20:2 21:2 22:2 23:0 24:3 25:3 26:3 27:3 28:3 29:0 30:5 31:5 32:5 33:5 34:5 35:0 36:7 37:7 38:7 39:7 40:7 41:0 42:7 43:7 44:7 45:7 46:7 47:0 48:0 49:0 50:0 51:0 52:0 
1 1:0.1951006 2:0.039020119 3:0.039020119 4:0.039020119 5:1 6:1 7:1 8:1 9:1 10:1 11:4 12:4 13:4 14:4 15:4 16:4 17:4 18:4 19:4 20:4 21:4 22:4 23:0 24:0 25:0 26:0 27:0 28:0 29:0 30:0 31:0 32:0 33:0 34:0 35:0 36:0 37:0 38:0 39:0 40:0 41:0 42:0 43:0 44:0 45:0 46:0 47:5 48:5 49:5 50:5 51:5 52:5 
0.4914459529378552 1:0.23035771 2:0.0039716847 3:0.0039716847 4:0.0039716847 5:58 6:58 7:58 8:58 9:58 10:58 11:53 12:45 13:46 14:47 15:48 16:48 17:40 18:40 19:40 20:40 21:49 22:49 23:0 24:0 25:0 26:0 27:0 28:0 29:0 30:0 31:0 32:0 33:0 34:0 35:0 36:0 37:0 38:0 39:0 40:0 41:0 42:0 43:0 44:0 45:0 46:0 47:0 48:0 49:0 50:0 51:0 52:0 
0.3050266511830746 1:0.1461716 2:0.011243969 3:0.011243969 4:0.011243969 5:10 6:10 7:9 8:9 9:12 10:12 11:13 12:13 13:13 14:8 15:8 16:8 17:0 18:0 19:0 20:0 21:0 22:0 23:0 24:0 25:0 26:0 27:0 28:0 29:0 30:0 31:0 32:0 33:0 34:0 35:0 36:0 37:0 38:0 39:0 40:0 41:0 42:0 43:0 44:0 45:0 46:0 47:0 48:0 49:0 50:0 51:0 52:0 
0.1455546998725292 1:0.080541186 2:0.0061954759 3:0.0061954759 4:0.0061954759 5:8 6:2 7:2 8:2 9:2 10:2 11:6 12:6 13:6 14:6 15:6 16:6 17:9 18:9 19:9 20:9 21:9 22:9 23:13 24:12 25:12 26:12 27:12 28:12 29:0 30:0 31:0 32:0 33:0 34:0 35:0 36:0 37:0 38:0 39:0 40:0 41:0 42:0 43:0 44:0 45:0 46:0 47:0 48:0 49:0 50:0 51:0 52:0 
0.4917275276607633 1:0.12021018 2:0.0085864414 3:0.0085864414 4:0.0085864414 5:0 6:0 7:0 8:0 9:8 10:9 11:12 12:12 13:12 14:12 15:0 16:0 17:11 18:11 19:11 20:0 21:0 22:0 23:7 24:7 25:14 26:14 27:0 28:0 29:13 30:13 31:13 32:13 33:0 34:0 35:5 36:5 37:5 38:5 39:0 40:0 41:2 42:2 43:2 44:2 45:0 46:0 47:3 48:3 49:3 50:3 51:0 52:0 
0.4917016537723556 1:0.21001695 2:0.0061769692 3:0.0061769692 4:0.0061769692 5:34 6:34 7:0 8:32 9:33 10:2 11:0 12:6 13:9 14:9 15:9 16:0 17:0 18:10 19:10 20:8 21:8 22:0 23:4 24:11 25:12 26:13 27:17 28:17 29:3 30:14 31:15 32:16 33:18 34:18 35:0 36:22 37:22 38:28 39:28 40:0 41:19 42:27 43:30 44:30 45:29 46:25 47:20 48:24 49:24 50:26 51:31 52:31 
0.4977352747980658 1:0.17880676 2:0.017880676 3:0.017880676 4:0.017880676 5:4 6:4 7:4 8:3 9:3 10:2 11:4 12:4 13:4 14:3 15:3 16:2 17:1 18:1 19:1 20:1 21:1 22:1 23:5 24:5 25:1 26:1 27:1 28:1 29:6 30:6 31:0 32:7 33:7 34:0 35:0 36:0 37:0 38:0 39:0 40:0 41:8 42:8 43:0 44:9 45:9 46:0 47:10 48:0 49:0 50:0 51:0 52:0 
0.5477800153516366 1:0.085047878 2:0.0085047878 3:0.0085047878 4:0.0085047878 5:6 6:6 7:6 8:6 9:6 10:6 11:2 12:2 13:2 14:2 15:2 16:2 17:10 18:10 19:4 20:4 21:9 22:9 23:4 24:4 25:4 26:4 27:9 28:9 29:5 30:5 31:5 32:5 33:5 34:5 35:8 36:8 37:8 38:8 39:8 40:8 41:7 42:7 43:7 44:7 45:7 46:7 47:0 48:0 49:0 50:0 51:0 52:0 
0.4914874080225032 1:0.24307944 2:0.012793655 3:0.012793655 4:0.012793655 5:16 6:17 7:17 8:17 9:17 10:16 11:19 12:16 13:16 14:16 15:18 16:18 17:13 18:13 19:0 20:2 21:2 22:2 23:11 24:11 25:11 26:11 27:11 28:11 29:12 30:12 31:12 32:12 33:12 34:12 35:12 36:12 37:12 38:12 39:12 40:12 41:12 42:12 43:12 44:12 45:12 46:12 47:10 48:10 49:10 50:10 51:10 52:10 
1 1:0.072349228 2:0.010335604 3:0.010335604 4:0.010335604 5:0 6:0 7:0 8:0 9:0 10:0 11:3 12:3 13:3 14:3 15:3 16:3 17:0 18:0 19:0 20:0 21:0 22:0 23:6 24:6 25:6 26:6 27:6 28:6 29:7 30:7 31:7 32:7 33:7 34:7 35:0 36:0 37:0 38:0 39:0 40:0 41:0 42:0 43:0 44:0 45:0 46:0 47:0 48:0 49:0 50:0 51:0 52:0 
0.4915598186262508 1:0.32316395 2:0.012926558 3:0.012926558 4:0.012926558 5:0 6:0 7:0 8:0 9:0 10:0 11:0 12:0 13:0 14:0 15:0 16:0 17:8 18:8 19:8 20:8 21:0 22:0 23:8 24:8 25:8 26:8 27:0 28:0 29:14 30:14 31:14 32:14 33:0 34:0 35:18 36:17 37:17 38:17 39:0 40:0 41:22 42:22 43:22 44:22 45:0 46:0 47:25 48:25 49:25 50:25 51:0 52:0 
0.2453253891957289 1:0.072745805 2:0.0060621504 3:0.0060621504 4:0.0060621504 5:9 6:9 7:9 8:9 9:9 10:9 11:12 12:12 13:12 14:12 15:12 16:12 17:12 18:12 19:12 20:12 21:12 22:12 23:6 24:6 25:6 26:6 27:6 28:6 29:5 30:5 31:5 32:5 33:5 34:5 35:2 36:2 37:2 38:2 39:2 40:2 41:0 42:0 43:0 44:0 45:0 46:0 47:0 48:0 49:0 50:0 51:0 52:0 
0.4916452198440271 1:0.43215336 2:0.016621283 3:0.016621283 4:0.016621283 5:26 6:26 7:10 8:0 9:0 10:0 11:9 12:9 13:9 14:0 15:0 16:0 17:7 18:7 19:2 20:2 21:2 22:2 23:23 24:23 25:23 26:4 27:0 28:0 29:22 30:22 31:22 32:14 33:14 34:0 35:25 36:25 37:25 38:0 39:0 40:0 41:20 42:20 43:19 44:0 45:0 46:0 47:21 48:21 49:0 50:0 51:0 52:0 
0.4052831350021452 1:0.043949018 2:0.0054936272 3:0.0054936272 4:0.0054936272 5:0 6:0 7:0 8:0 9:0 10:0 11:3 12:3 13:3 14:3 15:3 16:3 17:0 18:0 19:0 20:0 21:0 22:0 23:2 24:2 25:2 26:2 27:2 28:2 29:5 30:5 31:5 32:0 33:0 34:0 35:7 36:7 37:7 38:7 39:7 40:7 41:8 42:8 43:8 44:8 45:8 46:8 47:8 48:8 49:8 50:8 51:8 52:8 
0.5129263535433571 1:0.029284523 2:0.0032538359 3:0.0032538359 4:0.0032538359 5:0 6:0 7:0 8:0 9:8 10:8 11:3 12:3 13:3 14:3 15:3 16:3 17:3 18:3 19:3 20:3 21:3 22:3 23:2 24:2 25:2 26:2 27:2 28:2 29:4 30:4 31:4 32:4 33:4 34:4 35:7 36:7 37:7 38:6 39:6 40:6 41:7 42:7 43:7 44:6 45:6 46:6 47:0 48:0 49:0 50:0 51:0 52:9 
0.4914930223260718 1:0.17645711 2:0.0092872165 3:0.0092872165 4:0.0092872165 5:5 6:5 7:5 8:4 9:4 10:4 11:9 12:9 13:9 14:8 15:8 16:8 17:6 18:6 19:6 20:6 21:6 22:6 23:19 24:19 25:19 26:19 27:19 28:19 29:13 30:13 31:13 32:13 33:13 34:13 35:15 36:15 37:15 38:15 39:15 40:15 41:16 42:16 43:16 44:15 45:15 46:15 47:17 48:17 49:17 50:17 51:17 52:17 
0.4912886642914697 1:0.5764906 2:0.036030662 3:0.036030662 4:0.036030662 5:0 6:0 7:0 8:4 9:0 10:0 11:0 12:0 13:0 14:7 15:0 16:0 17:0 18:0 19:0 20:13 21:0 22:0 23:0 24:0 25:0 26:15 27:0 28:0 29:0 30:0 31:0 32:16 33:0 34:0 35:0 36:0 37:0 38:12 39:0 40:0 41:0 42:0 43:2 44:12 45:2 46:2 47:0 48:0 49:3 50:3 51:3 52:3 
0.7124343196591149 1:0.045105761 2:0.0090211522 3:0.0090211522 4:0.0090211522 5:0 6:0 7:0 8:0 9:0 10:0 11:5 12:5 13:5 14:5 15:5 16:5 17:3 18:3 19:3 20:3 21:3 22:3 23:4 24:4 25:4 26:4 27:4 28:4 29:0 30:0 31:0 32:0 33:0 34:0 35:0 36:0 37:0 38:0 39:0 40:0 41:0 42:0 43:0 44:0 45:0 46:0 47:0 48:0 49:0 50:0 51:0 52:0 
0.7442949839167126 1:0.073511159 2:0.01225186 3:0.01225186 4:0.01225186 5:4 6:0 7:0 8:0 9:0 10:5 11:2 12:2 13:2 14:2 15:2 16:2 17:0 18:0 19:6 20:6 21:0 22:0 23:0 24:0 25:6 26:6 27:0 28:0 29:3 30:3 31:3 32:3 33:3 34:3 35:3 36:3 37:3 38:3 39:3 40:3 41:0 42:0 43:0 44:0 45:0 46:0 47:1 48:1 49:1 50:1 51:1 52:1 
0.2696057552535594 1:0.10306991 2:0.020613982 3:0.020613982 4:0.020613982 5:3 6:3 7:3 8:3 9:0 10:0 11:0 12:0 13:0 14:0 15:0 16:0 17:0 18:0 19:0 20:0 21:0 22:0 23:0 24:0 25:0 26:0 27:0 28:0 29:5 30:5 31:5 32:5 33:5 34:0 35:0 36:4 37:4 38:0 39:0 40:0 41:0 42:1 43:1 44:1 45:1 46:1 47:2 48:2 49:2 50:2 51:0 52:0 
0.4224778673506995 1:0.12042938 2:0.010948125 3:0.010948125 4:0.010948125 5:3 6:3 7:0 8:0 9:0 10:2 11:0 12:0 13:0 14:0 15:0 16:0 17:0 18:0 19:0 20:0 21:0 22:0 23:0 24:0 25:0 26:0 27:0 28:0 29:0 30:0 31:0 32:0 33:0 34:0 35:11 36:11 37:11 38:11 39:11 40:11 41:10 42:10 43:10 44:10 45:10 46:10 47:7 48:7 49:7 50:7 51:7 52:6 
0.4028559930441482 1:0.11058569 2:0.012287299 3:0.012287299 4:0.012287299 5:4 6:4 7:4 8:4 9:4 10:4 11:7 12:7 13:7 14:7 15:7 16:7 17:7 18:7 19:7 20:7 21:7 22:7 23:6 24:6 25:6 26:6 27:6 28:6 29:9 30:9 31:9 32:9 33:9 34:9 35:9 36:9 37:9 38:9 39:9 40:9 41:8 42:8 43:8 44:8 45:8 46:8 47:1 48:1 49:1 50:1 51:1 52:0 
0.2935840647774755 1:0.59595886 2:0.08513698 3:0.08513698 4:0.08513698 5:0 6:0 7:0 8:0 9:0 10:0 11:0 12:0 13:0 14:0 15:3 16:3 17:0 18:0 19:0 20:0 21:4 22:4 23:0 24:0 25:0 26:0 27:0 28:0 29:0 30:0 31:0 32:0 33:6 34:6 35:0 36:0 37:0 38:0 39:7 40:7 41:0 42:0 43:0 44:0 45:5 46:5 47:0 48:0 49:0 50:0 51:1 52:1 
0.3553115874351956 1:0.62070387 2:0.062070387 3:0.062070387 4:0.062070387 5:0 6:0 7:0 8:0 9:0 10:0 11:0 12:0 13:0 14:0 15:2 16:2 17:0 18:0 19:0 20:0 21:6 22:6 23:0 24:0 25:0 26:0 27:8 28:8 29:0 30:0 31:0 32:0 33:10 34:10 35:0 36:0 37:0 38:0 39:9 40:9 41:0 42:0 43:0 44:0 45:5 46:5 47:0 48:0 49:0 50:0 51:5 52:5 
0.01233097128690922 1:0.25761059 2:0.085870196 3:0.085870196 4:0.085870196 5:0 6:0 7:0 8:0 9:0 10:0 11:0 12:0 13:0 14:0 15:0 16:0 17:0 18:0 19:0 20:0 21:0 22:0 23:0 24:0 25:0 26:0 27:3 28:3 29:0 30:0 31:0 32:0 33:0 34:1 35:0 36:0 37:0 38:0 39:2 40:2 41:0 42:0 43:0 44:0 45:0 46:0 47:0 48:0 49:0 50:0 51:0 52:0 
0.07261727659495909 1:0.40265492 2:0.067109153 3:0.067109153 4:0.067109153 5:0 6:0 7:0 8:0 9:3 10:3 11:0 12:0 13:0 14:0 15:4 16:4 17:0 18:0 19:0 20:0 21:1 22:1 23:0 24:0 25:0 26:0 27:0 28:0 29:0 30:0 31:0 32:0 33:0 34:2 35:0 36:0 37:0 38:0 39:0 40:2 41:0 42:0 43:0 44:0 45:0 46:5 47:0 48:0 49:0 50:0 51:0 52:6 
0.3786892277390769 1:0.26541678 2:0.037916683 3:0.037916683 4:0.037916683 5:7 6:7 7:6 8:0 9:4 10:1 11:7 12:7 13:6 14:2 15:4 16:1 17:0 18:0 19:0 20:5 21:5 22:0 23:0 24:0 25:3 26:3 27:0 28:0 29:0 30:0 31:0 32:0 33:0 34:0 35:0 36:0 37:0 38:0 39:0 40:0 41:0 42:0 43:0 44:0 45:0 46:0 47:0 48:0 49:0 50:0 51:0 52:0 
0.4917234743846374 1:0.07429024 2:0.0057146339 3:0.0057146339 4:0.0057146339 5:0 6:0 7:0 8:0 9:0 10:0 11:0 12:0 13:0 14:0 15:0 16:0 17:0 18:0 19:0 20:0 21:0 22:0 23:0 24:0 25:0 26:0 27:9 28:9 29:10 30:10 31:10 32:0 33:9 34:9 35:11 36:11 37:11 38:11 39:11 40:11 41:0 42:0 43:0 44:0 45:12 46:12 47:1 48:3 49:4 50:5 51:6 52:13 
0.491832599345906 1:0.082800477 2:0.0055200318 3:0.0055200318 4:0.0055200318 5:3 6:1 7:6 8:13 9:0 10:0 11:14 12:14 13:14 14:14 15:14 16:14 17:0 18:10 19:10 20:10 21:10 22:10 23:0 24:12 25:12 26:12 27:12 28:12 29:0 30:11 31:11 32:11 33:11 34:11 35:0 36:9 37:9 38:9 39:9 40:9 41:0 42:8 43:8 44:8 45:8 46:8 47:0 48:8 49:8 50:8 51:8 52:15 
0.07098565228201394 1:0.40288585 2:0.080577171 3:0.080577171 4:0.080577171 5:0 6:0 7:0 8:0 9:0 10:0 11:4 12:2 13:1 14:1 15:1 16:0 17:4 18:0 19:0 20:0 21:0 22:0 23:0 24:0 25:0 26:0 27:0 28:0 29:0 30:0 31:0 32:0 33:0 34:0 35:5 36:0 37:0 38:0 39:0 40:0 41:0 42:0 43:0 44:0 45:0 46:0 47:0 48:0 49:0 50:0 51:0 52:0 
0.9688707436743722 1:0.02097795 2:0.003496325 3:0.003496325 4:0.003496325 5:0 6:0 7:0 8:0 9:0 10:0 11:0 12:0 13:0 14:0 15:0 16:0 17:0 18:0 19:0 20:0 21:0 22:0 23:5 24:5 25:5 26:6 27:6 28:6 29:0 30:0 31:0 32:0 33:0 34:0 35:1 36:1 37:1 38:3 39:3 40:3 41:0 42:0 43:0 44:0 45:0 46:0 47:2 48:2 49:2 50:4 51:4 52:4 
0.5248404904031089 1:0.09919381 2:0.019838762 3:0.019838762 4:0.019838762 5:0 6:0 7:0 8:0 9:0 10:0 11:0 12:0 13:0 14:0 15:0 16:0 17:0 18:0 19:0 20:0 21:0 22:0 23:0 24:0 25:0 26:0 27:0 28:0 29:0 30:0 31:0 32:0 33:0 34:0 35:0 36:0 37:0 38:0 39:0 40:0 41:5 42:5 43:5 44:5 45:5 46:5 47:1 48:1 49:1 50:1 51:2 52:1 
0.467095038980774 1:0.032451486 2:0.0054085811 3:0.0054085811 4:0.0054085811 5:0 6:0 7:0 8:0 9:0 10:5 11:0 12:0 13:0 14:0 15:0 16:0 17:0 18:2 19:2 20:2 21:2 22:0 23:0 24:2 25:2 26:2 27:2 28:0 29:0 30:4 31:4 32:4 33:4 34:0 35:0 36:4 37:4 38:4 39:4 40:0 41:0 42:3 43:3 44:3 45:3 46:6 47:0 48:0 49:0 50:0 51:0 52:6 
0.4922174515427678 1:0.095589672 2:0.0073530517 3:0.0073530517 4:0.0073530517 5:0 6:9 7:4 8:10 9:10 10:12 11:3 12:13 13:13 14:10 15:10 16:12 17:0 18:0 19:0 20:0 21:0 22:0 23:0 24:0 25:0 26:0 27:0 28:0 29:0 30:0 31:0 32:0 33:0 34:0 35:2 36:2 37:2 38:2 39:2 40:2 41:8 42:8 43:7 44:7 45:6 46:5 47:8 48:8 49:7 50:7 51:11 52:11 
0.06809353781785604 1:0.055727583 2:0.011145517 3:0.011145517 4:0.011145517 5:0 6:0 7:5 8:5 9:4 10:2 11:0 12:0 13:0 14:0 15:0 16:0 17:0 18:0 19:0 20:0 21:0 22:0 23:0 24:0 25:0 26:0 27:0 28:0 29:0 30:0 31:0 32:0 33:0 34:0 35:0 36:0 37:0 38:0 39:0 40:0 41:0 42:0 43:0 44:0 45:0 46:0 47:0 48:0 49:0 50:0 51:0 52:0 
0.2145174487733264 1:0.11134437 2:0.0079531695 3:0.0079531695 4:0.0079531695 5:0 6:0 7:0 8:0 9:0 10:0 11:0 12:0 13:0 14:0 15:0 16:0 17:2 18:2 19:2 20:2 21:2 22:2 23:5 24:5 25:5 26:5 27:5 28:5 29:6 30:6 31:6 32:6 33:6 34:6 35:9 36:9 37:9 38:9 39:9 40:9 41:13 42:13 43:13 44:13 45:13 46:13 47:12 48:12 49:12 50:14 51:14 52:12 
0.4915261345779893 1:0.3485744 2:0.024898171 3:0.024898171 4:0.024898171 5:1 6:1 7:0 8:0 9:0 10:0 11:0 12:0 13:0 14:0 15:0 16:0 17:0 18:4 19:4 20:5 21:5 22:0 23:0 24:4 25:4 26:6 27:6 28:0 29:0 30:3 31:14 32:14 33:6 34:0 35:13 36:13 37:13 38:13 39:0 40:0 41:12 42:12 43:11 44:0 45:0 46:0 47:0 48:0 49:0 50:0 51:0 52:0 
0.5086982464976024 1:0.23843952 2:0.03973992 3:0.03973992 4:0.03973992 5:0 6:5 7:5 8:2 9:4 10:4 11:0 12:5 13:5 14:2 15:2 16:0 17:0 18:0 19:0 20:0 21:0 22:0 23:0 24:0 25:0 26:0 27:0 28:0 29:0 30:0 31:0 32:0 33:0 34:0 35:0 36:0 37:0 38:3 39:3 40:3 41:0 42:0 43:0 44:1 45:1 46:6 47:0 48:0 49:0 50:0 51:0 52:6 
0.4198135748097386 1:0.0090721002 2:0.00075600835 3:0.00075600835 4:0.00075600835 5:12 6:11 7:11 8:11 9:11 10:11 11:6 12:6 13:6 14:6 15:6 16:6 17:8 18:8 19:8 20:8 21:8 22:8 23:10 24:10 25:10 26:10 27:10 28:10 29:9 30:9 31:9 32:9 33:9 34:9 35:4 36:4 37:4 38:4 39:4 40:4 41:2 42:2 43:2 44:2 45:2 46:2 47:0 48:0 49:0 50:0 51:0 52:0 
0.03808674937366088 1:0.058967408 2:0.019655803 3:0.019655803 4:0.019655803 5:3 6:3 7:3 8:3 9:3 10:3 11:0 12:0 13:0 14:0 15:0 16:0 17:2 18:2 19:2 20:2 21:2 22:2 23:0 24:0 25:0 26:0 27:1 28:1 29:0 30:0 31:0 32:0 33:0 34:0 35:0 36:0 37:0 38:0 39:0 40:0 41:0 42:0 43:0 44:0 45:0 46:0 47:0 48:0 49:0 50:0 51:0 52:0 
0.4917870666158911 1:0.14223711 2:0.006465323 3:0.006465323 4:0.006465323 5:0 6:0 7:0 8:0 9:18 10:18 11:0 12:21 13:21 14:22 15:22 16:21 17:0 18:0 19:19 20:19 21:19 22:0 23:20 24:20 25:16 26:16 27:17 28:17 29:8 30:9 31:10 32:10 33:11 34:11 35:12 36:13 37:14 38:14 39:15 40:15 41:7 42:7 43:6 44:4 45:4 46:3 47:2 48:2 49:2 50:5 51:5 52:5 
0.3514133091844442 1:0.061826626 2:0.0068696251 3:0.0068696251 4:0.0068696251 5:3 6:3 7:0 8:0 9:0 10:0 11:5 12:5 13:5 14:0 15:0 16:0 17:7 18:7 19:7 20:9 21:9 22:6 23:7 24:7 25:7 26:9 27:9 28:6 29:0 30:0 31:0 32:0 33:0 34:0 35:0 36:0 37:0 38:0 39:0 40:0 41:0 42:0 43:0 44:0 45:0 46:0 47:0 48:0 49:0 50:0 51:0 52:0 
0.491536834545205 1:0.029819198 2:0.0021299427 3:0.0021299427 4:0.0021299427 5:0 6:0 7:0 8:0 9:0 10:0 11:14 12:14 13:0 14:0 15:0 16:0 17:9 18:9 19:10 20:11 21:11 22:11 23:6 24:6 25:10 26:11 27:11 28:11 29:0 30:0 31:10 32:11 33:11 34:11 35:0 36:0 37:12 38:12 39:0 40:0 41:0 42:0 43:12 44:12 45:0 46:0 47:0 48:0 49:13 50:13 51:0 52:0 
0.5218826074688816 1:0.17806121 2:0.022257652 3:0.022257652 4:0.022257652 5:8 6:8 7:8 8:8 9:8 10:8 11:7 12:7 13:7 14:7 15:7 16:7 17:6 18:6 19:6 20:6 21:6 22:6 23:0 24:0 25:0 26:0 27:0 28:0 29:0 30:0 31:0 32:0 33:0 34:0 35:3 36:3 37:3 38:3 39:3 40:3 41:0 42:0 43:0 44:0 45:0 46:0 47:5 48:5 49:5 50:5 51:5 52:5 
0.4863216908475623 1:0.28804495 2:0.022157304 3:0.022157304 4:0.022157304 5:0 6:0 7:0 8:0 9:0 10:0 11:0 12:13 13:13 14:13 15:13 16:0 17:1 18:12 19:12 20:12 21:12 22:0 23:0 24:12 25:12 26:12 27:12 28:0 29:7 30:9 31:9 32:9 33:9 34:0 35:6 36:10 37:10 38:10 39:10 40:0 41:5 42:5 43:5 44:5 45:5 46:5 47:0 48:0 49:0 50:0 51:0 52:0 
0.3183042552380522 1:0.64141245 2:0.12828249 3:0.12828249 4:0.12828249 5:0 6:0 7:0 8:0 9:0 10:0 11:0 12:0 13:0 14:0 15:0 16:0 17:0 18:0 19:0 20:0 21:0 22:0 23:0 24:0 25:0 26:0 27:0 28:0 29:5 30:5 31:5 32:4 33:0 34:0 35:0 36:0 37:0 38:0 39:0 40:0 41:0 42:0 43:0 44:0 45:0 46:0 47:0 48:0 49:0 50:0 51:0 52:0 
0.3881351582433525 1:0.57476676 2:0.11495335 3:0.11495335 4:0.11495335 5:0 6:0 7:0 8:0 9:0 10:0 11:0 12:0 13:0 14:0 15:0 16:0 17:0 18:0 19:0 20:0 21:0 22:0 23:0 24:0 25:0 26:0 27:0 28:0 29:3 30:3 31:3 32:3 33:0 34:0 35:0 36:0 37:0 38:0 39:0 40:0 41:5 42:5 43:5 44:5 45:5 46:5 47:0 48:0 49:0 50:0 51:0 52:0 
0.4906359822451044 1:0.1696594 2:0.012118528 3:0.012118528 4:0.012118528 5:13 6:13 7:13 8:0 9:14 10:14 11:0 12:0 13:0 14:0 15:14 16:14 17:0 18:0 19:0 20:0 21:12 22:12 23:0 24:0 25:0 26:0 27:11 28:11 29:0 30:0 31:0 32:0 33:9 34:9 35:0 36:0 37:0 38:0 39:7 40:7 41:0 42:0 43:0 44:0 45:5 46:5 47:0 48:0 49:0 50:0 51:2 52:2 
