svm_type c_svc
kernel_type rbf
gamma 0.0192308
nr_class 2
total_sv 431
rho 0.406426
label 1 -1
nr_sv 276 155
SV
1 1:0.33787889 2:0.1126263 3:0.1126263 4:0.1126263 5:1 6:1 7:1 8:1 9:1 10:1 11:1 12:1 13:1 14:1 15:1 16:1 17:1 18:1 19:1 20:1 21:1 22:1 23:1 24:1 25:1 26:1 27:1 28:1 29:1 30:1 31:1 32:1 33:1 34:1 35:1 36:1 37:1 38:1 39:1 40:1 41:1 42:1 43:1 44:1 45:1 46:1 47:1 48:1 49:1 50:1 51:1 52:1 
1 1:0.15985819 2:0.053286063 3:0.053286063 4:0.053286063 5:1 6:1 7:1 8:1 9:1 10:1 11:0 12:0 13:0 14:0 15:0 16:0 17:0 18:0 19:0 20:0 21:0 22:0 23:0 24:0 25:1 26:1 27:0 28:0 29:0 30:0 31:1 32:1 33:0 34:0 35:0 36:0 37:0 38:0 39:0 40:0 41:0 42:0 43:0 44:0 45:0 46:0 47:1 48:1 49:1 50:1 51:1 52:1 
0.2760543046535509 1:0.44801944 2:0.14933981 3:0.14933981 4:0.14933981 5:0 6:0 7:0 8:0 9:0 10:0 11:0 12:0 13:0 14:0 15:0 16:0 17:0 18:1 19:1 20:1 21:1 22:0 23:0 24:1 25:1 26:1 27:1 28:0 29:0 30:0 31:1 32:1 33:0 34:0 35:0 36:0 37:0 38:0 39:0 40:0 41:0 42:0 43:0 44:0 45:0 46:0 47:0 48:0 49:0 50:0 51:0 52:0 
1 1:0.28030739 2:0.093435796 3:0.093435796 4:0.093435796 5:0 6:0 7:0 8:0 9:0 10:0 11:0 12:0 13:0 14:0 15:0 16:0 17:0 18:0 19:0 20:0 21:0 22:0 23:0 24:0 25:0 26:0 27:0 28:0 29:1 30:1 31:1 32:1 33:1 34:1 35:0 36:0 37:0 38:0 39:0 40:0 41:0 42:0 43:0 44:0 45:0 46:0 47:1 48:1 49:1 50:1 51:1 52:1 
0.06934505431909631 1:0.15110166 2:0.050367221 3:0.050367221 4:0.050367221 5:0 6:0 7:0 8:0 9:0 10:0 11:1 12:1 13:0 14:0 15:0 16:0 17:0 18:0 19:0 20:0 21:0 22:0 23:1 24:1 25:0 26:0 27:0 28:0 29:0 30:0 31:0 32:0 33:0 34:0 35:0 36:0 37:0 38:0 39:0 40:0 41:0 42:0 43:0 44:0 45:0 46:0 47:1 48:1 49:1 50:1 51:1 52:1 
0.1470499531043533 1:0.1573479 2:0.0524493 3:0.0524493 4:0.0524493 5:0 6:0 7:0 8:0 9:0 10:1 11:0 12:0 13:0 14:0 15:0 16:0 17:1 18:1 19:1 20:1 21:1 22:0 23:1 24:1 25:1 26:1 27:1 28:1 29:1 30:1 31:1 32:1 33:1 34:1 35:1 36:1 37:1 38:1 39:1 40:1 41:0 42:0 43:0 44:0 45:0 46:0 47:0 48:0 49:0 50:0 51:0 52:0 
1 1:0.1328812 2:0.044293735 3:0.044293735 4:0.044293735 5:1 6:1 7:1 8:1 9:1 10:1 11:1 12:1 13:1 14:1 15:1 16:1 17:0 18:0 19:0 20:0 21:0 22:0 23:0 24:0 25:0 26:0 27:0 28:0 29:0 30:0 31:0 32:0 33:0 34:0 35:0 36:0 37:0 38:0 39:0 40:0 41:0 42:0 43:0 44:0 45:0 46:0 47:0 48:1 49:1 50:1 51:1 52:0 
0.2178628507761801 1:0.069930935 2:0.017482734 3:0.017482734 4:0.017482734 5:1 6:1 7:0 8:0 9:0 10:0 11:1 12:1 13:1 14:1 15:1 16:1 17:1 18:1 19:1 20:1 21:1 22:1 23:0 24:1 25:1 26:1 27:1 28:0 29:0 30:1 31:1 32:1 33:1 34:0 35:0 36:0 37:0 38:0 39:0 40:0 41:0 42:0 43:0 44:0 45:0 46:0 47:0 48:0 49:0 50:0 51:0 52:0 
0.4918132329718721 1:0.022236766 2:0.0074122552 3:0.0074122552 4:0.0074122552 5:1 6:1 7:1 8:1 9:1 10:1 11:1 12:1 13:1 14:1 15:1 16:1 17:0 18:0 19:0 20:0 21:0 22:0 23:0 24:0 25:0 26:0 27:0 28:0 29:1 30:1 31:1 32:1 33:1 34:1 35:0 36:0 37:0 38:0 39:0 40:0 41:0 42:0 43:0 44:0 45:0 46:0 47:0 48:0 49:0 50:0 51:0 52:0 
0.4911381951391605 1:0.025259051 2:0.0031573814 3:0.0031573814 4:0.0031573814 5:1 6:1 7:1 8:1 9:1 10:1 11:1 12:1 13:1 14:1 15:1 16:1 17:0 18:0 19:0 20:0 21:0 22:0 23:0 24:0 25:0 26:0 27:0 28:0 29:0 30:0 31:0 32:0 33:0 34:0 35:1 36:1 37:1 38:1 39:1 40:1 41:0 42:0 43:0 44:0 45:0 46:0 47:0 48:1 49:1 50:1 51:1 52:1 
0.3996620858190818 1:0.058967408 2:0.019655803 3:0.019655803 4:0.019655803 5:1 6:1 7:1 8:1 9:1 10:1 11:0 12:0 13:0 14:0 15:0 16:0 17:1 18:1 19:1 20:1 21:1 22:1 23:0 24:0 25:0 26:0 27:1 28:1 29:0 30:0 31:0 32:0 33:0 34:0 35:0 36:0 37:0 38:0 39:0 40:0 41:0 42:0 43:0 44:0 45:0 46:0 47:0 48:0 49:0 50:0 51:0 52:0 
0.5845686558454186 1:0.10368082 2:0.034560272 3:0.034560272 4:0.034560272 5:1 6:1 7:1 8:1 9:1 10:1 11:1 12:1 13:1 14:1 15:1 16:1 17:0 18:0 19:0 20:0 21:0 22:0 23:0 24:0 25:0 26:0 27:0 28:0 29:1 30:1 31:1 32:1 33:1 34:1 35:1 36:1 37:1 38:1 39:1 40:1 41:1 42:1 43:1 44:1 45:1 46:1 47:1 48:1 49:1 50:1 51:1 52:1 
0.1116772103843001 1:0.48542363 2:0.16180788 3:0.16180788 4:0.16180788 5:0 6:0 7:0 8:0 9:0 10:0 11:0 12:0 13:0 14:0 15:0 16:0 17:0 18:0 19:0 20:0 21:0 22:0 23:1 24:1 25:1 26:1 27:0 28:0 29:1 30:1 31:1 32:1 33:0 34:0 35:0 36:0 37:0 38:0 39:0 40:0 41:0 42:0 43:0 44:0 45:0 46:0 47:0 48:0 49:0 50:0 51:0 52:0 
1 1:0.52390809 2:0.17463603 3:0.17463603 4:0.17463603 5:0 6:0 7:0 8:0 9:0 10:0 11:0 12:0 13:0 14:0 15:0 16:0 17:0 18:0 19:0 20:0 21:0 22:0 23:1 24:1 25:1 26:1 27:0 28:0 29:1 30:1 31:1 32:1 33:0 34:0 35:0 36:0 37:0 38:0 39:0 40:0 41:0 42:0 43:0 44:0 45:0 46:0 47:0 48:0 49:0 50:0 51:0 52:0 
0.4749488266515813 1:0.092268947 2:0.030756316 3:0.030756316 4:0.030756316 5:1 6:1 7:1 8:1 9:1 10:1 11:0 12:0 13:0 14:0 15:0 16:0 17:0 18:0 19:0 20:0 21:0 22:0 23:1 24:1 25:1 26:1 27:1 28:1 29:1 30:1 31:1 32:1 33:1 34:1 35:0 36:0 37:0 38:0 39:0 40:0 41:1 42:1 43:1 44:1 45:1 46:1 47:1 48:1 49:1 50:1 51:1 52:1 
0.218099554400412 1:0.047349203 2:0.015783068 3:0.015783068 4:0.015783068 5:0 6:0 7:0 8:0 9:0 10:0 11:1 12:1 13:1 14:1 15:1 16:1 17:0 18:0 19:0 20:0 21:0 22:0 23:0 24:0 25:0 26:1 27:1 28:1 29:0 30:0 31:0 32:0 33:0 34:0 35:0 36:0 37:0 38:0 39:0 40:0 41:0 42:0 43:0 44:0 45:0 46:0 47:1 48:1 49:1 50:1 51:1 52:1 
0.1441159526193926 1:0.14948928 2:0.037372319 3:0.037372319 4:0.037372319 5:1 6:1 7:0 8:0 9:0 10:0 11:0 12:0 13:0 14:0 15:0 16:0 17:0 18:0 19:0 20:0 21:0 22:0 23:1 24:1 25:1 26:1 27:1 28:1 29:1 30:1 31:1 32:1 33:1 34:1 35:0 36:0 37:0 38:0 39:0 40:0 41:0 42:0 43:0 44:0 45:0 46:0 47:1 48:1 49:1 50:1 51:1 52:1 
0.8868631908257246 1:0.49040779 2:0.16346926 3:0.16346926 4:0.16346926 5:1 6:1 7:0 8:0 9:0 10:0 11:0 12:1 13:1 14:0 15:0 16:0 17:1 18:1 19:1 20:0 21:0 22:0 23:0 24:0 25:0 26:0 27:0 28:0 29:0 30:0 31:0 32:0 33:0 34:0 35:0 36:0 37:0 38:0 39:0 40:0 41:0 42:0 43:0 44:0 45:0 46:0 47:0 48:0 49:0 50:0 51:0 52:0 
0.4928281212486819 1:0.24266061 2:0.060665152 3:0.060665152 4:0.060665152 5:0 6:0 7:0 8:0 9:0 10:0 11:0 12:0 13:0 14:0 15:0 16:0 17:1 18:1 19:1 20:1 21:1 22:1 23:0 24:0 25:0 26:0 27:0 28:0 29:0 30:0 31:0 32:0 33:0 34:0 35:0 36:0 37:0 38:1 39:1 40:0 41:1 42:1 43:1 44:1 45:0 46:0 47:1 48:1 49:1 50:1 51:0 52:0 
0.3312381261258265 1:0.1331958 2:0.044398601 3:0.044398601 4:0.044398601 5:1 6:1 7:1 8:0 9:0 10:0 11:1 12:1 13:1 14:0 15:0 16:0 17:1 18:1 19:1 20:1 21:1 22:1 23:0 24:0 25:0 26:0 27:0 28:0 29:0 30:0 31:0 32:0 33:0 34:0 35:0 36:0 37:0 38:0 39:0 40:0 41:0 42:0 43:0 44:0 45:0 46:0 47:1 48:1 49:1 50:1 51:1 52:0 
0.1233816650501882 1:0.024615407 2:0.0024615407 3:0.0024615407 4:0.0024615407 5:1 6:0 7:0 8:0 9:0 10:0 11:1 12:1 13:1 14:0 15:0 16:0 17:1 18:1 19:1 20:0 21:0 22:0 23:1 24:1 25:1 26:0 27:0 28:0 29:1 30:1 31:1 32:0 33:0 34:1 35:1 36:1 37:1 38:0 39:0 40:1 41:1 42:1 43:1 44:0 45:0 46:1 47:0 48:0 49:0 50:0 51:0 52:1 
0.9262962219160524 1:0.18289976 2:0.060966588 3:0.060966588 4:0.060966588 5:1 6:1 7:1 8:1 9:0 10:0 11:0 12:0 13:0 14:0 15:0 16:0 17:1 18:1 19:1 20:0 21:0 22:0 23:0 24:0 25:0 26:0 27:0 28:0 29:1 30:1 31:1 32:1 33:1 34:1 35:0 36:0 37:0 38:0 39:0 40:0 41:0 42:0 43:0 44:0 45:0 46:0 47:0 48:0 49:0 50:0 51:0 52:0 
1 1:0.11121064 2:0.037070214 3:0.037070214 4:0.037070214 5:0 6:0 7:0 8:0 9:0 10:0 11:1 12:1 13:1 14:1 15:1 16:1 17:1 18:1 19:1 20:1 21:1 22:1 23:1 24:1 25:1 26:1 27:1 28:1 29:1 30:1 31:1 32:1 33:1 34:1 35:1 36:1 37:1 38:1 39:1 40:1 41:0 42:1 43:1 44:1 45:1 46:1 47:0 48:1 49:1 50:1 51:1 52:1 
0.409814133240583 1:0.030250551 2:0.010083517 3:0.010083517 4:0.010083517 5:0 6:0 7:0 8:0 9:0 10:0 11:0 12:0 13:0 14:0 15:0 16:0 17:1 18:1 19:1 20:1 21:1 22:1 23:1 24:1 25:1 26:1 27:1 28:1 29:0 30:0 31:0 32:0 33:0 34:0 35:0 36:0 37:0 38:0 39:0 40:0 41:0 42:1 43:1 44:1 45:1 46:0 47:0 48:1 49:1 50:1 51:1 52:0 
1 1:0.53958043 2:0.17986014 3:0.17986014 4:0.17986014 5:1 6:1 7:1 8:1 9:1 10:1 11:1 12:1 13:0 14:0 15:0 16:0 17:0 18:0 19:0 20:0 21:0 22:0 23:0 24:0 25:0 26:0 27:0 28:0 29:0 30:0 31:0 32:0 33:0 34:0 35:0 36:0 37:0 38:0 39:0 40:0 41:0 42:0 43:0 44:0 45:0 46:0 47:0 48:0 49:0 50:0 51:0 52:0 
0.5920159456413369 1:0.31801568 2:0.10600523 3:0.10600523 4:0.10600523 5:1 6:1 7:1 8:1 9:1 10:1 11:1 12:1 13:1 14:1 15:1 16:1 17:1 18:1 19:1 20:1 21:1 22:1 23:1 24:1 25:1 26:1 27:1 28:1 29:1 30:1 31:1 32:1 33:1 34:1 35:1 36:1 37:1 38:1 39:1 40:1 41:0 42:0 43:0 44:0 45:0 46:0 47:0 48:0 49:0 50:0 51:0 52:0 
0.03549602909977521 1:0.31376881 2:0.1045896 3:0.1045896 4:0.1045896 5:0 6:0 7:0 8:0 9:0 10:0 11:0 12:0 13:0 14:0 15:0 16:0 17:1 18:1 19:1 20:0 21:0 22:0 23:0 24:0 25:0 26:0 27:0 28:0 29:0 30:0 31:0 32:0 33:0 34:0 35:0 36:0 37:0 38:0 39:0 40:0 41:1 42:1 43:1 44:0 45:0 46:0 47:1 48:1 49:1 50:0 51:0 52:0 
1 1:0.44418793 2:0.14806264 3:0.14806264 4:0.14806264 5:1 6:1 7:0 8:0 9:0 10:0 11:1 12:1 13:1 14:0 15:0 16:0 17:1 18:1 19:1 20:0 21:0 22:0 23:0 24:0 25:0 26:0 27:0 28:0 29:0 30:0 31:0 32:0 33:0 34:0 35:0 36:0 37:0 38:0 39:0 40:0 41:0 42:0 43:0 44:0 45:0 46:0 47:0 48:0 49:0 50:0 51:0 52:0 
0.05012370203975791 1:0.28139787 2:0.093799289 3:0.093799289 4:0.093799289 5:0 6:0 7:0 8:0 9:0 10:0 11:1 12:1 13:1 14:1 15:1 16:1 17:0 18:0 19:0 20:0 21:0 22:0 23:0 24:0 25:0 26:0 27:0 28:0 29:0 30:0 31:0 32:0 33:0 34:0 35:1 36:1 37:1 38:1 39:1 40:1 41:1 42:1 43:1 44:1 45:1 46:1 47:0 48:0 49:0 50:0 51:0 52:0 
0.3091407943089191 1:0.22375981 2:0.074586605 3:0.074586605 4:0.074586605 5:0 6:1 7:1 8:1 9:0 10:0 11:0 12:1 13:1 14:1 15:1 16:1 17:0 18:0 19:0 20:0 21:0 22:0 23:0 24:0 25:0 26:0 27:0 28:0 29:0 30:0 31:0 32:0 33:0 34:0 35:0 36:0 37:0 38:0 39:0 40:0 41:0 42:0 43:0 44:0 45:0 46:0 47:1 48:1 49:1 50:1 51:1 52:1 
0.1826276208314455 1:0.059603014 2:0.019867671 3:0.019867671 4:0.019867671 5:0 6:0 7:0 8:0 9:0 10:0 11:0 12:0 13:0 14:0 15:0 16:0 17:1 18:0 19:0 20:0 21:0 22:0 23:0 24:0 25:0 26:0 27:0 28:0 29:0 30:0 31:0 32:0 33:0 34:0 35:0 36:0 37:0 38:0 39:0 40:0 41:1 42:1 43:1 44:1 45:1 46:1 47:1 48:1 49:1 50:1 51:1 52:1 
0.4437306934873032 1:0.5992949 2:0.19976497 3:0.19976497 4:0.19976497 5:0 6:0 7:1 8:1 9:0 10:1 11:0 12:0 13:0 14:0 15:0 16:0 17:0 18:0 19:0 20:0 21:0 22:0 23:0 24:0 25:0 26:0 27:0 28:0 29:0 30:0 31:0 32:0 33:0 34:0 35:0 36:0 37:0 38:0 39:0 40:0 41:0 42:0 43:1 44:1 45:0 46:0 47:0 48:0 49:0 50:0 51:0 52:0 
0.6465270391028632 1:0.13877455 2:0.034693637 3:0.034693637 4:0.034693637 5:0 6:0 7:0 8:0 9:0 10:0 11:1 12:1 13:1 14:1 15:0 16:0 17:1 18:1 19:1 20:1 21:0 22:0 23:0 24:0 25:0 26:0 27:0 28:0 29:1 30:1 31:1 32:1 33:1 34:1 35:1 36:1 37:1 38:1 39:1 40:1 41:1 42:1 43:1 44:1 45:1 46:1 47:1 48:1 49:1 50:1 51:1 52:1 
0.7071414831363105 1:0.55582022 2:0.18527341 3:0.18527341 4:0.18527341 5:1 6:0 7:0 8:1 9:0 10:0 11:1 12:1 13:0 14:1 15:0 16:0 17:0 18:0 19:0 20:0 21:0 22:0 23:0 24:0 25:0 26:0 27:0 28:0 29:0 30:0 31:0 32:0 33:0 34:0 35:0 36:0 37:0 38:0 39:0 40:0 41:0 42:0 43:0 44:0 45:0 46:0 47:0 48:0 49:0 50:0 51:0 52:0 
0.1028850468181716 1:0.076183895 2:0.025394632 3:0.025394632 4:0.025394632 5:0 6:0 7:0 8:0 9:0 10:0 11:0 12:0 13:0 14:0 15:0 16:0 17:1 18:1 19:1 20:1 21:1 22:1 23:0 24:0 25:0 26:0 27:0 28:0 29:0 30:0 31:0 32:0 33:0 34:0 35:1 36:1 37:1 38:1 39:1 40:1 41:0 42:0 43:0 44:0 45:0 46:0 47:1 48:1 49:1 50:1 51:1 52:1 
0.6031503937126139 1:0.023387828 2:0.0058469569 3:0.0058469569 4:0.0058469569 5:0 6:0 7:0 8:0 9:0 10:0 11:1 12:1 13:1 14:1 15:1 16:1 17:0 18:0 19:0 20:0 21:0 22:0 23:0 24:0 25:0 26:0 27:0 28:0 29:1 30:1 31:1 32:1 33:1 34:1 35:0 36:0 37:0 38:0 39:0 40:0 41:0 42:0 43:0 44:0 45:0 46:0 47:0 48:0 49:0 50:0 51:0 52:1 
0.3942284770550987 1:0.033226014 2:0.005537669 3:0.005537669 4:0.005537669 5:1 6:1 7:1 8:1 9:1 10:1 11:1 12:1 13:1 14:1 15:1 16:1 17:0 18:0 19:1 20:1 21:0 22:0 23:0 24:0 25:0 26:0 27:0 28:0 29:0 30:0 31:1 32:1 33:0 34:0 35:0 36:0 37:0 38:0 39:0 40:0 41:0 42:0 43:1 44:1 45:0 46:0 47:0 48:0 49:0 50:0 51:0 52:0 
0.8721477388488976 1:0.35164569 2:0.11721523 3:0.11721523 4:0.11721523 5:1 6:1 7:1 8:1 9:1 10:1 11:1 12:1 13:1 14:1 15:1 16:1 17:0 18:1 19:1 20:1 21:1 22:0 23:0 24:0 25:0 26:0 27:0 28:0 29:0 30:0 31:0 32:0 33:0 34:0 35:0 36:0 37:0 38:0 39:0 40:0 41:0 42:0 43:0 44:0 45:0 46:0 47:0 48:0 49:0 50:0 51:0 52:0 
0.2027317983522859 1:0.016662543 2:0.0055541809 3:0.0055541809 4:0.0055541809 5:0 6:0 7:0 8:0 9:0 10:0 11:0 12:0 13:0 14:0 15:0 16:0 17:0 18:0 19:0 20:0 21:0 22:0 23:1 24:1 25:1 26:1 27:1 28:1 29:0 30:0 31:0 32:0 33:0 34:0 35:0 36:0 37:0 38:0 39:0 40:0 41:0 42:0 43:0 44:0 45:0 46:0 47:1 48:1 49:1 50:1 51:1 52:1 
0.1622740162116297 1:0.054389142 2:0.0045324285 3:0.0045324285 4:0.0045324285 5:1 6:1 7:0 8:0 9:0 10:1 11:1 12:1 13:1 14:1 15:0 16:1 17:0 18:0 19:0 20:1 21:1 22:1 23:0 24:0 25:0 26:0 27:1 28:1 29:0 30:0 31:0 32:1 33:1 34:1 35:0 36:0 37:1 38:1 39:1 40:0 41:1 42:1 43:1 44:1 45:0 46:0 47:1 48:1 49:1 50:1 51:1 52:1 
0.31539219758587 1:0.15370966 2:0.051236552 3:0.051236552 4:0.051236552 5:1 6:1 7:0 8:1 9:1 10:1 11:1 12:1 13:0 14:1 15:1 16:1 17:0 18:0 19:0 20:0 21:0 22:0 23:0 24:0 25:0 26:0 27:0 28:0 29:0 30:0 31:1 32:1 33:0 34:0 35:0 36:0 37:0 38:0 39:0 40:0 41:0 42:0 43:0 44:0 45:0 46:0 47:0 48:0 49:0 50:0 51:0 52:0 
0.2122756349742943 1:0.039309514 2:0.0035735922 3:0.0035735922 4:0.0035735922 5:1 6:1 7:1 8:0 9:0 10:0 11:1 12:1 13:1 14:0 15:1 16:1 17:1 18:1 19:1 20:0 21:0 22:0 23:1 24:1 25:1 26:1 27:1 28:1 29:0 30:0 31:1 32:1 33:0 34:0 35:0 36:0 37:0 38:0 39:0 40:0 41:0 42:0 43:0 44:0 45:0 46:0 47:0 48:0 49:0 50:0 51:0 52:0 
1 1:0.15643047 2:0.05214349 3:0.05214349 4:0.05214349 5:1 6:1 7:1 8:1 9:1 10:1 11:1 12:1 13:1 14:1 15:1 16:1 17:0 18:0 19:0 20:0 21:0 22:0 23:0 24:0 25:0 26:0 27:0 28:0 29:0 30:0 31:0 32:0 33:0 34:0 35:0 36:0 37:0 38:0 39:0 40:0 41:0 42:0 43:0 44:0 45:0 46:0 47:1 48:1 49:1 50:1 51:1 52:1 
1 1:0.40347325 2:0.13449108 3:0.13449108 4:0.13449108 5:0 6:0 7:0 8:0 9:0 10:0 11:1 12:1 13:1 14:1 15:1 16:1 17:0 18:0 19:0 20:0 21:0 22:0 23:0 24:0 25:0 26:0 27:0 28:0 29:0 30:0 31:0 32:0 33:0 34:0 35:1 36:1 37:1 38:1 39:1 40:1 41:1 42:1 43:1 44:1 45:1 46:1 47:0 48:0 49:0 50:0 51:0 52:0 
0.2187808417743197 1:0.036153206 2:0.012051069 3:0.012051069 4:0.012051069 5:0 6:0 7:0 8:0 9:0 10:0 11:0 12:0 13:0 14:0 15:0 16:0 17:0 18:1 19:1 20:1 21:1 22:1 23:0 24:1 25:1 26:1 27:1 28:1 29:0 30:0 31:0 32:0 33:0 34:0 35:0 36:0 37:0 38:0 39:0 40:0 41:0 42:1 43:1 44:1 45:1 46:1 47:0 48:1 49:1 50:1 51:1 52:1 
0.315285431380909 1:0.25961309 2:0.086537696 3:0.086537696 4:0.086537696 5:1 6:1 7:0 8:0 9:0 10:0 11:1 12:1 13:0 14:0 15:0 16:0 17:0 18:0 19:0 20:0 21:0 22:0 23:0 24:0 25:0 26:0 27:0 28:0 29:1 30:0 31:0 32:0 33:0 34:0 35:0 36:0 37:0 38:0 39:0 40:0 41:0 42:0 43:0 44:0 45:0 46:0 47:0 48:1 49:1 50:1 51:1 52:0 
0.8092612611772193 1:0.071556449 2:0.02385215 3:0.02385215 4:0.02385215 5:0 6:0 7:0 8:0 9:0 10:0 11:0 12:0 13:0 14:0 15:0 16:0 17:0 18:0 19:0 20:0 21:0 22:0 23:1 24:1 25:1 26:1 27:1 28:1 29:1 30:1 31:1 32:1 33:1 34:1 35:0 36:0 37:0 38:0 39:0 40:0 41:0 42:0 43:0 44:0 45:0 46:0 47:1 48:1 49:1 50:1 51:1 52:1 
1 1:0.33721874 2:0.11240625 3:0.11240625 4:0.11240625 5:1 6:1 7:1 8:1 9:1 10:1 11:1 12:1 13:1 14:1 15:1 16:1 17:1 18:1 19:1 20:1 21:1 22:1 23:1 24:1 25:1 26:1 27:1 28:1 29:1 30:1 31:1 32:1 33:1 34:1 35:1 36:1 37:1 38:1 39:1 40:1 41:1 42:1 43:1 44:1 45:1 46:1 47:0 48:0 49:0 50:0 51:0 52:0 
0.8763183565140337 1:0.45331921 2:0.1511064 3:0.1511064 4:0.1511064 5:0 6:0 7:0 8:0 9:0 10:0 11:0 12:0 13:0 14:0 15:0 16:0 17:1 18:1 19:1 20:1 21:1 22:1 23:1 24:1 25:1 26:1 27:1 28:1 29:0 30:0 31:0 32:0 33:0 34:0 35:0 36:0 37:0 38:0 39:0 40:0 41:0 42:0 43:0 44:0 45:0 46:0 47:0 48:0 49:0 50:0 51:0 52:0 
0.7193009153196405 1:0.14124532 2:0.047081774 3:0.047081774 4:0.047081774 5:0 6:0 7:0 8:0 9:0 10:0 11:1 12:1 13:1 14:1 15:0 16:0 17:1 18:1 19:1 20:1 21:0 22:0 23:0 24:0 25:0 26:0 27:0 28:0 29:0 30:0 31:0 32:0 33:0 34:0 35:0 36:0 37:0 38:0 39:0 40:0 41:0 42:0 43:0 44:0 45:0 46:0 47:1 48:1 49:1 50:1 51:1 52:1 
0.1785794367299945 1:0.081302534 2:0.010162817 3:0.010162817 4:0.010162817 5:1 6:1 7:0 8:0 9:1 10:1 11:1 12:1 13:0 14:0 15:1 16:1 17:0 18:0 19:0 20:0 21:0 22:0 23:0 24:0 25:0 26:0 27:0 28:0 29:1 30:1 31:1 32:1 33:1 34:1 35:0 36:0 37:0 38:0 39:0 40:0 41:0 42:0 43:0 44:0 45:0 46:0 47:1 48:1 49:1 50:1 51:1 52:1 
0.2902092267765051 1:0.26868087 2:0.089560291 3:0.089560291 4:0.089560291 5:0 6:0 7:0 8:0 9:0 10:0 11:0 12:0 13:0 14:0 15:0 16:0 17:0 18:0 19:0 20:0 21:0 22:0 23:1 24:1 25:1 26:0 27:0 28:0 29:1 30:1 31:1 32:0 33:0 34:0 35:1 36:1 37:1 38:0 39:0 40:0 41:1 42:1 43:1 44:0 45:0 46:0 47:0 48:0 49:0 50:0 51:0 52:1 
0.09906945951258075 1:0.013762295 2:0.0027524591 3:0.0027524591 4:0.0027524591 5:0 6:0 7:0 8:0 9:0 10:0 11:1 12:1 13:1 14:1 15:1 16:1 17:1 18:1 19:1 20:1 21:1 22:0 23:0 24:1 25:1 26:1 27:1 28:0 29:0 30:1 31:1 32:1 33:1 34:0 35:0 36:1 37:1 38:1 39:1 40:0 41:0 42:1 43:1 44:1 45:1 46:0 47:0 48:1 49:1 50:1 51:1 52:0 
1 1:0.50701959 2:0.16900653 3:0.16900653 4:0.16900653 5:0 6:0 7:0 8:1 9:1 10:0 11:0 12:0 13:0 14:0 15:0 16:0 17:0 18:0 19:0 20:0 21:0 22:0 23:0 24:0 25:0 26:1 27:1 28:1 29:0 30:0 31:0 32:1 33:1 34:1 35:0 36:0 37:0 38:0 39:0 40:0 41:0 42:0 43:0 44:0 45:0 46:0 47:0 48:0 49:0 50:1 51:1 52:1 
0.3070592172555967 1:0.30293933 2:0.10097978 3:0.10097978 4:0.10097978 5:1 6:1 7:1 8:1 9:1 10:1 11:1 12:1 13:1 14:1 15:1 16:1 17:1 18:1 19:1 20:1 21:1 22:1 23:1 24:1 25:1 26:1 27:1 28:1 29:1 30:1 31:1 32:1 33:1 34:1 35:1 36:1 37:0 38:0 39:0 40:0 41:1 42:1 43:0 44:0 45:0 46:0 47:0 48:0 49:0 50:0 51:0 52:0 
0.09825236564375629 1:0.1650419 2:0.015003809 3:0.015003809 4:0.015003809 5:1 6:1 7:1 8:1 9:1 10:1 11:1 12:1 13:1 14:1 15:1 16:1 17:0 18:0 19:0 20:0 21:0 22:0 23:1 24:1 25:1 26:1 27:0 28:0 29:0 30:0 31:0 32:0 33:0 34:0 35:0 36:0 37:0 38:0 39:1 40:1 41:0 42:0 43:0 44:0 45:1 46:1 47:0 48:0 49:0 50:1 51:1 52:1 
0.2618611105807588 1:0.080739757 2:0.016147951 3:0.016147951 4:0.016147951 5:1 6:1 7:1 8:0 9:0 10:0 11:1 12:1 13:1 14:1 15:1 16:1 17:1 18:1 19:1 20:0 21:0 22:0 23:1 24:1 25:1 26:1 27:1 28:1 29:0 30:0 31:0 32:0 33:0 34:0 35:0 36:0 37:0 38:0 39:0 40:0 41:1 42:1 43:1 44:1 45:1 46:1 47:1 48:1 49:1 50:1 51:1 52:1 
0.1248641246036941 1:0.0073159106 2:0.0012193184 3:0.0012193184 4:0.0012193184 5:1 6:1 7:1 8:1 9:0 10:1 11:1 12:1 13:1 14:1 15:1 16:1 17:0 18:0 19:1 20:1 21:1 22:1 23:0 24:0 25:0 26:0 27:0 28:0 29:0 30:0 31:0 32:0 33:0 34:0 35:0 36:0 37:0 38:0 39:0 40:0 41:0 42:0 43:0 44:0 45:0 46:0 47:0 48:0 49:0 50:0 51:0 52:0 
0.2521898969706381 1:0.051671866 2:0.0064589832 3:0.0064589832 4:0.0064589832 5:0 6:0 7:0 8:0 9:0 10:0 11:1 12:1 13:1 14:1 15:1 16:1 17:1 18:1 19:1 20:1 21:1 22:1 23:0 24:0 25:0 26:0 27:0 28:0 29:1 30:1 31:1 32:1 33:1 34:1 35:1 36:1 37:1 38:1 39:1 40:1 41:0 42:0 43:0 44:0 45:0 46:0 47:1 48:1 49:1 50:1 51:0 52:0 
0.6451670148704383 1:0.12845553 2:0.04281851 3:0.04281851 4:0.04281851 5:1 6:1 7:0 8:0 9:0 10:0 11:1 12:1 13:1 14:1 15:1 16:1 17:1 18:1 19:1 20:1 21:1 22:1 23:0 24:0 25:0 26:0 27:0 28:0 29:0 30:0 31:0 32:0 33:0 34:0 35:0 36:0 37:0 38:0 39:0 40:0 41:0 42:0 43:0 44:0 45:0 46:0 47:0 48:1 49:1 50:1 51:1 52:0 
0.5343023607584388 1:0.21015667 2:0.070052223 3:0.070052223 4:0.070052223 5:1 6:0 7:0 8:0 9:0 10:1 11:1 12:1 13:1 14:1 15:1 16:1 17:1 18:1 19:1 20:1 21:1 22:1 23:1 24:1 25:1 26:1 27:1 28:1 29:1 30:1 31:1 32:1 33:1 34:1 35:1 36:1 37:1 38:1 39:1 40:1 41:0 42:0 43:0 44:0 45:0 46:0 47:0 48:0 49:0 50:0 51:0 52:0 
0.2315410140900778 1:0.30870214 2:0.10290071 3:0.10290071 4:0.10290071 5:0 6:0 7:0 8:0 9:1 10:1 11:0 12:0 13:0 14:0 15:1 16:1 17:0 18:0 19:0 20:0 21:0 22:0 23:0 24:0 25:0 26:0 27:0 28:0 29:0 30:1 31:1 32:1 33:1 34:1 35:0 36:1 37:1 38:1 39:1 40:1 41:0 42:0 43:0 44:0 45:0 46:0 47:0 48:0 49:0 50:0 51:0 52:0 
0.3611809894020052 1:0.31567424 2:0.10522475 3:0.10522475 4:0.10522475 5:0 6:0 7:0 8:0 9:0 10:0 11:0 12:0 13:0 14:0 15:0 16:0 17:0 18:0 19:0 20:0 21:0 22:0 23:1 24:1 25:1 26:1 27:1 28:1 29:0 30:0 31:0 32:0 33:0 34:0 35:1 36:1 37:1 38:1 39:0 40:0 41:1 42:1 43:1 44:1 45:0 46:0 47:1 48:1 49:1 50:1 51:1 52:0 
0.1501161687151126 1:0.023527096 2:0.0078423653 3:0.0078423653 4:0.0078423653 5:0 6:0 7:0 8:0 9:0 10:0 11:0 12:0 13:0 14:0 15:0 16:0 17:0 18:0 19:0 20:0 21:0 22:0 23:1 24:1 25:1 26:1 27:1 28:1 29:0 30:0 31:0 32:0 33:0 34:0 35:0 36:0 37:0 38:0 39:0 40:0 41:1 42:1 43:1 44:1 45:1 46:1 47:1 48:1 49:1 50:1 51:1 52:1 
0.2079519467806603 1:0.88677495 2:0.29559165 3:0.29559165 4:0.29559165 5:0 6:0 7:0 8:0 9:0 10:0 11:0 12:0 13:0 14:0 15:0 16:0 17:0 18:0 19:0 20:0 21:0 22:0 23:0 24:0 25:0 26:0 27:0 28:1 29:1 30:0 31:0 32:0 33:0 34:0 35:0 36:0 37:0 38:0 39:0 40:0 41:0 42:0 43:0 44:0 45:0 46:0 47:0 48:0 49:0 50:0 51:0 52:0 
0.7526583280212622 1:0.53798469 2:0.17932823 3:0.17932823 4:0.17932823 5:0 6:0 7:0 8:0 9:1 10:1 11:0 12:0 13:0 14:0 15:1 16:1 17:0 18:0 19:0 20:0 21:0 22:0 23:0 24:0 25:0 26:0 27:0 28:1 29:0 30:0 31:0 32:0 33:0 34:1 35:0 36:0 37:0 38:0 39:0 40:0 41:1 42:1 43:1 44:1 45:1 46:1 47:0 48:0 49:0 50:0 51:0 52:0 
0.2057728690447944 1:0.24248067 2:0.080826888 3:0.080826888 4:0.080826888 5:1 6:1 7:1 8:1 9:1 10:1 11:0 12:0 13:0 14:0 15:0 16:0 17:0 18:0 19:0 20:0 21:0 22:0 23:0 24:0 25:0 26:0 27:0 28:0 29:1 30:1 31:0 32:0 33:0 34:0 35:1 36:1 37:0 38:0 39:0 40:0 41:1 42:1 43:1 44:1 45:1 46:1 47:0 48:0 49:0 50:0 51:0 52:0 
0.4587267732706987 1:0.50296277 2:0.16765426 3:0.16765426 4:0.16765426 5:0 6:0 7:0 8:0 9:0 10:0 11:1 12:1 13:0 14:0 15:1 16:1 17:0 18:0 19:0 20:0 21:0 22:0 23:0 24:0 25:0 26:0 27:0 28:0 29:0 30:0 31:0 32:0 33:0 34:0 35:0 36:0 37:0 38:0 39:0 40:0 41:0 42:0 43:0 44:0 45:0 46:0 47:1 48:1 49:1 50:1 51:1 52:0 
0.5117747236218939 1:0.010335146 2:0.0034450488 3:0.0034450488 4:0.0034450488 5:0 6:0 7:0 8:0 9:0 10:0 11:0 12:0 13:0 14:0 15:0 16:0 17:1 18:1 19:1 20:1 21:1 22:1 23:1 24:1 25:1 26:1 27:1 28:1 29:0 30:0 31:0 32:0 33:0 34:0 35:0 36:0 37:0 38:0 39:0 40:0 41:1 42:1 43:1 44:1 45:1 46:1 47:1 48:1 49:1 50:1 51:1 52:1 
0.05282372526928626 1:0.43910896 2:0.14636965 3:0.14636965 4:0.14636965 5:1 6:1 7:1 8:1 9:1 10:1 11:1 12:1 13:1 14:0 15:0 16:0 17:0 18:0 19:0 20:0 21:0 22:0 23:0 24:0 25:0 26:0 27:0 28:0 29:0 30:0 31:0 32:0 33:0 34:0 35:0 36:0 37:0 38:0 39:0 40:0 41:0 42:0 43:0 44:0 45:0 46:0 47:0 48:0 49:0 50:0 51:0 52:0 
0.5266860800993532 1:0.09988514 2:0.024971285 3:0.024971285 4:0.024971285 5:0 6:0 7:0 8:0 9:0 10:0 11:1 12:1 13:1 14:1 15:1 16:0 17:0 18:0 19:0 20:0 21:0 22:0 23:0 24:0 25:0 26:0 27:0 28:0 29:1 30:1 31:1 32:1 33:1 34:0 35:1 36:1 37:1 38:1 39:1 40:0 41:0 42:1 43:1 44:1 45:0 46:0 47:0 48:0 49:0 50:1 51:1 52:0 
1 1:0.42056835 2:0.14018945 3:0.14018945 4:0.14018945 5:1 6:1 7:1 8:1 9:1 10:1 11:1 12:1 13:1 14:1 15:1 16:1 17:0 18:0 19:0 20:0 21:0 22:0 23:0 24:0 25:0 26:0 27:0 28:0 29:0 30:0 31:0 32:0 33:0 34:0 35:0 36:0 37:0 38:0 39:0 40:0 41:0 42:0 43:0 44:0 45:0 46:0 47:0 48:0 49:0 50:0 51:0 52:0 
0.9885506150823369 1:0.19103544 2:0.063678479 3:0.063678479 4:0.063678479 5:1 6:1 7:1 8:1 9:1 10:1 11:0 12:0 13:0 14:0 15:0 16:0 17:0 18:0 19:0 20:0 21:0 22:0 23:0 24:0 25:0 26:0 27:0 28:0 29:0 30:0 31:1 32:1 33:0 34:0 35:0 36:0 37:0 38:0 39:0 40:0 41:0 42:0 43:0 44:0 45:0 46:0 47:0 48:1 49:1 50:1 51:1 52:0 
0.3866071889115534 1:0.21565391 2:0.071884638 3:0.071884638 4:0.071884638 5:1 6:1 7:1 8:1 9:1 10:1 11:1 12:1 13:1 14:1 15:1 16:1 17:1 18:1 19:1 20:1 21:1 22:1 23:1 24:1 25:1 26:1 27:1 28:1 29:1 30:1 31:1 32:1 33:1 34:1 35:1 36:1 37:1 38:1 39:1 40:1 41:1 42:1 43:1 44:1 45:1 46:1 47:1 48:1 49:1 50:1 51:1 52:1 
0.1129916276679887 1:0.015732454 2:0.0017480504 3:0.0017480504 4:0.0017480504 5:0 6:0 7:0 8:0 9:0 10:0 11:1 12:1 13:1 14:1 15:1 16:1 17:0 18:0 19:0 20:0 21:0 22:0 23:0 24:0 25:0 26:0 27:0 28:0 29:0 30:0 31:0 32:0 33:0 34:0 35:1 36:1 37:1 38:1 39:1 40:1 41:0 42:0 43:0 44:0 45:0 46:0 47:1 48:1 49:1 50:1 51:1 52:1 
0.02948509090077569 1:0.85579779 2:0.28526593 3:0.28526593 4:0.28526593 5:0 6:0 7:0 8:0 9:0 10:0 11:0 12:0 13:0 14:0 15:0 16:0 17:0 18:0 19:1 20:0 21:0 22:1 23:0 24:0 25:0 26:0 27:0 28:0 29:0 30:0 31:0 32:0 33:0 34:1 35:0 36:0 37:0 38:0 39:0 40:1 41:0 42:0 43:0 44:0 45:0 46:0 47:0 48:0 49:0 50:0 51:0 52:0 
0.1113216625113653 1:0.059215965 2:0.011843193 3:0.011843193 4:0.011843193 5:0 6:0 7:0 8:0 9:0 10:0 11:1 12:1 13:1 14:1 15:1 16:0 17:0 18:0 19:0 20:0 21:0 22:0 23:1 24:1 25:1 26:1 27:0 28:0 29:0 30:0 31:0 32:0 33:0 34:0 35:0 36:1 37:1 38:1 39:0 40:0 41:0 42:1 43:1 44:1 45:1 46:0 47:0 48:1 49:1 50:1 51:1 52:0 
1 1:0.61787779 2:0.20595926 3:0.20595926 4:0.20595926 5:1 6:1 7:1 8:1 9:0 10:1 11:1 12:1 13:1 14:1 15:0 16:1 17:0 18:0 19:0 20:0 21:0 22:0 23:0 24:0 25:0 26:0 27:0 28:0 29:0 30:0 31:0 32:0 33:0 34:0 35:0 36:0 37:0 38:0 39:0 40:0 41:0 42:0 43:0 44:0 45:0 46:0 47:0 48:0 49:0 50:0 51:0 52:0 
0.0100110541636825 1:0.09233527 2:0.0083941155 3:0.0083941155 4:0.0083941155 5:1 6:1 7:1 8:1 9:1 10:1 11:0 12:0 13:1 14:1 15:1 16:1 17:1 18:1 19:1 20:0 21:0 22:0 23:1 24:1 25:1 26:0 27:0 28:0 29:0 30:0 31:1 32:1 33:1 34:1 35:0 36:0 37:1 38:1 39:1 40:1 41:0 42:0 43:0 44:0 45:0 46:0 47:1 48:1 49:1 50:0 51:1 52:1 
0.1682034953900313 1:0.32183478 2:0.080458695 3:0.080458695 4:0.080458695 5:1 6:1 7:1 8:1 9:0 10:0 11:1 12:1 13:1 14:1 15:0 16:0 17:0 18:0 19:0 20:0 21:0 22:0 23:0 24:0 25:0 26:0 27:0 28:0 29:0 30:0 31:0 32:0 33:0 34:0 35:0 36:0 37:0 38:0 39:0 40:0 41:1 42:1 43:1 44:1 45:1 46:1 47:1 48:1 49:1 50:1 51:1 52:1 
1 1:0.025045952 2:0.0062614881 3:0.0062614881 4:0.0062614881 5:1 6:1 7:1 8:1 9:1 10:1 11:0 12:0 13:0 14:0 15:0 16:0 17:1 18:1 19:1 20:1 21:1 22:1 23:0 24:0 25:0 26:0 27:0 28:0 29:0 30:0 31:0 32:0 33:0 34:0 35:0 36:0 37:0 38:0 39:0 40:0 41:0 42:0 43:0 44:0 45:0 46:0 47:1 48:1 49:1 50:1 51:1 52:1 
0.9196546975769471 1:0.079131338 2:0.011304477 3:0.011304477 4:0.011304477 5:1 6:1 7:1 8:1 9:1 10:1 11:1 12:1 13:1 14:1 15:1 16:1 17:0 18:0 19:0 20:0 21:0 22:0 23:1 24:1 25:1 26:1 27:1 28:1 29:0 30:0 31:0 32:0 33:0 34:0 35:0 36:0 37:0 38:0 39:0 40:0 41:1 42:1 43:1 44:1 45:1 46:1 47:0 48:1 49:1 50:1 51:1 52:0 
0.3161707352208248 1:0.12348688 2:0.024697376 3:0.024697376 4:0.024697376 5:0 6:0 7:0 8:0 9:0 10:0 11:1 12:1 13:1 14:1 15:1 16:1 17:1 18:1 19:1 20:1 21:1 22:1 23:1 24:1 25:0 26:0 27:0 28:0 29:0 30:0 31:0 32:0 33:0 34:0 35:0 36:0 37:0 38:0 39:0 40:0 41:0 42:0 43:1 44:1 45:1 46:1 47:0 48:0 49:1 50:1 51:1 52:1 
1 1:0.16541483 2:0.055138278 3:0.055138278 4:0.055138278 5:0 6:0 7:0 8:0 9:0 10:1 11:0 12:0 13:0 14:0 15:0 16:0 17:1 18:1 19:1 20:1 21:1 22:1 23:0 24:0 25:0 26:0 27:0 28:0 29:0 30:0 31:0 32:0 33:0 34:0 35:0 36:0 37:0 38:0 39:0 40:0 41:0 42:0 43:0 44:0 45:0 46:0 47:1 48:1 49:1 50:1 51:1 52:1 
0.3756098255560666 1:0.020572112 2:0.0041144224 3:0.0041144224 4:0.0041144224 5:1 6:1 7:1 8:1 9:0 10:0 11:0 12:0 13:0 14:0 15:0 16:0 17:1 18:1 19:1 20:1 21:1 22:1 23:1 24:1 25:1 26:1 27:1 28:1 29:0 30:0 31:0 32:0 33:0 34:0 35:0 36:0 37:0 38:0 39:0 40:0 41:1 42:1 43:1 44:1 45:1 46:1 47:1 48:1 49:1 50:0 51:0 52:0 
0.01564670609886928 1:0.023645959 2:0.0078819865 3:0.0078819865 4:0.0078819865 5:0 6:0 7:0 8:0 9:0 10:0 11:1 12:1 13:1 14:1 15:1 16:1 17:1 18:1 19:1 20:1 21:1 22:1 23:0 24:0 25:0 26:0 27:0 28:0 29:0 30:1 31:1 32:1 33:1 34:0 35:0 36:0 37:0 38:0 39:0 40:0 41:0 42:0 43:0 44:0 45:0 46:0 47:0 48:0 49:0 50:0 51:0 52:0 
1 1:0.23874114 2:0.079580379 3:0.079580379 4:0.079580379 5:1 6:1 7:1 8:1 9:1 10:1 11:1 12:1 13:1 14:1 15:1 16:1 17:0 18:0 19:0 20:0 21:0 22:0 23:1 24:1 25:1 26:1 27:1 28:1 29:0 30:0 31:0 32:0 33:0 34:0 35:0 36:0 37:0 38:0 39:0 40:0 41:0 42:0 43:0 44:0 45:0 46:0 47:0 48:0 49:0 50:0 51:0 52:0 
1 1:0.16221369 2:0.054071229 3:0.054071229 4:0.054071229 5:0 6:0 7:0 8:0 9:0 10:0 11:1 12:1 13:1 14:1 15:0 16:0 17:1 18:1 19:1 20:1 21:1 22:1 23:1 24:1 25:1 26:1 27:1 28:1 29:1 30:1 31:1 32:1 33:1 34:1 35:1 36:1 37:1 38:1 39:1 40:1 41:1 42:1 43:1 44:1 45:1 46:1 47:0 48:0 49:0 50:0 51:0 52:0 
0.2256490931377472 1:0.07790594 2:0.01112942 3:0.01112942 4:0.01112942 5:1 6:1 7:0 8:0 9:0 10:0 11:1 12:1 13:1 14:1 15:1 16:1 17:0 18:0 19:0 20:0 21:0 22:0 23:1 24:1 25:1 26:1 27:1 28:1 29:1 30:1 31:1 32:1 33:1 34:1 35:1 36:1 37:1 38:1 39:1 40:1 41:0 42:0 43:0 44:0 45:0 46:0 47:1 48:1 49:1 50:1 51:1 52:1 
0.8103808315058411 1:0.55964231 2:0.18654744 3:0.18654744 4:0.18654744 5:0 6:0 7:0 8:0 9:0 10:0 11:0 12:0 13:0 14:0 15:0 16:0 17:0 18:0 19:0 20:0 21:0 22:0 23:0 24:0 25:0 26:0 27:0 28:0 29:0 30:0 31:0 32:0 33:0 34:0 35:0 36:0 37:0 38:0 39:0 40:0 41:0 42:0 43:0 44:0 45:0 46:0 47:1 48:1 49:1 50:1 51:1 52:1 
0.1067238022072527 1:0.012769777 2:0.0031924442 3:0.0031924442 4:0.0031924442 5:1 6:1 7:1 8:1 9:1 10:1 11:1 12:1 13:1 14:1 15:1 16:1 17:1 18:1 19:1 20:1 21:1 22:1 23:0 24:0 25:0 26:0 27:0 28:0 29:0 30:0 31:0 32:0 33:0 34:0 35:1 36:1 37:1 38:1 39:1 40:1 41:1 42:1 43:1 44:1 45:1 46:1 47:0 48:0 49:0 50:0 51:0 52:0 
1 1:0.36852052 2:0.12284017 3:0.12284017 4:0.12284017 5:1 6:1 7:1 8:1 9:1 10:1 11:1 12:1 13:1 14:1 15:1 16:1 17:0 18:0 19:0 20:0 21:0 22:0 23:0 24:1 25:1 26:1 27:1 28:1 29:0 30:0 31:0 32:0 33:0 34:0 35:0 36:0 37:0 38:0 39:0 40:0 41:0 42:0 43:0 44:0 45:0 46:0 47:0 48:0 49:0 50:0 51:0 52:0 
0.5466878179421205 1:0.2170361 2:0.072345366 3:0.072345366 4:0.072345366 5:0 6:0 7:0 8:0 9:0 10:0 11:0 12:0 13:0 14:0 15:1 16:1 17:0 18:0 19:0 20:0 21:1 22:1 23:0 24:0 25:0 26:0 27:0 28:0 29:0 30:0 31:0 32:0 33:1 34:1 35:0 36:0 37:0 38:0 39:1 40:1 41:0 42:0 43:0 44:0 45:0 46:0 47:0 48:0 49:0 50:0 51:1 52:1 
1 1:0.49040762 2:0.16346921 3:0.16346921 4:0.16346921 5:1 6:1 7:1 8:1 9:1 10:1 11:1 12:1 13:1 14:1 15:1 16:1 17:0 18:1 19:1 20:1 21:1 22:0 23:0 24:0 25:0 26:0 27:0 28:0 29:0 30:0 31:0 32:0 33:0 34:0 35:0 36:0 37:0 38:0 39:0 40:0 41:0 42:0 43:0 44:0 45:0 46:0 47:0 48:0 49:0 50:0 51:0 52:0 
0.5605144811225233 1:0.65716376 2:0.21905459 3:0.21905459 4:0.21905459 5:0 6:0 7:0 8:0 9:0 10:0 11:0 12:0 13:1 14:1 15:0 16:0 17:0 18:0 19:1 20:1 21:0 22:0 23:0 24:0 25:1 26:1 27:0 28:0 29:0 30:0 31:1 32:1 33:0 34:0 35:0 36:0 37:1 38:1 39:0 40:0 41:0 42:0 43:1 44:1 45:0 46:0 47:0 48:0 49:0 50:0 51:0 52:0 
0.005265703520555595 1:0.51824383 2:0.17274794 3:0.17274794 4:0.17274794 5:0 6:0 7:0 8:0 9:0 10:0 11:0 12:0 13:0 14:0 15:0 16:0 17:0 18:0 19:0 20:0 21:0 22:0 23:0 24:0 25:0 26:0 27:0 28:0 29:0 30:0 31:0 32:0 33:0 34:0 35:0 36:1 37:1 38:1 39:1 40:1 41:0 42:0 43:0 44:0 45:0 46:0 47:0 48:0 49:0 50:0 51:0 52:1 
1 1:0.18792289 2:0.062640964 3:0.062640964 4:0.062640964 5:1 6:1 7:1 8:1 9:1 10:1 11:1 12:1 13:1 14:1 15:1 16:1 17:0 18:0 19:0 20:0 21:0 22:0 23:0 24:0 25:0 26:0 27:0 28:0 29:0 30:1 31:1 32:1 33:1 34:0 35:0 36:0 37:0 38:0 39:0 40:0 41:0 42:0 43:0 44:0 45:0 46:0 47:0 48:0 49:0 50:0 51:0 52:0 
0.3923863456023973 1:0.2744427 2:0.091480901 3:0.091480901 4:0.091480901 5:0 6:1 7:1 8:1 9:1 10:1 11:0 12:1 13:1 14:1 15:1 16:0 17:0 18:0 19:0 20:0 21:0 22:0 23:0 24:0 25:0 26:0 27:0 28:0 29:0 30:0 31:0 32:1 33:1 34:1 35:0 36:0 37:0 38:0 39:0 40:0 41:0 42:0 43:0 44:0 45:0 46:0 47:0 48:0 49:0 50:0 51:0 52:0 
1 1:0.32825212 2:0.10941737 3:0.10941737 4:0.10941737 5:1 6:1 7:1 8:1 9:1 10:1 11:1 12:1 13:1 14:1 15:1 16:1 17:1 18:1 19:1 20:1 21:1 22:1 23:0 24:0 25:0 26:0 27:0 28:0 29:0 30:0 31:0 32:0 33:0 34:0 35:0 36:0 37:0 38:0 39:0 40:0 41:0 42:0 43:0 44:0 45:1 46:0 47:0 48:0 49:0 50:0 51:0 52:0 
0.3050232256014543 1:0.52211854 2:0.17403951 3:0.17403951 4:0.17403951 5:1 6:1 7:0 8:0 9:0 10:0 11:0 12:0 13:0 14:0 15:0 16:0 17:0 18:0 19:0 20:0 21:0 22:0 23:0 24:0 25:0 26:0 27:0 28:0 29:0 30:0 31:1 32:1 33:0 34:0 35:0 36:1 37:1 38:1 39:1 40:0 41:0 42:0 43:0 44:0 45:0 46:0 47:0 48:0 49:0 50:0 51:0 52:0 
1 1:0.25401611 2:0.084672036 3:0.084672036 4:0.084672036 5:1 6:1 7:1 8:1 9:1 10:1 11:1 12:1 13:1 14:1 15:1 16:1 17:1 18:1 19:1 20:1 21:1 22:1 23:1 24:1 25:1 26:1 27:1 28:1 29:1 30:1 31:1 32:1 33:1 34:1 35:0 36:0 37:0 38:0 39:0 40:0 41:0 42:0 43:0 44:0 45:0 46:0 47:0 48:0 49:0 50:0 51:0 52:0 
0.1591829918706946 1:0.030698014 2:0.0076745036 3:0.0076745036 4:0.0076745036 5:1 6:1 7:1 8:0 9:0 10:0 11:0 12:0 13:0 14:0 15:0 16:0 17:0 18:0 19:0 20:0 21:0 22:0 23:1 24:1 25:1 26:1 27:1 28:1 29:1 30:1 31:1 32:0 33:0 34:0 35:0 36:0 37:0 38:0 39:0 40:0 41:1 42:1 43:1 44:1 45:1 46:1 47:1 48:1 49:1 50:1 51:1 52:1 
0.1926083360630518 1:0.095680021 2:0.011960003 3:0.011960003 4:0.011960003 5:1 6:1 7:0 8:0 9:0 10:1 11:0 12:0 13:0 14:0 15:0 16:0 17:0 18:0 19:0 20:0 21:0 22:0 23:1 24:1 25:1 26:1 27:1 28:1 29:1 30:1 31:1 32:1 33:1 34:1 35:0 36:0 37:0 38:0 39:0 40:0 41:0 42:0 43:0 44:0 45:0 46:1 47:0 48:0 49:1 50:1 51:0 52:1 
0.2572951597685777 1:0.024583265 2:0.0081944217 3:0.0081944217 4:0.0081944217 5:0 6:0 7:0 8:0 9:0 10:0 11:1 12:1 13:1 14:1 15:1 16:1 17:1 18:1 19:1 20:1 21:1 22:1 23:1 24:1 25:1 26:1 27:1 28:1 29:1 30:1 31:1 32:1 33:1 34:1 35:0 36:0 37:0 38:0 39:0 40:0 41:0 42:0 43:0 44:0 45:0 46:0 47:1 48:1 49:1 50:1 51:1 52:1 
1 1:0.15820559 2:0.052735197 3:0.052735197 4:0.052735197 5:0 6:0 7:0 8:0 9:0 10:0 11:1 12:1 13:1 14:1 15:1 16:1 17:1 18:1 19:1 20:1 21:1 22:1 23:1 24:1 25:1 26:1 27:1 28:1 29:1 30:1 31:1 32:1 33:1 34:1 35:1 36:1 37:1 38:1 39:1 40:1 41:1 42:1 43:1 44:1 45:1 46:1 47:1 48:1 49:1 50:1 51:1 52:1 
0.1235118834739185 1:0.34222484 2:0.11407495 3:0.11407495 4:0.11407495 5:0 6:0 7:0 8:0 9:0 10:0 11:0 12:0 13:0 14:0 15:0 16:0 17:0 18:0 19:0 20:0 21:0 22:0 23:0 24:0 25:0 26:0 27:0 28:0 29:0 30:0 31:0 32:0 33:0 34:0 35:0 36:0 37:0 38:0 39:0 40:0 41:0 42:1 43:1 44:0 45:0 46:0 47:1 48:1 49:1 50:1 51:1 52:1 
0.1162892173135053 1:0.18087373 2:0.060291243 3:0.060291243 4:0.060291243 5:0 6:0 7:0 8:0 9:0 10:0 11:1 12:1 13:1 14:1 15:1 16:1 17:1 18:1 19:1 20:1 21:1 22:1 23:0 24:0 25:1 26:1 27:1 28:0 29:1 30:1 31:1 32:1 33:1 34:1 35:1 36:1 37:1 38:1 39:1 40:1 41:1 42:1 43:1 44:1 45:1 46:1 47:1 48:1 49:1 50:1 51:1 52:1 
1 1:0.5188964 2:0.17296547 3:0.17296547 4:0.17296547 5:0 6:0 7:0 8:0 9:0 10:0 11:1 12:1 13:1 14:1 15:1 16:1 17:1 18:1 19:1 20:1 21:1 22:1 23:0 24:0 25:0 26:0 27:0 28:0 29:0 30:0 31:0 32:0 33:0 34:0 35:0 36:0 37:0 38:0 39:0 40:0 41:0 42:0 43:0 44:0 45:0 46:0 47:0 48:0 49:0 50:0 51:0 52:0 
0.3455204273575969 1:0.34144219 2:0.11381406 3:0.11381406 4:0.11381406 5:0 6:0 7:0 8:0 9:0 10:0 11:1 12:1 13:1 14:1 15:1 16:1 17:1 18:1 19:0 20:0 21:0 22:0 23:1 24:1 25:0 26:0 27:0 28:0 29:0 30:0 31:0 32:0 33:0 34:0 35:0 36:0 37:0 38:0 39:0 40:0 41:0 42:0 43:0 44:0 45:0 46:0 47:0 48:0 49:0 50:0 51:0 52:0 
0.2294438376078581 1:0.13946086 2:0.046486954 3:0.046486954 4:0.046486954 5:0 6:0 7:0 8:0 9:0 10:1 11:1 12:1 13:1 14:1 15:1 16:1 17:1 18:1 19:1 20:1 21:1 22:1 23:1 24:1 25:1 26:1 27:1 28:1 29:1 30:1 31:1 32:1 33:1 34:1 35:1 36:1 37:1 38:1 39:1 40:1 41:0 42:0 43:0 44:0 45:0 46:0 47:1 48:1 49:1 50:1 51:1 52:1 
0.7659496205667462 1:0.44608442 2:0.14869481 3:0.14869481 4:0.14869481 5:0 6:0 7:0 8:0 9:0 10:0 11:0 12:0 13:0 14:0 15:0 16:0 17:0 18:0 19:0 20:0 21:0 22:0 23:1 24:1 25:1 26:1 27:1 28:1 29:1 30:1 31:1 32:0 33:1 34:1 35:0 36:0 37:0 38:0 39:0 40:0 41:0 42:0 43:0 44:0 45:0 46:0 47:0 48:0 49:0 50:0 51:0 52:0 
0.3169834241693192 1:0.21771857 2:0.072572857 3:0.072572857 4:0.072572857 5:1 6:1 7:1 8:1 9:1 10:1 11:0 12:0 13:0 14:0 15:0 16:0 17:0 18:0 19:0 20:0 21:0 22:0 23:0 24:0 25:0 26:0 27:0 28:0 29:1 30:1 31:1 32:1 33:1 34:1 35:1 36:1 37:1 38:1 39:1 40:1 41:1 42:1 43:1 44:1 45:1 46:1 47:0 48:0 49:0 50:0 51:0 52:0 
1 1:0.12763006 2:0.042543354 3:0.042543354 4:0.042543354 5:1 6:1 7:1 8:1 9:1 10:1 11:1 12:1 13:1 14:1 15:1 16:1 17:1 18:1 19:1 20:1 21:1 22:1 23:0 24:0 25:0 26:0 27:0 28:0 29:0 30:0 31:0 32:0 33:0 34:0 35:0 36:0 37:0 38:0 39:0 40:0 41:0 42:0 43:0 44:0 45:0 46:0 47:0 48:0 49:0 50:0 51:0 52:1 
0.2428776715412918 1:0.15884155 2:0.052947184 3:0.052947184 4:0.052947184 5:1 6:1 7:1 8:1 9:1 10:1 11:1 12:1 13:1 14:1 15:1 16:1 17:1 18:1 19:1 20:1 21:1 22:1 23:1 24:1 25:1 26:1 27:1 28:1 29:1 30:1 31:1 32:1 33:1 34:1 35:0 36:0 37:0 38:0 39:0 40:0 41:0 42:0 43:0 44:0 45:0 46:0 47:1 48:1 49:1 50:1 51:0 52:0 
0.4317686437685759 1:0.3448661 2:0.11495537 3:0.11495537 4:0.11495537 5:0 6:0 7:0 8:0 9:0 10:0 11:1 12:1 13:1 14:1 15:1 16:1 17:1 18:1 19:1 20:1 21:1 22:1 23:0 24:0 25:0 26:0 27:0 28:0 29:0 30:0 31:0 32:0 33:0 34:0 35:1 36:1 37:0 38:0 39:0 40:0 41:1 42:1 43:0 44:0 45:0 46:0 47:0 48:0 49:0 50:0 51:0 52:0 
1 1:0.55938016 2:0.18646005 3:0.18646005 4:0.18646005 5:0 6:0 7:0 8:0 9:0 10:0 11:1 12:1 13:1 14:1 15:0 16:0 17:0 18:0 19:0 20:0 21:0 22:0 23:0 24:0 25:0 26:0 27:0 28:0 29:1 30:1 31:1 32:1 33:1 34:1 35:0 36:0 37:0 38:0 39:0 40:0 41:0 42:0 43:0 44:0 45:0 46:0 47:0 48:0 49:0 50:0 51:0 52:0 
0.008507921631962045 1:0.058373799 2:0.01459345 3:0.01459345 4:0.01459345 5:1 6:1 7:1 8:1 9:1 10:1 11:1 12:1 13:1 14:1 15:1 16:1 17:1 18:1 19:1 20:1 21:1 22:1 23:0 24:0 25:1 26:1 27:1 28:0 29:0 30:0 31:1 32:1 33:1 34:0 35:0 36:0 37:0 38:0 39:0 40:0 41:0 42:0 43:0 44:0 45:0 46:0 47:0 48:0 49:0 50:0 51:0 52:0 
1 1:0.13257024 2:0.03314256 3:0.03314256 4:0.03314256 5:0 6:0 7:0 8:0 9:0 10:0 11:1 12:1 13:1 14:1 15:1 16:1 17:0 18:0 19:0 20:0 21:0 22:0 23:1 24:1 25:1 26:1 27:1 28:1 29:1 30:1 31:1 32:1 33:1 34:1 35:0 36:0 37:0 38:0 39:0 40:0 41:1 42:1 43:1 44:1 45:1 46:1 47:1 48:1 49:1 50:1 51:1 52:1 
0.02933687759486543 1:0.14933393 2:0.021333418 3:0.021333418 4:0.021333418 5:1 6:1 7:0 8:0 9:0 10:0 11:1 12:1 13:1 14:1 15:1 16:1 17:1 18:1 19:1 20:0 21:1 22:1 23:0 24:1 25:1 26:1 27:1 28:1 29:0 30:1 31:1 32:1 33:1 34:1 35:0 36:0 37:0 38:0 39:0 40:0 41:0 42:1 43:1 44:1 45:1 46:0 47:0 48:1 49:1 50:1 51:1 52:0 
1 1:0.34340691 2:0.11446897 3:0.11446897 4:0.11446897 5:0 6:1 7:0 8:0 9:0 10:0 11:1 12:1 13:1 14:1 15:1 16:1 17:1 18:1 19:1 20:1 21:1 22:1 23:1 24:1 25:1 26:1 27:1 28:1 29:1 30:1 31:1 32:1 33:1 34:1 35:0 36:0 37:0 38:0 39:0 40:0 41:0 42:0 43:0 44:0 45:0 46:0 47:0 48:0 49:0 50:0 51:0 52:0 
0.8874770391077007 1:0.12528042 2:0.04176014 3:0.04176014 4:0.04176014 5:1 6:1 7:1 8:1 9:1 10:1 11:1 12:1 13:1 14:1 15:1 16:1 17:0 18:0 19:0 20:0 21:0 22:0 23:0 24:0 25:0 26:0 27:0 28:0 29:1 30:1 31:1 32:1 33:1 34:1 35:1 36:1 37:1 38:1 39:1 40:1 41:1 42:1 43:1 44:1 45:1 46:1 47:0 48:0 49:0 50:0 51:0 52:0 
0.4510516927066059 1:0.45247943 2:0.15082648 3:0.15082648 4:0.15082648 5:0 6:0 7:1 8:1 9:1 10:1 11:0 12:0 13:1 14:1 15:1 16:1 17:0 18:0 19:0 20:0 21:0 22:0 23:0 24:0 25:0 26:0 27:0 28:0 29:0 30:0 31:0 32:0 33:0 34:0 35:0 36:0 37:0 38:1 39:1 40:0 41:0 42:0 43:0 44:0 45:0 46:0 47:0 48:0 49:1 50:0 51:0 52:0 
0.07839541040335182 1:0.11654468 2:0.016649241 3:0.016649241 4:0.016649241 5:1 6:1 7:1 8:1 9:1 10:1 11:0 12:0 13:0 14:0 15:0 16:0 17:0 18:0 19:0 20:0 21:0 22:0 23:1 24:1 25:1 26:1 27:1 28:1 29:0 30:0 31:0 32:0 33:0 34:0 35:0 36:1 37:1 38:1 39:1 40:0 41:0 42:1 43:1 44:1 45:1 46:0 47:0 48:1 49:1 50:1 51:1 52:0 
0.2203619607443159 1:0.090703556 2:0.001439739 3:0.001439739 4:0.001439739 5:1 6:1 7:1 8:1 9:1 10:1 11:1 12:1 13:1 14:0 15:0 16:0 17:1 18:1 19:1 20:0 21:0 22:0 23:1 24:1 25:1 26:0 27:0 28:0 29:0 30:0 31:0 32:0 33:1 34:1 35:0 36:1 37:1 38:1 39:1 40:1 41:0 42:1 43:1 44:1 45:1 46:0 47:1 48:1 49:0 50:0 51:1 52:1 
0.6066532974789167 1:0.020116424 2:0.0067054747 3:0.0067054747 4:0.0067054747 5:0 6:0 7:0 8:0 9:0 10:0 11:0 12:0 13:0 14:0 15:0 16:0 17:1 18:1 19:0 20:0 21:0 22:0 23:1 24:1 25:1 26:1 27:1 28:1 29:0 30:0 31:0 32:0 33:0 34:0 35:0 36:0 37:0 38:0 39:0 40:0 41:1 42:1 43:1 44:1 45:0 46:0 47:1 48:1 49:1 50:1 51:0 52:0 
0.4079154777350963 1:0.17867554 2:0.059558513 3:0.059558513 4:0.059558513 5:1 6:1 7:0 8:0 9:0 10:0 11:0 12:0 13:0 14:0 15:0 16:0 17:1 18:1 19:1 20:1 21:1 22:1 23:1 24:1 25:1 26:1 27:1 28:1 29:0 30:0 31:0 32:0 33:0 34:0 35:1 36:1 37:1 38:1 39:1 40:1 41:0 42:0 43:0 44:0 45:0 46:0 47:0 48:0 49:0 50:0 51:0 52:0 
1 1:0.20215177 2:0.067383923 3:0.067383923 4:0.067383923 5:0 6:0 7:0 8:0 9:0 10:0 11:0 12:0 13:0 14:0 15:0 16:0 17:0 18:0 19:0 20:0 21:0 22:0 23:1 24:1 25:1 26:1 27:1 28:1 29:1 30:1 31:1 32:1 33:1 34:1 35:0 36:0 37:0 38:0 39:0 40:0 41:0 42:0 43:0 44:0 45:0 46:0 47:1 48:1 49:1 50:1 51:1 52:1 
1 1:0.41723816 2:0.13907939 3:0.13907939 4:0.13907939 5:1 6:1 7:1 8:1 9:1 10:1 11:1 12:1 13:1 14:1 15:1 16:1 17:0 18:1 19:1 20:1 21:1 22:0 23:0 24:0 25:0 26:0 27:0 28:0 29:0 30:0 31:0 32:0 33:0 34:0 35:0 36:0 37:0 38:0 39:0 40:0 41:0 42:0 43:0 44:0 45:0 46:0 47:0 48:0 49:0 50:0 51:0 52:0 
0.3876571878929411 1:0.065702837 2:0.016425709 3:0.016425709 4:0.016425709 5:0 6:0 7:0 8:0 9:0 10:0 11:1 12:1 13:1 14:1 15:1 16:1 17:1 18:1 19:1 20:1 21:1 22:1 23:0 24:0 25:0 26:0 27:0 28:0 29:0 30:0 31:0 32:0 33:0 34:0 35:1 36:1 37:1 38:1 39:1 40:1 41:0 42:1 43:1 44:1 45:1 46:1 47:0 48:1 49:1 50:1 51:1 52:1 
1 1:0.16006823 2:0.040017057 3:0.040017057 4:0.040017057 5:0 6:0 7:0 8:0 9:0 10:0 11:1 12:1 13:1 14:1 15:1 16:1 17:1 18:1 19:0 20:0 21:0 22:0 23:0 24:0 25:0 26:0 27:0 28:0 29:0 30:0 31:0 32:0 33:0 34:0 35:0 36:0 37:0 38:0 39:0 40:0 41:1 42:1 43:1 44:1 45:1 46:1 47:1 48:1 49:1 50:1 51:1 52:1 
0.3434887482701093 1:0.061917052 2:0.0068796725 3:0.0068796725 4:0.0068796725 5:1 6:1 7:1 8:0 9:0 10:0 11:1 12:1 13:1 14:0 15:0 16:0 17:0 18:0 19:0 20:1 21:1 22:1 23:1 24:1 25:1 26:1 27:1 28:1 29:1 30:1 31:1 32:0 33:0 34:0 35:0 36:0 37:0 38:1 39:1 40:1 41:0 42:0 43:0 44:1 45:1 46:1 47:1 48:1 49:1 50:1 51:1 52:1 
0.5716607881771925 1:0.080923982 2:0.016184796 3:0.016184796 4:0.016184796 5:1 6:1 7:1 8:1 9:1 10:0 11:1 12:1 13:1 14:1 15:1 16:1 17:0 18:0 19:0 20:0 21:0 22:0 23:1 24:1 25:1 26:1 27:1 28:1 29:0 30:0 31:0 32:0 33:0 34:0 35:0 36:0 37:0 38:0 39:0 40:0 41:0 42:0 43:0 44:0 45:0 46:0 47:0 48:0 49:0 50:0 51:0 52:1 
0.5341493927416466 1:0.16857808 2:0.056192693 3:0.056192693 4:0.056192693 5:0 6:0 7:0 8:0 9:0 10:0 11:0 12:0 13:0 14:0 15:0 16:0 17:1 18:1 19:1 20:1 21:1 22:1 23:1 24:1 25:1 26:1 27:1 28:1 29:0 30:0 31:0 32:0 33:0 34:0 35:0 36:0 37:0 38:0 39:0 40:0 41:1 42:1 43:1 44:1 45:1 46:1 47:0 48:0 49:0 50:0 51:0 52:0 
0.9484606305762499 1:0.20283853 2:0.067612845 3:0.067612845 4:0.067612845 5:0 6:0 7:0 8:0 9:0 10:0 11:0 12:0 13:0 14:0 15:0 16:0 17:1 18:1 19:1 20:1 21:1 22:1 23:0 24:0 25:0 26:0 27:0 28:0 29:0 30:0 31:0 32:0 33:0 34:0 35:0 36:0 37:0 38:0 39:0 40:0 41:1 42:1 43:1 44:1 45:1 46:1 47:0 48:0 49:0 50:0 51:0 52:0 
1 1:0.42458837 2:0.14152946 3:0.14152946 4:0.14152946 5:0 6:0 7:0 8:0 9:0 10:0 11:1 12:1 13:1 14:1 15:1 16:0 17:0 18:0 19:0 20:0 21:0 22:0 23:0 24:0 25:0 26:0 27:0 28:0 29:0 30:0 31:0 32:0 33:0 34:0 35:0 36:0 37:0 38:0 39:0 40:0 41:1 42:1 43:1 44:1 45:0 46:0 47:1 48:1 49:1 50:1 51:0 52:0 
0.02334411919950133 1:0.41646968 2:0.13882323 3:0.13882323 4:0.13882323 5:1 6:1 7:1 8:1 9:1 10:1 11:1 12:1 13:1 14:1 15:1 16:1 17:0 18:0 19:0 20:0 21:0 22:0 23:0 24:0 25:0 26:0 27:0 28:0 29:0 30:0 31:0 32:0 33:0 34:0 35:0 36:0 37:0 38:0 39:0 40:0 41:0 42:0 43:0 44:0 45:0 46:0 47:0 48:0 49:0 50:0 51:0 52:0 
1 1:0.46093811 2:0.15364604 3:0.15364604 4:0.15364604 5:0 6:0 7:0 8:0 9:0 10:0 11:0 12:0 13:0 14:0 15:0 16:0 17:0 18:0 19:0 20:0 21:0 22:0 23:0 24:0 25:0 26:0 27:0 28:0 29:1 30:1 31:1 32:1 33:1 34:1 35:1 36:1 37:1 38:1 39:1 40:1 41:0 42:0 43:0 44:0 45:0 46:0 47:0 48:0 49:0 50:0 51:0 52:0 
0.006313177983524663 1:0.01423779 2:0.0015819766 3:0.0015819766 4:0.0015819766 5:0 6:0 7:0 8:0 9:0 10:0 11:1 12:1 13:1 14:1 15:1 16:1 17:1 18:1 19:1 20:1 21:1 22:1 23:1 24:1 25:1 26:0 27:1 28:1 29:1 30:1 31:1 32:1 33:1 34:1 35:1 36:1 37:1 38:1 39:1 40:1 41:1 42:1 43:1 44:1 45:1 46:1 47:0 48:0 49:0 50:1 51:1 52:0 
1 1:0.3394665 2:0.1131555 3:0.1131555 4:0.1131555 5:1 6:1 7:1 8:1 9:1 10:1 11:0 12:0 13:0 14:0 15:0 16:0 17:0 18:0 19:0 20:0 21:0 22:0 23:0 24:0 25:0 26:0 27:0 28:0 29:0 30:0 31:0 32:0 33:0 34:0 35:0 36:0 37:0 38:0 39:0 40:0 41:0 42:0 43:0 44:0 45:0 46:0 47:0 48:1 49:1 50:1 51:1 52:1 
0.1898167162478156 1:0.35524233 2:0.11841411 3:0.11841411 4:0.11841411 5:0 6:0 7:0 8:0 9:0 10:0 11:0 12:0 13:0 14:0 15:0 16:0 17:1 18:1 19:0 20:0 21:0 22:0 23:1 24:1 25:1 26:1 27:1 28:1 29:1 30:1 31:1 32:1 33:1 34:1 35:0 36:0 37:0 38:0 39:0 40:0 41:1 42:0 43:0 44:0 45:0 46:0 47:0 48:0 49:0 50:0 51:0 52:0 
0.4550919685459888 1:0.21898063 2:0.072993543 3:0.072993543 4:0.072993543 5:0 6:0 7:0 8:0 9:0 10:1 11:0 12:0 13:0 14:0 15:0 16:0 17:0 18:0 19:0 20:0 21:0 22:0 23:0 24:0 25:0 26:0 27:0 28:0 29:0 30:0 31:0 32:0 33:0 34:0 35:0 36:0 37:0 38:0 39:0 40:0 41:0 42:0 43:1 44:1 45:0 46:1 47:0 48:0 49:1 50:1 51:0 52:1 
0.2001033803354845 1:0.037329331 2:0.0062215552 3:0.0062215552 4:0.0062215552 5:1 6:1 7:1 8:1 9:1 10:1 11:1 12:1 13:1 14:1 15:1 16:1 17:1 18:1 19:1 20:1 21:1 22:1 23:1 24:1 25:1 26:1 27:1 28:1 29:0 30:0 31:0 32:0 33:0 34:0 35:0 36:0 37:0 38:0 39:0 40:0 41:1 42:1 43:1 44:1 45:1 46:1 47:0 48:0 49:0 50:1 51:1 52:0 
0.01512848075008302 1:0.10142615 2:0.0084521795 3:0.0084521795 4:0.0084521795 5:1 6:1 7:0 8:0 9:0 10:0 11:0 12:1 13:1 14:1 15:1 16:0 17:1 18:1 19:1 20:1 21:1 22:1 23:0 24:1 25:1 26:1 27:0 28:0 29:0 30:1 31:1 32:1 33:0 34:0 35:0 36:1 37:1 38:0 39:0 40:0 41:0 42:1 43:1 44:0 45:0 46:0 47:0 48:1 49:1 50:1 51:1 52:1 
1 1:0.38765645 2:0.12921882 3:0.12921882 4:0.12921882 5:1 6:1 7:1 8:1 9:0 10:0 11:1 12:1 13:1 14:1 15:1 16:1 17:0 18:0 19:0 20:0 21:0 22:0 23:0 24:0 25:0 26:0 27:0 28:0 29:0 30:0 31:0 32:0 33:0 34:0 35:0 36:0 37:0 38:0 39:0 40:0 41:0 42:0 43:0 44:0 45:0 46:0 47:0 48:0 49:0 50:0 51:0 52:0 
0.7583305629247324 1:0.19328413 2:0.064428045 3:0.064428045 4:0.064428045 5:1 6:1 7:1 8:1 9:1 10:1 11:1 12:1 13:1 14:1 15:1 16:1 17:0 18:0 19:0 20:0 21:0 22:0 23:1 24:1 25:1 26:0 27:0 28:0 29:1 30:1 31:1 32:0 33:0 34:0 35:0 36:0 37:0 38:0 39:0 40:0 41:0 42:0 43:0 44:0 45:0 46:0 47:0 48:0 49:0 50:0 51:0 52:0 
1 1:0.22766899 2:0.075889665 3:0.075889665 4:0.075889665 5:1 6:1 7:1 8:1 9:1 10:1 11:1 12:1 13:1 14:1 15:1 16:1 17:0 18:0 19:0 20:0 21:0 22:0 23:1 24:1 25:1 26:0 27:0 28:0 29:0 30:0 31:0 32:0 33:0 34:0 35:0 36:0 37:0 38:0 39:0 40:0 41:0 42:0 43:0 44:0 45:0 46:0 47:0 48:0 49:0 50:0 51:0 52:0 
1 1:0.25677099 2:0.085590331 3:0.085590331 4:0.085590331 5:1 6:0 7:1 8:1 9:0 10:0 11:1 12:1 13:1 14:1 15:1 16:1 17:1 18:1 19:1 20:1 21:1 22:1 23:1 24:1 25:1 26:1 27:1 28:1 29:1 30:1 31:1 32:1 33:1 34:1 35:1 36:1 37:1 38:1 39:1 40:1 41:0 42:0 43:0 44:0 45:0 46:0 47:0 48:0 49:0 50:0 51:0 52:0 
1 1:0.22397909 2:0.074659698 3:0.074659698 4:0.074659698 5:1 6:1 7:1 8:1 9:1 10:1 11:1 12:1 13:0 14:0 15:0 16:0 17:0 18:0 19:0 20:0 21:0 22:0 23:0 24:0 25:0 26:0 27:0 28:0 29:1 30:1 31:1 32:1 33:1 34:1 35:1 36:1 37:1 38:1 39:1 40:1 41:0 42:0 43:0 44:0 45:0 46:0 47:0 48:0 49:0 50:0 51:0 52:0 
0.02448368624080674 1:0.1179287 2:0.016846958 3:0.016846958 4:0.016846958 5:1 6:1 7:0 8:0 9:0 10:0 11:1 12:1 13:1 14:0 15:0 16:0 17:1 18:1 19:1 20:0 21:1 22:1 23:1 24:1 25:0 26:0 27:0 28:0 29:0 30:0 31:0 32:0 33:0 34:0 35:0 36:0 37:0 38:0 39:0 40:0 41:0 42:0 43:0 44:0 45:0 46:0 47:0 48:0 49:1 50:1 51:0 52:1 
0.7304402427017695 1:0.28408707 2:0.094695688 3:0.094695688 4:0.094695688 5:1 6:1 7:1 8:1 9:1 10:1 11:0 12:0 13:1 14:1 15:1 16:1 17:0 18:0 19:0 20:0 21:0 22:0 23:0 24:0 25:0 26:0 27:0 28:0 29:0 30:0 31:0 32:0 33:0 34:0 35:0 36:0 37:0 38:0 39:0 40:0 41:0 42:0 43:0 44:0 45:0 46:0 47:0 48:0 49:0 50:1 51:1 52:0 
0.8361739118917664 1:0.26313978 2:0.087713259 3:0.087713259 4:0.087713259 5:0 6:0 7:0 8:0 9:0 10:0 11:0 12:1 13:1 14:1 15:0 16:1 17:0 18:0 19:0 20:0 21:0 22:0 23:0 24:0 25:0 26:0 27:0 28:0 29:0 30:0 31:0 32:0 33:0 34:0 35:0 36:0 37:0 38:0 39:0 40:0 41:0 42:0 43:0 44:0 45:0 46:0 47:1 48:1 49:1 50:1 51:1 52:1 
0.818000356859835 1:0.40127037 2:0.13375679 3:0.13375679 4:0.13375679 5:0 6:0 7:0 8:0 9:0 10:0 11:0 12:0 13:0 14:0 15:0 16:0 17:0 18:1 19:1 20:1 21:1 22:1 23:0 24:1 25:1 26:1 27:1 28:1 29:0 30:1 31:1 32:1 33:0 34:0 35:0 36:0 37:0 38:0 39:0 40:0 41:0 42:0 43:0 44:0 45:0 46:0 47:0 48:0 49:0 50:0 51:0 52:0 
0.8864146398925022 1:0.32136942 2:0.10712314 3:0.10712314 4:0.10712314 5:0 6:1 7:0 8:0 9:0 10:0 11:1 12:1 13:1 14:1 15:1 16:1 17:1 18:1 19:1 20:1 21:1 22:1 23:1 24:1 25:1 26:1 27:1 28:1 29:1 30:1 31:1 32:1 33:1 34:1 35:0 36:0 37:0 38:0 39:0 40:0 41:0 42:0 43:0 44:0 45:0 46:0 47:0 48:0 49:0 50:0 51:0 52:0 
0.7530754619822452 1:0.62975013 2:0.20991671 3:0.20991671 4:0.20991671 5:0 6:0 7:1 8:1 9:0 10:1 11:0 12:0 13:1 14:1 15:0 16:1 17:0 18:0 19:0 20:0 21:0 22:0 23:0 24:0 25:1 26:1 27:0 28:0 29:0 30:0 31:0 32:0 33:0 34:0 35:0 36:0 37:0 38:0 39:0 40:0 41:0 42:0 43:0 44:0 45:0 46:0 47:0 48:0 49:0 50:0 51:0 52:0 
0.3215587585069756 1:0.07429967 2:0.024766557 3:0.024766557 4:0.024766557 5:1 6:1 7:1 8:1 9:1 10:1 11:0 12:0 13:0 14:0 15:0 16:0 17:0 18:0 19:0 20:0 21:0 22:0 23:0 24:0 25:0 26:0 27:0 28:0 29:0 30:0 31:0 32:0 33:0 34:0 35:0 36:0 37:0 38:0 39:0 40:0 41:1 42:1 43:1 44:1 45:1 46:1 47:1 48:1 49:1 50:1 51:1 52:1 
0.1233008605120223 1:0.015917202 2:0.001768578 3:0.001768578 4:0.001768578 5:0 6:0 7:0 8:0 9:0 10:0 11:0 12:0 13:0 14:0 15:0 16:0 17:1 18:1 19:1 20:1 21:1 22:1 23:0 24:0 25:0 26:0 27:0 28:0 29:0 30:1 31:1 32:1 33:0 34:0 35:0 36:1 37:1 38:1 39:0 40:0 41:1 42:1 43:1 44:1 45:1 46:1 47:0 48:0 49:1 50:1 51:0 52:1 
0.9982712395582513 1:0.20372893 2:0.067909644 3:0.067909644 4:0.067909644 5:1 6:1 7:1 8:1 9:1 10:1 11:1 12:1 13:1 14:1 15:1 16:1 17:0 18:0 19:0 20:0 21:1 22:1 23:0 24:0 25:0 26:0 27:0 28:0 29:0 30:0 31:0 32:0 33:0 34:0 35:1 36:1 37:1 38:1 39:1 40:1 41:1 42:1 43:1 44:1 45:1 46:1 47:1 48:1 49:1 50:1 51:1 52:1 
0.8735707575904811 1:0.36679511 2:0.12226503 3:0.12226503 4:0.12226503 5:0 6:0 7:0 8:0 9:0 10:0 11:1 12:1 13:0 14:0 15:0 16:0 17:1 18:1 19:1 20:1 21:1 22:1 23:1 24:1 25:1 26:1 27:1 28:1 29:0 30:0 31:0 32:0 33:0 34:0 35:0 36:0 37:0 38:0 39:0 40:0 41:0 42:0 43:0 44:0 45:0 46:0 47:0 48:0 49:0 50:0 51:0 52:0 
0.1229057414972048 1:0.053447345 2:0.0066809181 3:0.0066809181 4:0.0066809181 5:1 6:1 7:0 8:0 9:0 10:0 11:1 12:1 13:1 14:1 15:1 16:1 17:0 18:0 19:0 20:0 21:0 22:0 23:0 24:0 25:0 26:0 27:0 28:0 29:0 30:0 31:0 32:0 33:0 34:0 35:0 36:0 37:1 38:1 39:1 40:1 41:0 42:0 43:1 44:1 45:1 46:1 47:1 48:1 49:1 50:1 51:1 52:1 
0.07086570041440597 1:0.070324517 2:0.0037012904 3:0.0037012904 4:0.0037012904 5:1 6:1 7:1 8:1 9:1 10:1 11:1 12:1 13:1 14:1 15:1 16:1 17:1 18:1 19:1 20:0 21:0 22:0 23:0 24:1 25:1 26:1 27:1 28:0 29:0 30:0 31:0 32:0 33:0 34:0 35:0 36:0 37:0 38:1 39:1 40:0 41:1 42:1 43:1 44:1 45:1 46:1 47:1 48:1 49:1 50:1 51:1 52:1 
0.5113884717887384 1:0.50267869 2:0.16755956 3:0.16755956 4:0.16755956 5:1 6:1 7:1 8:1 9:1 10:1 11:0 12:0 13:0 14:0 15:0 16:0 17:0 18:1 19:1 20:1 21:0 22:0 23:0 24:0 25:0 26:0 27:0 28:0 29:0 30:0 31:0 32:0 33:0 34:0 35:0 36:0 37:0 38:0 39:0 40:0 41:0 42:0 43:0 44:0 45:0 46:0 47:0 48:0 49:0 50:0 51:0 52:0 
1 1:0.48208504 2:0.16069501 3:0.16069501 4:0.16069501 5:0 6:0 7:0 8:0 9:1 10:1 11:1 12:1 13:1 14:1 15:1 16:1 17:1 18:1 19:1 20:1 21:1 22:1 23:0 24:0 25:0 26:0 27:0 28:0 29:0 30:0 31:0 32:0 33:0 34:0 35:0 36:0 37:0 38:0 39:0 40:0 41:0 42:0 43:0 44:0 45:0 46:0 47:0 48:0 49:0 50:0 51:0 52:0 
1 1:0.0016847217 2:0.00056157391 3:0.00056157391 4:0.00056157391 5:0 6:0 7:0 8:0 9:0 10:0 11:1 12:1 13:1 14:1 15:1 16:1 17:1 18:1 19:1 20:1 21:1 22:1 23:0 24:0 25:0 26:0 27:0 28:0 29:1 30:1 31:1 32:1 33:1 34:1 35:1 36:1 37:1 38:1 39:1 40:1 41:0 42:0 43:0 44:0 45:0 46:0 47:1 48:1 49:1 50:1 51:1 52:1 
1 1:0.023680751 2:0.0078935838 3:0.0078935838 4:0.0078935838 5:0 6:0 7:0 8:0 9:0 10:0 11:1 12:1 13:1 14:1 15:1 16:1 17:1 18:1 19:1 20:1 21:1 22:1 23:0 24:0 25:0 26:0 27:0 28:0 29:1 30:1 31:1 32:1 33:1 34:1 35:1 36:1 37:1 38:1 39:1 40:1 41:1 42:1 43:1 44:1 45:1 46:1 47:0 48:0 49:0 50:0 51:0 52:0 
0.01756675734242152 1:0.077882573 2:0.015576515 3:0.015576515 4:0.015576515 5:1 6:1 7:0 8:0 9:0 10:1 11:0 12:0 13:0 14:0 15:0 16:0 17:0 18:0 19:0 20:0 21:0 22:0 23:0 24:0 25:0 26:0 27:0 28:0 29:1 30:1 31:1 32:1 33:1 34:1 35:1 36:1 37:1 38:1 39:1 40:1 41:0 42:0 43:0 44:0 45:0 46:0 47:1 48:1 49:1 50:1 51:1 52:1 
0.1798410303287949 1:0.41766313 2:0.13922104 3:0.13922104 4:0.13922104 5:1 6:1 7:1 8:0 9:0 10:0 11:0 12:0 13:0 14:0 15:0 16:0 17:0 18:0 19:0 20:0 21:0 22:0 23:0 24:0 25:0 26:0 27:0 28:0 29:0 30:0 31:0 32:0 33:0 34:0 35:0 36:0 37:0 38:0 39:0 40:0 41:0 42:0 43:0 44:0 45:0 46:0 47:1 48:1 49:1 50:1 51:1 52:1 
1 1:0.16431774 2:0.041079436 3:0.041079436 4:0.041079436 5:1 6:1 7:1 8:1 9:1 10:1 11:1 12:1 13:1 14:1 15:1 16:1 17:0 18:0 19:0 20:0 21:0 22:0 23:0 24:0 25:0 26:0 27:0 28:0 29:1 30:1 31:1 32:1 33:1 34:1 35:1 36:1 37:1 38:1 39:1 40:1 41:0 42:0 43:0 44:0 45:0 46:0 47:0 48:0 49:0 50:0 51:1 52:1 
0.3351666568794279 1:0.29278109 2:0.097593695 3:0.097593695 4:0.097593695 5:0 6:0 7:0 8:0 9:0 10:0 11:1 12:1 13:0 14:0 15:0 16:0 17:1 18:1 19:1 20:1 21:1 22:1 23:0 24:0 25:0 26:0 27:0 28:0 29:1 30:1 31:1 32:1 33:1 34:1 35:0 36:0 37:0 38:0 39:0 40:0 41:0 42:0 43:0 44:0 45:0 46:0 47:0 48:0 49:0 50:0 51:0 52:0 
0.9213380606030468 1:0.302445 2:0.100815 3:0.100815 4:0.100815 5:0 6:0 7:1 8:1 9:0 10:0 11:1 12:1 13:1 14:1 15:1 16:1 17:1 18:1 19:1 20:1 21:1 22:1 23:0 24:0 25:0 26:0 27:0 28:0 29:0 30:0 31:0 32:0 33:0 34:0 35:0 36:0 37:0 38:0 39:0 40:0 41:0 42:0 43:0 44:0 45:0 46:0 47:0 48:0 49:0 50:0 51:0 52:0 
0.4565182665427729 1:0.0095570518 2:0.0031856839 3:0.0031856839 4:0.0031856839 5:0 6:0 7:0 8:0 9:0 10:0 11:1 12:1 13:1 14:1 15:1 16:1 17:0 18:0 19:0 20:0 21:0 22:0 23:0 24:0 25:0 26:0 27:0 28:0 29:0 30:0 31:0 32:0 33:0 34:0 35:0 36:0 37:0 38:0 39:0 40:0 41:0 42:0 43:0 44:0 45:1 46:1 47:1 48:1 49:1 50:1 51:1 52:1 
1 1:0.62652458 2:0.20884153 3:0.20884153 4:0.20884153 5:1 6:1 7:1 8:1 9:1 10:1 11:1 12:1 13:1 14:1 15:1 16:1 17:0 18:0 19:0 20:0 21:0 22:0 23:0 24:0 25:0 26:0 27:0 28:0 29:0 30:0 31:0 32:0 33:0 34:0 35:0 36:0 37:0 38:0 39:0 40:0 41:0 42:0 43:0 44:0 45:0 46:0 47:0 48:0 49:0 50:0 51:0 52:0 
0.3867725558614309 1:0.019722881 2:0.0065742936 3:0.0065742936 4:0.0065742936 5:1 6:1 7:1 8:1 9:1 10:1 11:0 12:0 13:0 14:0 15:0 16:0 17:0 18:0 19:0 20:0 21:0 22:0 23:1 24:1 25:1 26:1 27:1 28:1 29:1 30:1 31:1 32:1 33:1 34:1 35:0 36:0 37:0 38:0 39:0 40:0 41:0 42:0 43:0 44:0 45:0 46:0 47:1 48:1 49:1 50:1 51:1 52:1 
1 1:0.22528109 2:0.075093696 3:0.075093696 4:0.075093696 5:0 6:0 7:0 8:0 9:0 10:0 11:1 12:1 13:1 14:1 15:1 16:1 17:0 18:0 19:0 20:0 21:0 22:0 23:0 24:0 25:0 26:0 27:0 28:0 29:0 30:0 31:0 32:0 33:0 34:0 35:0 36:0 37:0 38:0 39:0 40:0 41:1 42:1 43:1 44:1 45:1 46:1 47:1 48:1 49:1 50:1 51:1 52:1 
0.1838802895664192 1:0.1032109 2:0.020642181 3:0.020642181 4:0.020642181 5:0 6:0 7:0 8:0 9:0 10:0 11:1 12:1 13:1 14:1 15:1 16:1 17:1 18:1 19:1 20:1 21:1 22:1 23:0 24:0 25:0 26:0 27:0 28:0 29:0 30:0 31:0 32:0 33:0 34:0 35:0 36:1 37:1 38:1 39:1 40:1 41:0 42:1 43:1 44:1 45:1 46:1 47:0 48:1 49:1 50:0 51:0 52:0 
1 1:0.55089647 2:0.18363216 3:0.18363216 4:0.18363216 5:0 6:0 7:1 8:1 9:0 10:0 11:0 12:0 13:0 14:0 15:0 16:0 17:0 18:0 19:0 20:0 21:0 22:0 23:0 24:0 25:0 26:0 27:0 28:0 29:0 30:0 31:0 32:0 33:0 34:0 35:0 36:0 37:0 38:0 39:0 40:0 41:0 42:0 43:0 44:0 45:0 46:0 47:1 48:1 49:1 50:1 51:1 52:1 
1 1:0.22442488 2:0.074808294 3:0.074808294 4:0.074808294 5:0 6:0 7:0 8:0 9:0 10:0 11:0 12:0 13:0 14:0 15:0 16:0 17:1 18:1 19:1 20:0 21:0 22:0 23:1 24:1 25:1 26:1 27:1 28:1 29:1 30:1 31:1 32:1 33:1 34:1 35:1 36:1 37:1 38:1 39:1 40:1 41:1 42:1 43:1 44:1 45:1 46:1 47:1 48:1 49:1 50:1 51:1 52:1 
1 1:0.52716944 2:0.17572315 3:0.17572315 4:0.17572315 5:0 6:0 7:0 8:0 9:0 10:0 11:1 12:1 13:1 14:1 15:1 16:1 17:1 18:1 19:1 20:1 21:1 22:1 23:0 24:0 25:0 26:0 27:0 28:0 29:0 30:0 31:0 32:0 33:0 34:0 35:0 36:0 37:0 38:0 39:0 40:0 41:0 42:0 43:0 44:0 45:0 46:0 47:0 48:0 49:0 50:0 51:0 52:0 
0.7092321082500188 1:0.13591645 2:0.045305484 3:0.045305484 4:0.045305484 5:0 6:0 7:0 8:0 9:0 10:0 11:1 12:1 13:1 14:1 15:1 16:1 17:1 18:1 19:1 20:1 21:1 22:1 23:0 24:0 25:0 26:0 27:0 28:0 29:0 30:0 31:0 32:0 33:0 34:0 35:0 36:0 37:0 38:0 39:0 40:0 41:0 42:0 43:0 44:0 45:0 46:0 47:1 48:1 49:1 50:1 51:1 52:1 
1 1:0.03631749 2:0.0072634981 3:0.0072634981 4:0.0072634981 5:0 6:1 7:1 8:1 9:1 10:1 11:0 12:1 13:1 14:1 15:1 16:0 17:0 18:0 19:0 20:0 21:0 22:0 23:0 24:0 25:0 26:0 27:0 28:0 29:1 30:1 31:1 32:1 33:1 34:1 35:1 36:1 37:1 38:1 39:1 40:1 41:0 42:0 43:0 44:0 45:0 46:0 47:0 48:1 49:1 50:1 51:1 52:0 
0.933394228019588 1:0.84236622 2:0.28078874 3:0.28078874 4:0.28078874 5:0 6:0 7:0 8:0 9:0 10:0 11:0 12:0 13:0 14:0 15:1 16:1 17:0 18:0 19:0 20:0 21:0 22:1 23:0 24:0 25:0 26:0 27:0 28:1 29:0 30:0 31:0 32:0 33:0 34:0 35:0 36:0 37:0 38:0 39:0 40:0 41:0 42:0 43:0 44:0 45:0 46:0 47:0 48:0 49:0 50:0 51:0 52:0 
0.3658294907731847 1:0.59495723 2:0.19831908 3:0.19831908 4:0.19831908 5:0 6:0 7:0 8:0 9:0 10:0 11:0 12:0 13:0 14:0 15:0 16:0 17:0 18:0 19:0 20:0 21:0 22:0 23:0 24:0 25:0 26:0 27:0 28:0 29:0 30:0 31:0 32:0 33:0 34:0 35:1 36:1 37:0 38:1 39:1 40:1 41:1 42:1 43:0 44:1 45:1 46:1 47:0 48:0 49:0 50:0 51:0 52:0 
0.2732166645415642 1:0.042110596 2:0.0060157995 3:0.0060157995 4:0.0060157995 5:0 6:0 7:0 8:0 9:0 10:1 11:0 12:0 13:0 14:0 15:0 16:0 17:1 18:1 19:1 20:1 21:1 22:1 23:0 24:0 25:0 26:0 27:0 28:0 29:1 30:1 31:1 32:1 33:1 34:1 35:0 36:0 37:0 38:0 39:0 40:0 41:1 42:1 43:1 44:1 45:1 46:1 47:1 48:1 49:1 50:1 51:1 52:1 
0.01607479098504551 1:0.10728367 2:0.021456735 3:0.021456735 4:0.021456735 5:0 6:0 7:0 8:0 9:0 10:0 11:0 12:0 13:0 14:0 15:0 16:0 17:0 18:0 19:0 20:0 21:0 22:0 23:0 24:0 25:0 26:0 27:0 28:0 29:1 30:1 31:1 32:1 33:1 34:0 35:0 36:0 37:0 38:0 39:1 40:1 41:0 42:1 43:1 44:1 45:1 46:1 47:0 48:1 49:1 50:1 51:1 52:1 
0.1137376346275477 1:0.3084551 2:0.10281837 3:0.10281837 4:0.10281837 5:0 6:0 7:1 8:1 9:0 10:0 11:0 12:0 13:0 14:0 15:0 16:0 17:0 18:0 19:0 20:0 21:0 22:0 23:0 24:0 25:0 26:1 27:0 28:0 29:0 30:0 31:0 32:1 33:0 34:0 35:0 36:0 37:0 38:0 39:0 40:0 41:0 42:0 43:0 44:0 45:0 46:0 47:1 48:1 49:1 50:1 51:1 52:1 
0.008454963431422569 1:0.069890987 2:0.017472747 3:0.017472747 4:0.017472747 5:0 6:0 7:0 8:0 9:0 10:0 11:0 12:0 13:0 14:0 15:0 16:0 17:1 18:1 19:1 20:1 21:1 22:1 23:1 24:1 25:1 26:1 27:1 28:1 29:0 30:0 31:0 32:0 33:0 34:0 35:0 36:0 37:0 38:0 39:0 40:0 41:0 42:0 43:1 44:1 45:0 46:0 47:1 48:1 49:1 50:1 51:1 52:1 
0.5034366147123348 1:0.43052512 2:0.14350837 3:0.14350837 4:0.14350837 5:0 6:0 7:0 8:0 9:0 10:0 11:0 12:0 13:0 14:1 15:1 16:1 17:0 18:0 19:0 20:0 21:0 22:0 23:0 24:0 25:0 26:0 27:0 28:0 29:0 30:0 31:0 32:0 33:0 34:0 35:1 36:1 37:1 38:1 39:1 40:1 41:0 42:0 43:0 44:0 45:0 46:0 47:0 48:0 49:0 50:0 51:0 52:0 
0.3314550825370397 1:0.050759497 2:0.010151899 3:0.010151899 4:0.010151899 5:1 6:0 7:0 8:0 9:0 10:0 11:0 12:0 13:0 14:0 15:0 16:0 17:1 18:1 19:1 20:1 21:1 22:1 23:1 24:1 25:1 26:1 27:1 28:1 29:1 30:1 31:1 32:1 33:1 34:1 35:0 36:0 37:0 38:0 39:0 40:0 41:1 42:1 43:1 44:1 45:1 46:1 47:1 48:1 49:1 50:1 51:1 52:1 
0.2131753875071362 1:0.4266597 2:0.1422199 3:0.1422199 4:0.1422199 5:0 6:0 7:0 8:0 9:0 10:0 11:0 12:0 13:0 14:0 15:0 16:0 17:0 18:0 19:1 20:0 21:0 22:0 23:0 24:0 25:0 26:0 27:0 28:0 29:0 30:0 31:0 32:0 33:0 34:0 35:0 36:0 37:0 38:0 39:0 40:0 41:0 42:0 43:0 44:0 45:0 46:0 47:0 48:0 49:1 50:1 51:1 52:1 
0.1155552222372033 1:0.13751295 2:0.034378236 3:0.034378236 4:0.034378236 5:1 6:1 7:1 8:1 9:0 10:1 11:1 12:1 13:1 14:1 15:0 16:0 17:0 18:0 19:0 20:0 21:0 22:0 23:0 24:0 25:0 26:0 27:0 28:0 29:0 30:0 31:0 32:0 33:0 34:0 35:1 36:1 37:1 38:1 39:1 40:1 41:0 42:0 43:0 44:0 45:0 46:0 47:0 48:0 49:0 50:0 51:0 52:0 
0.6659985946962012 1:0.3060232 2:0.076505799 3:0.076505799 4:0.076505799 5:1 6:1 7:1 8:1 9:1 10:1 11:1 12:1 13:1 14:1 15:1 16:1 17:0 18:0 19:0 20:0 21:0 22:0 23:0 24:0 25:0 26:0 27:0 28:0 29:0 30:0 31:1 32:1 33:0 34:0 35:0 36:0 37:1 38:1 39:0 40:0 41:0 42:0 43:0 44:0 45:0 46:0 47:1 48:1 49:1 50:1 51:1 52:1 
0.8346512576471667 1:0.13571529 2:0.045238429 3:0.045238429 4:0.045238429 5:1 6:1 7:1 8:1 9:1 10:1 11:1 12:1 13:1 14:1 15:1 16:1 17:1 18:1 19:1 20:1 21:1 22:1 23:0 24:0 25:0 26:0 27:0 28:0 29:0 30:0 31:0 32:0 33:0 34:0 35:0 36:0 37:0 38:0 39:0 40:0 41:0 42:0 43:0 44:0 45:0 46:0 47:1 48:1 49:1 50:1 51:1 52:1 
1 1:0.29182358 2:0.097274527 3:0.097274527 4:0.097274527 5:1 6:1 7:1 8:1 9:1 10:1 11:1 12:1 13:1 14:1 15:1 16:1 17:0 18:0 19:0 20:0 21:0 22:0 23:0 24:0 25:0 26:0 27:0 28:0 29:0 30:0 31:0 32:0 33:0 34:0 35:0 36:0 37:0 38:0 39:0 40:0 41:0 42:0 43:0 44:0 45:0 46:0 47:1 48:1 49:1 50:1 51:1 52:1 
0.5938432901336383 1:0.29719897 2:0.099066322 3:0.099066322 4:0.099066322 5:1 6:1 7:1 8:1 9:1 10:1 11:0 12:0 13:1 14:1 15:1 16:1 17:0 18:0 19:0 20:0 21:0 22:0 23:0 24:0 25:0 26:0 27:0 28:0 29:0 30:0 31:0 32:0 33:0 34:0 35:0 36:0 37:0 38:0 39:0 40:0 41:0 42:0 43:0 44:0 45:0 46:0 47:0 48:0 49:0 50:0 51:1 52:1 
1 1:0.42622196 2:0.14207399 3:0.14207399 4:0.14207399 5:0 6:0 7:1 8:1 9:0 10:0 11:0 12:0 13:0 14:0 15:0 16:0 17:0 18:0 19:0 20:0 21:0 22:0 23:0 24:0 25:0 26:0 27:0 28:0 29:0 30:0 31:0 32:0 33:0 34:0 35:0 36:0 37:0 38:0 39:0 40:0 41:0 42:0 43:0 44:0 45:1 46:1 47:0 48:0 49:0 50:1 51:1 52:1 
0.132984172952301 1:0.036213366 2:0.0090533416 3:0.0090533416 4:0.0090533416 5:0 6:0 7:1 8:1 9:0 10:0 11:1 12:1 13:1 14:1 15:1 16:1 17:1 18:1 19:1 20:1 21:1 22:1 23:0 24:0 25:1 26:1 27:0 28:0 29:0 30:0 31:0 32:0 33:0 34:0 35:0 36:0 37:0 38:0 39:0 40:0 41:1 42:1 43:1 44:1 45:1 46:1 47:0 48:0 49:0 50:0 51:0 52:0 
1 1:0.11009946 2:0.036699818 3:0.036699818 4:0.036699818 5:1 6:1 7:1 8:1 9:1 10:1 11:0 12:0 13:0 14:0 15:0 16:0 17:0 18:0 19:0 20:0 21:0 22:0 23:0 24:0 25:0 26:0 27:0 28:0 29:0 30:0 31:0 32:0 33:0 34:0 35:0 36:0 37:0 38:0 39:0 40:0 41:1 42:1 43:1 44:1 45:1 46:1 47:1 48:1 49:1 50:1 51:1 52:1 
0.06667015303593271 1:0.048486856 2:0.0080811426 3:0.0080811426 4:0.0080811426 5:0 6:0 7:1 8:1 9:1 10:0 11:0 12:1 13:1 14:1 15:1 16:0 17:1 18:1 19:1 20:1 21:0 22:0 23:1 24:1 25:1 26:1 27:0 28:0 29:1 30:1 31:1 32:1 33:1 34:0 35:0 36:0 37:0 38:0 39:0 40:0 41:0 42:0 43:0 44:0 45:0 46:0 47:0 48:1 49:1 50:1 51:1 52:1 
0.4574346974766543 1:0.060424878 2:0.020141626 3:0.020141626 4:0.020141626 5:0 6:0 7:0 8:0 9:0 10:0 11:0 12:0 13:0 14:0 15:0 16:0 17:1 18:1 19:1 20:1 21:1 22:1 23:0 24:0 25:0 26:0 27:0 28:0 29:1 30:1 31:1 32:1 33:1 34:1 35:1 36:1 37:1 38:1 39:1 40:1 41:0 42:0 43:0 44:0 45:0 46:0 47:0 48:0 49:0 50:0 51:0 52:0 
0.9457307395955588 1:0.31277038 2:0.10425679 3:0.10425679 4:0.10425679 5:1 6:1 7:1 8:1 9:1 10:1 11:1 12:1 13:1 14:1 15:1 16:1 17:0 18:0 19:0 20:0 21:0 22:0 23:0 24:0 25:0 26:0 27:0 28:0 29:1 30:1 31:0 32:0 33:0 34:0 35:0 36:0 37:0 38:0 39:0 40:0 41:0 42:0 43:0 44:0 45:0 46:0 47:0 48:0 49:0 50:0 51:0 52:0 
0.4389799256532054 1:0.57564371 2:0.19188124 3:0.19188124 4:0.19188124 5:0 6:0 7:0 8:0 9:0 10:0 11:0 12:0 13:0 14:0 15:0 16:0 17:0 18:0 19:0 20:0 21:0 22:0 23:0 24:1 25:1 26:0 27:0 28:0 29:0 30:1 31:1 32:1 33:0 34:0 35:0 36:1 37:1 38:1 39:1 40:0 41:0 42:0 43:0 44:0 45:0 46:0 47:0 48:0 49:0 50:0 51:0 52:0 
0.2240199952785502 1:0.05169658 2:0.012924145 3:0.012924145 4:0.012924145 5:0 6:0 7:0 8:0 9:0 10:0 11:0 12:0 13:0 14:0 15:0 16:0 17:1 18:1 19:1 20:1 21:1 22:1 23:0 24:0 25:0 26:1 27:1 28:1 29:1 30:1 31:1 32:1 33:0 34:0 35:1 36:1 37:1 38:1 39:0 40:0 41:0 42:0 43:0 44:0 45:0 46:0 47:0 48:0 49:0 50:1 51:1 52:0 
1 1:0.46796224 2:0.15598741 3:0.15598741 4:0.15598741 5:0 6:0 7:0 8:0 9:0 10:0 11:1 12:1 13:0 14:0 15:0 16:0 17:0 18:0 19:0 20:0 21:0 22:0 23:0 24:0 25:0 26:0 27:0 28:0 29:0 30:0 31:0 32:0 33:0 34:0 35:0 36:0 37:0 38:0 39:0 40:0 41:0 42:0 43:0 44:0 45:0 46:0 47:1 48:1 49:1 50:1 51:1 52:1 
0.03460866721695164 1:0.050310921 2:0.0071872744 3:0.0071872744 4:0.0071872744 5:1 6:1 7:1 8:1 9:1 10:1 11:0 12:0 13:0 14:0 15:0 16:0 17:1 18:1 19:1 20:1 21:1 22:1 23:1 24:1 25:1 26:1 27:1 28:1 29:0 30:0 31:0 32:0 33:0 34:0 35:1 36:1 37:1 38:1 39:1 40:1 41:1 42:1 43:1 44:1 45:1 46:1 47:0 48:0 49:0 50:0 51:0 52:0 
0.547831506560952 1:0.25875706 2:0.086252353 3:0.086252353 4:0.086252353 5:1 6:1 7:1 8:1 9:1 10:1 11:0 12:0 13:0 14:0 15:0 16:0 17:1 18:1 19:0 20:0 21:0 22:0 23:1 24:1 25:0 26:0 27:0 28:0 29:0 30:0 31:0 32:0 33:0 34:0 35:0 36:0 37:0 38:0 39:0 40:0 41:0 42:0 43:0 44:0 45:0 46:0 47:0 48:0 49:0 50:0 51:0 52:0 
0.6132253034345283 1:0.48385363 2:0.16128454 3:0.16128454 4:0.16128454 5:1 6:1 7:0 8:0 9:0 10:0 11:0 12:0 13:0 14:0 15:0 16:0 17:0 18:0 19:0 20:0 21:0 22:0 23:0 24:0 25:0 26:0 27:0 28:0 29:0 30:0 31:1 32:1 33:0 34:0 35:1 36:1 37:1 38:1 39:1 40:1 41:0 42:0 43:0 44:0 45:0 46:0 47:0 48:0 49:0 50:0 51:0 52:0 
0.247006426636727 1:0.016449047 2:0.0054830158 3:0.0054830158 4:0.0054830158 5:1 6:1 7:1 8:1 9:1 10:1 11:1 12:1 13:1 14:1 15:1 16:1 17:1 18:1 19:1 20:1 21:1 22:1 23:1 24:1 25:1 26:1 27:1 28:1 29:0 30:0 31:1 32:1 33:1 34:1 35:0 36:0 37:1 38:1 39:1 40:1 41:0 42:0 43:1 44:1 45:1 46:1 47:0 48:0 49:0 50:0 51:1 52:1 
0.1116856073250767 1:0.023176484 2:0.0038627474 3:0.0038627474 4:0.0038627474 5:0 6:0 7:0 8:0 9:0 10:0 11:1 12:1 13:1 14:1 15:1 16:1 17:0 18:0 19:0 20:0 21:0 22:0 23:1 24:1 25:1 26:1 27:1 28:1 29:1 30:1 31:1 32:1 33:1 34:1 35:0 36:0 37:0 38:0 39:0 40:0 41:1 42:1 43:1 44:1 45:1 46:1 47:1 48:1 49:1 50:1 51:1 52:1 
0.03397137513858138 1:0.052331469 2:0.010466294 3:0.010466294 4:0.010466294 5:1 6:1 7:1 8:1 9:1 10:1 11:1 12:1 13:1 14:1 15:1 16:1 17:1 18:1 19:1 20:1 21:1 22:1 23:0 24:0 25:0 26:0 27:0 28:0 29:0 30:0 31:0 32:0 33:0 34:0 35:0 36:0 37:0 38:0 39:0 40:0 41:1 42:1 43:1 44:1 45:0 46:0 47:0 48:0 49:0 50:0 51:0 52:0 
0.9291566537359778 1:0.58078831 2:0.1935961 3:0.1935961 4:0.1935961 5:1 6:0 7:0 8:0 9:1 10:1 11:1 12:0 13:0 14:0 15:1 16:1 17:0 18:0 19:0 20:0 21:0 22:0 23:0 24:0 25:0 26:0 27:0 28:0 29:0 30:0 31:0 32:0 33:0 34:0 35:0 36:0 37:0 38:0 39:0 40:0 41:0 42:0 43:0 44:0 45:0 46:0 47:0 48:0 49:0 50:0 51:0 52:0 
1 1:0.29854314 2:0.09951438 3:0.09951438 4:0.09951438 5:0 6:0 7:0 8:0 9:0 10:0 11:1 12:1 13:1 14:1 15:1 16:1 17:0 18:0 19:0 20:0 21:0 22:1 23:1 24:1 25:1 26:1 27:1 28:1 29:0 30:0 31:0 32:0 33:0 34:0 35:0 36:0 37:0 38:0 39:0 40:0 41:0 42:0 43:0 44:0 45:0 46:0 47:0 48:0 49:0 50:0 51:0 52:0 
0.0698356170816094 1:0.065528187 2:0.0093611696 3:0.0093611696 4:0.0093611696 5:1 6:1 7:0 8:0 9:1 10:1 11:1 12:0 13:0 14:0 15:0 16:0 17:1 18:1 19:1 20:1 21:1 22:1 23:1 24:0 25:0 26:0 27:0 28:0 29:1 30:0 31:0 32:0 33:0 34:0 35:1 36:0 37:0 38:0 39:0 40:0 41:1 42:0 43:0 44:0 45:0 46:0 47:1 48:0 49:0 50:0 51:0 52:1 
1 1:0.66590452 2:0.22196817 3:0.22196817 4:0.22196817 5:0 6:0 7:0 8:0 9:0 10:0 11:0 12:0 13:0 14:0 15:0 16:0 17:1 18:1 19:0 20:1 21:1 22:1 23:1 24:1 25:0 26:1 27:1 28:1 29:0 30:0 31:0 32:0 33:0 34:0 35:0 36:0 37:0 38:0 39:0 40:0 41:0 42:0 43:0 44:0 45:0 46:0 47:0 48:0 49:0 50:0 51:0 52:0 
0.3584842517293682 1:0.40767116 2:0.13589039 3:0.13589039 4:0.13589039 5:0 6:0 7:0 8:0 9:0 10:0 11:1 12:0 13:0 14:0 15:0 16:0 17:1 18:1 19:1 20:1 21:1 22:1 23:1 24:1 25:1 26:1 27:1 28:1 29:0 30:0 31:0 32:0 33:0 34:0 35:0 36:0 37:0 38:0 39:0 40:0 41:0 42:0 43:0 44:0 45:0 46:0 47:0 48:0 49:0 50:0 51:0 52:0 
1 1:0.20482311 2:0.068274369 3:0.068274369 4:0.068274369 5:0 6:0 7:0 8:0 9:0 10:0 11:0 12:0 13:0 14:0 15:0 16:0 17:1 18:1 19:1 20:1 21:1 22:1 23:1 24:1 25:1 26:1 27:1 28:1 29:0 30:0 31:0 32:0 33:0 34:0 35:0 36:0 37:0 38:0 39:0 40:0 41:0 42:0 43:0 44:0 45:0 46:0 47:1 48:1 49:1 50:1 51:1 52:1 
1 1:0.18557872 2:0.061859575 3:0.061859575 4:0.061859575 5:0 6:0 7:0 8:0 9:0 10:0 11:0 12:0 13:0 14:0 15:0 16:0 17:1 18:1 19:1 20:1 21:1 22:1 23:1 24:1 25:1 26:1 27:1 28:1 29:1 30:1 31:1 32:1 33:1 34:1 35:1 36:1 37:1 38:1 39:1 40:1 41:1 42:1 43:1 44:1 45:1 46:1 47:1 48:1 49:1 50:1 51:1 52:1 
0.291213635981143 1:0.0085772315 2:0.0028590772 3:0.0028590772 4:0.0028590772 5:1 6:1 7:1 8:1 9:1 10:1 11:0 12:0 13:0 14:0 15:0 16:0 17:0 18:0 19:0 20:0 21:0 22:0 23:1 24:1 25:1 26:1 27:1 28:1 29:0 30:0 31:0 32:0 33:0 34:0 35:0 36:0 37:0 38:0 39:0 40:0 41:1 42:1 43:1 44:1 45:1 46:1 47:0 48:0 49:0 50:0 51:0 52:0 
0.1947050504565858 1:0.24334184 2:0.06083546 3:0.06083546 4:0.06083546 5:1 6:1 7:0 8:0 9:0 10:0 11:0 12:0 13:0 14:1 15:1 16:0 17:1 18:1 19:1 20:1 21:1 22:1 23:0 24:0 25:0 26:0 27:0 28:0 29:1 30:1 31:1 32:1 33:1 34:1 35:1 36:1 37:1 38:1 39:1 40:1 41:0 42:0 43:0 44:0 45:0 46:0 47:0 48:0 49:0 50:0 51:0 52:0 
0.5198564829846635 1:0.30219536 2:0.10073179 3:0.10073179 4:0.10073179 5:1 6:1 7:1 8:1 9:1 10:1 11:0 12:0 13:1 14:1 15:1 16:1 17:0 18:0 19:0 20:0 21:0 22:0 23:0 24:0 25:0 26:0 27:0 28:0 29:0 30:0 31:0 32:0 33:0 34:0 35:0 36:0 37:0 38:0 39:1 40:1 41:0 42:0 43:0 44:0 45:1 46:1 47:0 48:0 49:0 50:0 51:0 52:0 
0.0481388406177199 1:0.030650473 2:0.0076626183 3:0.0076626183 4:0.0076626183 5:1 6:1 7:1 8:1 9:1 10:1 11:1 12:1 13:1 14:1 15:1 16:1 17:0 18:0 19:0 20:0 21:0 22:0 23:0 24:0 25:0 26:0 27:0 28:0 29:1 30:1 31:1 32:1 33:1 34:1 35:1 36:1 37:1 38:0 39:0 40:0 41:0 42:0 43:0 44:0 45:0 46:0 47:1 48:1 49:1 50:1 51:1 52:1 
0.8854405399749936 1:0.1950202 2:0.039004039 3:0.039004039 4:0.039004039 5:1 6:0 7:0 8:0 9:0 10:0 11:0 12:0 13:0 14:0 15:0 16:0 17:0 18:0 19:0 20:0 21:0 22:0 23:1 24:1 25:1 26:1 27:1 28:1 29:0 30:0 31:1 32:1 33:0 34:0 35:0 36:0 37:0 38:0 39:0 40:0 41:0 42:0 43:0 44:0 45:0 46:0 47:1 48:1 49:1 50:1 51:1 52:1 
0.0099053306021007 1:0.46342757 2:0.15447586 3:0.15447586 4:0.15447586 5:0 6:0 7:0 8:0 9:0 10:0 11:0 12:0 13:0 14:0 15:0 16:0 17:0 18:0 19:0 20:0 21:0 22:0 23:0 24:0 25:0 26:0 27:0 28:0 29:0 30:0 31:0 32:0 33:0 34:0 35:0 36:0 37:0 38:0 39:0 40:0 41:1 42:1 43:0 44:0 45:0 46:0 47:1 48:1 49:1 50:1 51:1 52:1 
0.8680764839439092 1:0.039491321 2:0.013163774 3:0.013163774 4:0.013163774 5:0 6:0 7:0 8:0 9:0 10:0 11:1 12:1 13:1 14:1 15:1 16:1 17:1 18:1 19:1 20:1 21:1 22:1 23:0 24:0 25:0 26:0 27:0 28:0 29:0 30:0 31:0 32:0 33:0 34:0 35:0 36:0 37:0 38:0 39:0 40:0 41:0 42:0 43:0 44:0 45:0 46:0 47:0 48:0 49:0 50:1 51:1 52:1 
1 1:0.048099721 2:0.01603324 3:0.01603324 4:0.01603324 5:1 6:1 7:1 8:1 9:1 10:1 11:0 12:0 13:0 14:0 15:0 16:0 17:0 18:0 19:0 20:0 21:0 22:0 23:0 24:1 25:1 26:1 27:1 28:0 29:0 30:1 31:1 32:1 33:1 34:0 35:0 36:0 37:0 38:0 39:0 40:0 41:0 42:0 43:0 44:0 45:0 46:0 47:0 48:0 49:0 50:1 51:1 52:1 
0.1121222215301351 1:0.23495917 2:0.046991834 3:0.046991834 4:0.046991834 5:0 6:0 7:0 8:0 9:0 10:0 11:0 12:1 13:1 14:1 15:1 16:0 17:0 18:0 19:0 20:0 21:0 22:0 23:1 24:1 25:1 26:1 27:1 28:1 29:0 30:0 31:1 32:1 33:0 34:0 35:0 36:0 37:0 38:0 39:0 40:0 41:1 42:1 43:1 44:1 45:1 46:1 47:1 48:1 49:1 50:1 51:1 52:1 
0.2089696999477696 1:0.0069252635 2:0.00098932336 3:0.00098932336 4:0.00098932336 5:1 6:1 7:1 8:1 9:1 10:1 11:1 12:1 13:1 14:1 15:1 16:1 17:1 18:1 19:1 20:1 21:1 22:1 23:0 24:0 25:0 26:0 27:1 28:1 29:0 30:0 31:0 32:0 33:1 34:1 35:0 36:0 37:0 38:0 39:1 40:1 41:0 42:0 43:0 44:0 45:0 46:0 47:1 48:0 49:0 50:0 51:0 52:1 
1 1:0.28015963 2:0.093386542 3:0.093386542 4:0.093386542 5:1 6:1 7:1 8:1 9:1 10:1 11:1 12:1 13:1 14:1 15:1 16:1 17:0 18:0 19:0 20:0 21:0 22:0 23:0 24:1 25:1 26:1 27:1 28:1 29:0 30:0 31:0 32:0 33:0 34:0 35:0 36:0 37:0 38:0 39:0 40:0 41:0 42:0 43:0 44:0 45:0 46:0 47:0 48:0 49:0 50:0 51:0 52:0 
0.02627229296694537 1:0.20432871 2:0.068109571 3:0.068109571 4:0.068109571 5:1 6:1 7:1 8:1 9:1 10:1 11:1 12:1 13:1 14:1 15:1 16:1 17:1 18:1 19:1 20:1 21:1 22:1 23:0 24:0 25:0 26:0 27:0 28:0 29:0 30:0 31:0 32:0 33:0 34:0 35:0 36:0 37:0 38:0 39:0 40:0 41:0 42:0 43:0 44:0 45:0 46:0 47:0 48:0 49:0 50:0 51:0 52:0 
0.1137540747126594 1:0.015614466 2:0.002602411 3:0.002602411 4:0.002602411 5:0 6:0 7:0 8:0 9:0 10:0 11:1 12:1 13:1 14:1 15:1 16:1 17:1 18:1 19:1 20:1 21:1 22:1 23:0 24:0 25:1 26:1 27:0 28:0 29:0 30:0 31:0 32:0 33:0 34:0 35:0 36:0 37:0 38:0 39:0 40:0 41:1 42:1 43:0 44:0 45:1 46:1 47:1 48:1 49:0 50:0 51:1 52:1 
1 1:0.10888427 2:0.036294756 3:0.036294756 4:0.036294756 5:1 6:1 7:1 8:1 9:1 10:1 11:0 12:0 13:0 14:0 15:0 16:0 17:1 18:1 19:1 20:1 21:1 22:1 23:1 24:1 25:1 26:1 27:1 28:1 29:0 30:0 31:0 32:0 33:0 34:0 35:0 36:0 37:0 38:0 39:0 40:0 41:0 42:0 43:0 44:0 45:0 46:0 47:0 48:0 49:1 50:1 51:0 52:0 
0.8454568322367476 1:0.085697729 2:0.02856591 3:0.02856591 4:0.02856591 5:1 6:1 7:1 8:1 9:1 10:1 11:0 12:0 13:0 14:0 15:0 16:0 17:1 18:1 19:1 20:1 21:1 22:1 23:1 24:1 25:1 26:1 27:1 28:1 29:0 30:0 31:0 32:0 33:0 34:0 35:0 36:0 37:0 38:0 39:0 40:0 41:0 42:0 43:0 44:0 45:0 46:0 47:0 48:0 49:0 50:0 51:0 52:0 
0.4214155170121824 1:0.30901948 2:0.10300649 3:0.10300649 4:0.10300649 5:0 6:0 7:0 8:0 9:0 10:0 11:1 12:1 13:1 14:1 15:1 16:1 17:1 18:1 19:1 20:1 21:1 22:1 23:1 24:1 25:1 26:1 27:1 28:1 29:1 30:1 31:1 32:1 33:1 34:1 35:1 36:1 37:1 38:0 39:0 40:0 41:0 42:0 43:0 44:0 45:0 46:0 47:0 48:0 49:0 50:0 51:0 52:0 
0.002370536358929041 1:0.066643434 2:0.022214478 3:0.022214478 4:0.022214478 5:1 6:1 7:1 8:1 9:1 10:1 11:1 12:1 13:1 14:1 15:1 16:1 17:0 18:0 19:0 20:0 21:0 22:0 23:1 24:1 25:1 26:1 27:1 28:1 29:0 30:1 31:1 32:1 33:1 34:1 35:0 36:0 37:0 38:0 39:0 40:0 41:0 42:0 43:0 44:0 45:0 46:0 47:0 48:0 49:0 50:0 51:0 52:0 
0.1095587411631906 1:0.048276164 2:0.0080460273 3:0.0080460273 4:0.0080460273 5:0 6:0 7:0 8:0 9:0 10:0 11:1 12:1 13:1 14:1 15:1 16:1 17:0 18:0 19:0 20:0 21:0 22:0 23:0 24:1 25:1 26:1 27:1 28:1 29:0 30:1 31:1 32:1 33:1 34:1 35:0 36:1 37:1 38:1 39:1 40:1 41:0 42:1 43:1 44:1 45:1 46:1 47:0 48:1 49:1 50:1 51:1 52:1 
0.5004001490191365 1:0.022109776 2:0.0024566418 3:0.0024566418 4:0.0024566418 5:1 6:1 7:1 8:1 9:1 10:1 11:1 12:1 13:1 14:1 15:1 16:1 17:1 18:1 19:1 20:1 21:1 22:1 23:0 24:0 25:1 26:1 27:0 28:0 29:0 30:0 31:1 32:1 33:0 34:0 35:0 36:0 37:0 38:0 39:0 40:0 41:1 42:1 43:1 44:1 45:1 46:1 47:1 48:1 49:1 50:1 51:1 52:1 
0.0569746432656815 1:0.038896837 2:0.012965612 3:0.012965612 4:0.012965612 5:0 6:0 7:0 8:0 9:0 10:0 11:0 12:0 13:1 14:1 15:1 16:1 17:1 18:1 19:1 20:1 21:1 22:1 23:1 24:1 25:1 26:0 27:0 28:0 29:0 30:0 31:0 32:0 33:0 34:0 35:0 36:0 37:0 38:0 39:0 40:0 41:0 42:0 43:0 44:0 45:0 46:0 47:1 48:1 49:1 50:1 51:1 52:1 
0.03103650349144762 1:0.036742599 2:0.0091856498 3:0.0091856498 4:0.0091856498 5:1 6:1 7:1 8:1 9:1 10:1 11:1 12:1 13:1 14:1 15:1 16:1 17:0 18:0 19:0 20:0 21:0 22:0 23:1 24:1 25:0 26:0 27:0 28:0 29:1 30:1 31:0 32:0 33:0 34:0 35:0 36:0 37:0 38:0 39:0 40:0 41:0 42:0 43:0 44:0 45:0 46:0 47:1 48:1 49:0 50:0 51:0 52:0 
0.416060664762154 1:0.061057387 2:0.015264347 3:0.015264347 4:0.015264347 5:1 6:1 7:1 8:1 9:1 10:1 11:1 12:1 13:1 14:1 15:1 16:1 17:0 18:0 19:0 20:1 21:1 22:1 23:0 24:0 25:0 26:1 27:1 28:1 29:0 30:1 31:0 32:1 33:1 34:1 35:0 36:1 37:0 38:1 39:1 40:1 41:0 42:0 43:0 44:0 45:0 46:0 47:0 48:0 49:0 50:0 51:0 52:0 
0.08138113988723325 1:0.078509238 2:0.0029077495 3:0.0029077495 4:0.0029077495 5:1 6:1 7:1 8:1 9:1 10:1 11:1 12:1 13:1 14:1 15:1 16:1 17:0 18:0 19:0 20:1 21:1 22:1 23:0 24:0 25:0 26:1 27:1 28:1 29:0 30:0 31:0 32:1 33:1 34:1 35:0 36:0 37:0 38:1 39:1 40:1 41:0 42:0 43:0 44:1 45:1 46:1 47:0 48:0 49:0 50:1 51:1 52:1 
0.2402469954568766 1:0.54587511 2:0.18195837 3:0.18195837 4:0.18195837 5:0 6:0 7:0 8:0 9:0 10:0 11:0 12:0 13:0 14:0 15:0 16:0 17:0 18:0 19:0 20:0 21:0 22:0 23:0 24:0 25:0 26:0 27:0 28:0 29:1 30:1 31:0 32:0 33:0 34:0 35:1 36:1 37:0 38:0 39:0 40:0 41:0 42:0 43:0 44:0 45:0 46:0 47:1 48:0 49:0 50:0 51:0 52:1 
0.1190189251670077 1:0.049341512 2:0.0049341512 3:0.0049341512 4:0.0049341512 5:1 6:0 7:0 8:0 9:1 10:1 11:0 12:0 13:0 14:0 15:0 16:0 17:0 18:0 19:0 20:0 21:0 22:0 23:1 24:1 25:1 26:1 27:1 28:1 29:1 30:1 31:1 32:1 33:1 34:1 35:0 36:0 37:1 38:1 39:1 40:1 41:0 42:0 43:1 44:1 45:1 46:1 47:0 48:0 49:1 50:1 51:1 52:1 
0.7890769183522142 1:0.14896342 2:0.049654472 3:0.049654472 4:0.049654472 5:1 6:0 7:0 8:0 9:0 10:0 11:1 12:1 13:1 14:1 15:1 16:1 17:0 18:0 19:0 20:0 21:0 22:0 23:0 24:0 25:0 26:0 27:0 28:0 29:0 30:0 31:0 32:0 33:0 34:0 35:1 36:1 37:1 38:1 39:1 40:1 41:1 42:1 43:1 44:1 45:1 46:1 47:1 48:1 49:1 50:1 51:1 52:1 
0.166447268303771 1:0.039175908 2:0.0097939771 3:0.0097939771 4:0.0097939771 5:0 6:0 7:0 8:0 9:0 10:0 11:0 12:0 13:0 14:0 15:0 16:0 17:0 18:0 19:0 20:0 21:0 22:0 23:1 24:1 25:1 26:0 27:0 28:0 29:1 30:1 31:1 32:1 33:1 34:1 35:1 36:1 37:1 38:1 39:1 40:1 41:0 42:0 43:0 44:0 45:0 46:0 47:1 48:1 49:1 50:1 51:1 52:1 
0.3399012862103373 1:0.49263455 2:0.16421152 3:0.16421152 4:0.16421152 5:0 6:0 7:0 8:0 9:0 10:0 11:0 12:0 13:0 14:0 15:0 16:0 17:1 18:1 19:0 20:0 21:0 22:0 23:0 24:0 25:0 26:0 27:0 28:0 29:0 30:0 31:0 32:0 33:0 34:0 35:1 36:1 37:1 38:0 39:0 40:0 41:1 42:1 43:1 44:0 45:0 46:0 47:1 48:1 49:0 50:0 51:0 52:0 
0.5624246629279304 1:0.25585286 2:0.085284286 3:0.085284286 4:0.085284286 5:1 6:1 7:0 8:0 9:0 10:1 11:0 12:0 13:0 14:0 15:0 16:1 17:0 18:0 19:0 20:0 21:0 22:0 23:1 24:1 25:1 26:1 27:1 28:1 29:1 30:1 31:1 32:1 33:1 34:1 35:1 36:1 37:1 38:1 39:1 40:1 41:1 42:1 43:1 44:1 45:1 46:1 47:0 48:0 49:0 50:0 51:0 52:0 
0.412938598120836 1:0.030894097 2:0.010298032 3:0.010298032 4:0.010298032 5:0 6:0 7:1 8:1 9:1 10:1 11:0 12:0 13:1 14:1 15:1 16:1 17:0 18:0 19:1 20:1 21:1 22:1 23:0 24:0 25:0 26:0 27:0 28:0 29:0 30:0 31:1 32:1 33:1 34:1 35:0 36:0 37:1 38:1 39:1 40:1 41:0 42:0 43:1 44:1 45:1 46:1 47:0 48:0 49:0 50:0 51:0 52:0 
0.7870795473111525 1:0.20738597 2:0.041477194 3:0.041477194 4:0.041477194 5:1 6:1 7:1 8:1 9:1 10:1 11:0 12:0 13:0 14:0 15:0 16:0 17:1 18:1 19:1 20:1 21:1 22:1 23:0 24:0 25:0 26:0 27:0 28:0 29:1 30:1 31:1 32:1 33:1 34:1 35:0 36:0 37:0 38:0 39:0 40:0 41:1 42:1 43:1 44:1 45:1 46:1 47:0 48:0 49:0 50:0 51:1 52:1 
1 1:0.45157666 2:0.15052555 3:0.15052555 4:0.15052555 5:1 6:1 7:0 8:0 9:0 10:0 11:0 12:0 13:0 14:0 15:0 16:0 17:0 18:0 19:0 20:0 21:0 22:0 23:0 24:0 25:0 26:0 27:0 28:0 29:0 30:0 31:0 32:0 33:0 34:0 35:0 36:0 37:0 38:0 39:0 40:0 41:0 42:1 43:1 44:1 45:1 46:1 47:0 48:1 49:1 50:1 51:1 52:1 
0.192108003281986 1:0.27678085 2:0.092260284 3:0.092260284 4:0.092260284 5:1 6:0 7:0 8:0 9:0 10:1 11:0 12:0 13:0 14:0 15:0 16:0 17:0 18:0 19:0 20:0 21:0 22:0 23:0 24:0 25:0 26:0 27:0 28:0 29:0 30:0 31:0 32:0 33:0 34:0 35:0 36:0 37:0 38:0 39:0 40:0 41:0 42:0 43:0 44:0 45:0 46:0 47:0 48:0 49:0 50:1 51:0 52:0 
0.332833577840896 1:0.3625731 2:0.1208577 3:0.1208577 4:0.1208577 5:0 6:0 7:0 8:0 9:0 10:0 11:0 12:0 13:0 14:0 15:0 16:0 17:0 18:0 19:0 20:1 21:1 22:1 23:0 24:0 25:0 26:1 27:1 28:1 29:0 30:0 31:0 32:1 33:1 34:1 35:0 36:0 37:0 38:1 39:1 40:1 41:0 42:0 43:0 44:1 45:1 46:1 47:0 48:0 49:0 50:0 51:0 52:1 
0.2251280423582843 1:0.53550332 2:0.17850111 3:0.17850111 4:0.17850111 5:1 6:1 7:1 8:0 9:0 10:0 11:0 12:0 13:0 14:0 15:0 16:0 17:0 18:1 19:1 20:1 21:1 22:0 23:0 24:0 25:0 26:0 27:0 28:0 29:1 30:0 31:0 32:0 33:0 34:0 35:0 36:0 37:0 38:0 39:0 40:0 41:0 42:0 43:0 44:0 45:0 46:0 47:0 48:0 49:0 50:0 51:0 52:0 
0.007367172876474218 1:0.22369284 2:0.074564279 3:0.074564279 4:0.074564279 5:1 6:1 7:1 8:1 9:0 10:0 11:0 12:0 13:0 14:0 15:0 16:0 17:0 18:0 19:0 20:0 21:0 22:0 23:0 24:1 25:1 26:0 27:0 28:0 29:1 30:1 31:1 32:1 33:1 34:1 35:1 36:1 37:1 38:1 39:1 40:1 41:0 42:0 43:0 44:0 45:0 46:0 47:0 48:0 49:0 50:0 51:0 52:0 
0.2944047342369246 1:0.070149375 2:0.0050106696 3:0.0050106696 4:0.0050106696 5:1 6:1 7:1 8:1 9:1 10:1 11:1 12:1 13:1 14:1 15:1 16:1 17:1 18:1 19:1 20:1 21:1 22:1 23:1 24:1 25:1 26:1 27:1 28:1 29:1 30:1 31:0 32:1 33:1 34:1 35:1 36:0 37:0 38:1 39:1 40:1 41:1 42:1 43:1 44:1 45:1 46:1 47:0 48:0 49:1 50:1 51:0 52:0 
1 1:0.4254972 2:0.1418324 3:0.1418324 4:0.1418324 5:0 6:0 7:0 8:0 9:0 10:0 11:0 12:0 13:0 14:0 15:0 16:0 17:1 18:1 19:1 20:1 21:1 22:1 23:1 24:0 25:0 26:0 27:0 28:0 29:0 30:0 31:0 32:0 33:0 34:0 35:0 36:0 37:0 38:0 39:0 40:0 41:0 42:0 43:0 44:0 45:0 46:0 47:0 48:1 49:1 50:1 51:1 52:0 
0.3181221228038186 1:0.098093738 2:0.032697913 3:0.032697913 4:0.032697913 5:1 6:1 7:1 8:1 9:1 10:0 11:1 12:1 13:1 14:1 15:1 16:0 17:0 18:0 19:0 20:0 21:0 22:0 23:0 24:0 25:0 26:0 27:0 28:0 29:0 30:0 31:0 32:0 33:0 34:0 35:0 36:0 37:0 38:0 39:0 40:0 41:0 42:0 43:0 44:0 45:0 46:1 47:0 48:0 49:0 50:0 51:0 52:1 
0.00836202414316203 1:0.149274 2:0.049758 3:0.049758 4:0.049758 5:1 6:1 7:1 8:1 9:1 10:1 11:1 12:1 13:1 14:1 15:1 16:1 17:1 18:1 19:1 20:1 21:1 22:1 23:1 24:1 25:1 26:1 27:1 28:1 29:0 30:0 31:0 32:0 33:0 34:0 35:0 36:0 37:0 38:0 39:0 40:0 41:0 42:0 43:0 44:0 45:0 46:0 47:0 48:0 49:0 50:0 51:0 52:0 
1 1:0.53284224 2:0.17761408 3:0.17761408 4:0.17761408 5:0 6:0 7:0 8:0 9:0 10:0 11:1 12:0 13:0 14:0 15:0 16:1 17:1 18:1 19:1 20:1 21:1 22:1 23:1 24:1 25:1 26:1 27:1 28:1 29:1 30:1 31:1 32:1 33:1 34:1 35:1 36:1 37:1 38:1 39:1 40:1 41:1 42:1 43:1 44:1 45:1 46:1 47:1 48:1 49:1 50:1 51:1 52:1 
0.2667352309869353 1:0.22429098 2:0.074763659 3:0.074763659 4:0.074763659 5:1 6:1 7:1 8:1 9:1 10:1 11:0 12:0 13:0 14:0 15:0 16:0 17:0 18:0 19:0 20:0 21:0 22:0 23:0 24:0 25:0 26:0 27:0 28:0 29:0 30:0 31:0 32:0 33:0 34:0 35:0 36:0 37:0 38:0 39:0 40:0 41:0 42:0 43:1 44:1 45:0 46:0 47:0 48:0 49:1 50:1 51:0 52:0 
0.7124433771072569 1:0.046121624 2:0.015373875 3:0.015373875 4:0.015373875 5:0 6:0 7:0 8:0 9:0 10:0 11:1 12:1 13:1 14:1 15:1 16:1 17:0 18:0 19:0 20:0 21:0 22:0 23:1 24:1 25:1 26:1 27:1 28:0 29:1 30:1 31:1 32:1 33:1 34:0 35:0 36:0 37:0 38:0 39:0 40:0 41:0 42:0 43:0 44:0 45:0 46:0 47:0 48:0 49:0 50:0 51:0 52:0 
0.1970209460813007 1:0.13244293 2:0.033110732 3:0.033110732 4:0.033110732 5:0 6:0 7:0 8:1 9:1 10:0 11:0 12:0 13:0 14:1 15:1 16:0 17:1 18:1 19:1 20:1 21:1 22:1 23:1 24:1 25:1 26:0 27:0 28:0 29:0 30:0 31:0 32:0 33:0 34:0 35:0 36:0 37:0 38:0 39:0 40:0 41:0 42:0 43:0 44:0 45:0 46:0 47:1 48:1 49:1 50:1 51:1 52:1 
0.02489288172073188 1:0.091244388 2:0.022811097 3:0.022811097 4:0.022811097 5:0 6:0 7:0 8:0 9:0 10:0 11:1 12:1 13:1 14:1 15:1 16:1 17:1 18:1 19:0 20:0 21:1 22:1 23:1 24:1 25:1 26:1 27:1 28:1 29:1 30:1 31:1 32:1 33:1 34:1 35:1 36:1 37:1 38:1 39:1 40:1 41:1 42:1 43:1 44:1 45:1 46:1 47:1 48:1 49:1 50:1 51:1 52:1 
0.6550111550639158 1:0.014546479 2:0.0048488263 3:0.0048488263 4:0.0048488263 5:1 6:1 7:1 8:1 9:1 10:1 11:1 12:1 13:1 14:1 15:1 16:1 17:1 18:1 19:1 20:1 21:1 22:1 23:1 24:1 25:1 26:1 27:1 28:1 29:0 30:0 31:1 32:1 33:0 34:0 35:0 36:0 37:0 38:0 39:0 40:0 41:0 42:0 43:0 44:0 45:0 46:0 47:0 48:0 49:0 50:0 51:0 52:0 
0.2093006954817622 1:0.03629231 2:0.0060487183 3:0.0060487183 4:0.0060487183 5:1 6:1 7:1 8:1 9:1 10:1 11:0 12:0 13:0 14:0 15:0 16:0 17:1 18:1 19:1 20:1 21:1 22:1 23:0 24:1 25:0 26:0 27:0 28:0 29:1 30:1 31:1 32:1 33:1 34:1 35:0 36:1 37:1 38:0 39:0 40:0 41:0 42:1 43:1 44:0 45:0 46:0 47:0 48:0 49:0 50:0 51:0 52:0 
0.5123768209135712 1:0.0082922463 2:0.0016584493 3:0.0016584493 4:0.0016584493 5:1 6:1 7:1 8:1 9:1 10:1 11:1 12:1 13:1 14:1 15:1 16:1 17:0 18:0 19:0 20:0 21:0 22:0 23:1 24:1 25:1 26:1 27:1 28:1 29:0 30:0 31:0 32:0 33:0 34:0 35:1 36:1 37:1 38:1 39:1 40:1 41:0 42:0 43:0 44:0 45:0 46:0 47:1 48:1 49:1 50:1 51:1 52:1 
1 1:0.48615674 2:0.16205225 3:0.16205225 4:0.16205225 5:1 6:1 7:0 8:0 9:1 10:1 11:0 12:0 13:0 14:0 15:0 16:0 17:0 18:0 19:0 20:0 21:0 22:0 23:0 24:0 25:0 26:0 27:0 28:0 29:0 30:0 31:0 32:0 33:0 34:0 35:0 36:0 37:0 38:0 39:0 40:0 41:0 42:0 43:0 44:0 45:1 46:1 47:0 48:0 49:0 50:0 51:1 52:1 
0.1516747880458603 1:0.12974096 2:0.03243524 3:0.03243524 4:0.03243524 5:1 6:1 7:1 8:1 9:1 10:1 11:1 12:1 13:1 14:1 15:1 16:1 17:1 18:1 19:1 20:1 21:1 22:1 23:0 24:0 25:0 26:0 27:0 28:0 29:0 30:0 31:0 32:0 33:0 34:0 35:0 36:0 37:0 38:0 39:0 40:0 41:1 42:1 43:1 44:1 45:1 46:1 47:0 48:0 49:1 50:1 51:1 52:1 
1 1:0.32819388 2:0.10939796 3:0.10939796 4:0.10939796 5:1 6:1 7:1 8:1 9:1 10:1 11:0 12:0 13:1 14:1 15:1 16:1 17:0 18:0 19:0 20:0 21:0 22:0 23:0 24:0 25:0 26:0 27:0 28:0 29:0 30:0 31:0 32:0 33:0 34:0 35:0 36:0 37:0 38:0 39:0 40:0 41:0 42:0 43:0 44:0 45:0 46:0 47:0 48:0 49:0 50:1 51:1 52:0 
1 1:0.57891767 2:0.19297256 3:0.19297256 4:0.19297256 5:0 6:0 7:0 8:0 9:0 10:0 11:0 12:0 13:0 14:0 15:0 16:0 17:0 18:0 19:0 20:0 21:0 22:0 23:0 24:0 25:0 26:0 27:0 28:0 29:0 30:0 31:0 32:0 33:0 34:0 35:0 36:0 37:0 38:0 39:0 40:0 41:0 42:0 43:0 44:0 45:0 46:0 47:1 48:1 49:1 50:1 51:1 52:1 
0.3924712784557026 1:0.42450866 2:0.14150289 3:0.14150289 4:0.14150289 5:0 6:0 7:0 8:0 9:0 10:0 11:0 12:0 13:0 14:0 15:0 16:0 17:0 18:0 19:0 20:0 21:0 22:0 23:1 24:1 25:1 26:1 27:1 28:1 29:0 30:0 31:0 32:0 33:0 34:0 35:0 36:0 37:0 38:0 39:0 40:0 41:0 42:0 43:0 44:0 45:0 46:0 47:0 48:1 49:0 50:0 51:0 52:0 
1 1:0.011130187 2:0.0037100624 3:0.0037100624 4:0.0037100624 5:1 6:1 7:1 8:1 9:1 10:1 11:1 12:1 13:1 14:1 15:1 16:1 17:0 18:0 19:0 20:0 21:0 22:0 23:0 24:0 25:0 26:0 27:0 28:0 29:1 30:1 31:1 32:1 33:1 34:1 35:0 36:0 37:0 38:0 39:0 40:0 41:0 42:0 43:0 44:0 45:0 46:0 47:1 48:1 49:1 50:1 51:1 52:1 
0.1440119209328004 1:0.21567843 2:0.07189281 3:0.07189281 4:0.07189281 5:1 6:1 7:1 8:1 9:1 10:1 11:1 12:1 13:1 14:1 15:1 16:1 17:0 18:0 19:0 20:0 21:1 22:1 23:0 24:0 25:0 26:0 27:0 28:0 29:0 30:0 31:0 32:0 33:0 34:0 35:0 36:0 37:0 38:0 39:0 40:0 41:0 42:0 43:0 44:0 45:0 46:0 47:0 48:0 49:0 50:0 51:0 52:0 
1 1:0.087023539 2:0.029007846 3:0.029007846 4:0.029007846 5:0 6:0 7:0 8:0 9:0 10:0 11:0 12:0 13:0 14:0 15:0 16:0 17:0 18:0 19:0 20:0 21:0 22:0 23:1 24:1 25:1 26:1 27:1 28:1 29:1 30:1 31:1 32:1 33:1 34:1 35:0 36:0 37:0 38:0 39:0 40:0 41:0 42:0 43:0 44:0 45:0 46:0 47:1 48:1 49:1 50:1 51:1 52:1 
0.5480607525187787 1:0.15437773 2:0.051459242 3:0.051459242 4:0.051459242 5:0 6:0 7:0 8:1 9:1 10:1 11:0 12:0 13:0 14:1 15:1 16:1 17:0 18:0 19:0 20:0 21:0 22:0 23:1 24:1 25:1 26:1 27:1 28:1 29:1 30:1 31:1 32:1 33:1 34:1 35:0 36:0 37:0 38:0 39:0 40:0 41:0 42:0 43:0 44:0 45:0 46:0 47:0 48:0 49:0 50:0 51:0 52:0 
0.7830703375970212 1:0.0163669 2:0.0032733801 3:0.0032733801 4:0.0032733801 5:1 6:1 7:1 8:1 9:1 10:1 11:0 12:0 13:0 14:0 15:0 16:0 17:0 18:0 19:0 20:0 21:0 22:0 23:0 24:0 25:0 26:0 27:0 28:0 29:0 30:0 31:0 32:0 33:0 34:0 35:0 36:0 37:0 38:0 39:0 40:0 41:0 42:1 43:1 44:1 45:1 46:0 47:0 48:1 49:1 50:1 51:1 52:0 
1 1:0.65360004 2:0.21786668 3:0.21786668 4:0.21786668 5:0 6:0 7:0 8:0 9:0 10:0 11:0 12:0 13:0 14:0 15:0 16:0 17:0 18:0 19:0 20:0 21:0 22:0 23:0 24:0 25:0 26:0 27:0 28:0 29:0 30:0 31:0 32:0 33:0 34:0 35:0 36:0 37:0 38:0 39:0 40:0 41:0 42:0 43:0 44:0 45:0 46:1 47:1 48:1 49:1 50:1 51:1 52:1 
0.6263501805322749 1:0.46761639 2:0.15587213 3:0.15587213 4:0.15587213 5:1 6:1 7:0 8:0 9:0 10:0 11:1 12:1 13:0 14:0 15:0 16:0 17:0 18:0 19:0 20:0 21:0 22:0 23:0 24:0 25:0 26:0 27:0 28:0 29:0 30:0 31:0 32:0 33:0 34:0 35:0 36:0 37:0 38:0 39:0 40:0 41:0 42:0 43:0 44:0 45:0 46:0 47:1 48:1 49:1 50:1 51:1 52:0 
0.5302471179455297 1:0.443351 2:0.14778367 3:0.14778367 4:0.14778367 5:0 6:0 7:0 8:0 9:0 10:0 11:1 12:1 13:0 14:0 15:0 16:0 17:1 18:1 19:0 20:0 21:0 22:0 23:0 24:0 25:0 26:0 27:0 28:0 29:0 30:0 31:0 32:0 33:0 34:0 35:0 36:0 37:0 38:0 39:0 40:0 41:0 42:0 43:0 44:0 45:0 46:0 47:0 48:1 49:1 50:1 51:0 52:0 
-0.3432233186889826 1:0.29577872 2:0.065692111 3:1.6602784 4:26.238015 5:1 6:1 7:1 8:1 9:0 10:0 11:0 12:0 13:0 14:0 15:0 16:0 17:0 18:0 19:0 20:0 21:0 22:0 23:0 24:0 25:0 26:0 27:0 28:0 29:0 30:0 31:0 32:0 33:0 34:1 35:0 36:0 37:0 38:0 39:0 40:0 41:0 42:0 43:0 44:0 45:0 46:0 47:0 48:0 49:0 50:0 51:0 52:0 
-1 1:0.027876451 2:0.01279402 3:0.12814687 4:0.80226348 5:1 6:1 7:1 8:1 9:1 10:1 11:1 12:1 13:1 14:1 15:1 16:1 17:0 18:0 19:0 20:0 21:0 22:0 23:1 24:1 25:1 26:1 27:0 28:0 29:0 30:0 31:0 32:0 33:0 34:0 35:0 36:0 37:0 38:0 39:0 40:0 41:0 42:0 43:0 44:0 45:0 46:0 47:0 48:0 49:0 50:0 51:0 52:0 
-1 1:0.13066439 2:0.02545618 3:0.05046418 4:0.21210439 5:1 6:1 7:1 8:1 9:1 10:1 11:1 12:1 13:1 14:1 15:1 16:1 17:0 18:0 19:0 20:0 21:0 22:0 23:0 24:0 25:0 26:0 27:0 28:0 29:1 30:1 31:1 32:1 33:1 34:1 35:0 36:0 37:0 38:0 39:0 40:0 41:0 42:0 43:0 44:0 45:0 46:0 47:0 48:0 49:0 50:1 51:1 52:1 
-1 1:0.014286603 2:0.0059070394 3:0.11930053 4:0.76642796 5:1 6:1 7:1 8:1 9:1 10:1 11:0 12:0 13:0 14:0 15:0 16:0 17:1 18:1 19:1 20:1 21:1 22:1 23:0 24:0 25:0 26:0 27:0 28:0 29:0 30:0 31:0 32:0 33:0 34:0 35:0 36:0 37:0 38:0 39:0 40:0 41:0 42:0 43:0 44:0 45:0 46:0 47:0 48:0 49:0 50:0 51:1 52:1 
-1 1:0.19904604 2:0.047742502 3:0.097981601 4:0.27362298 5:0 6:0 7:0 8:0 9:0 10:0 11:0 12:0 13:0 14:0 15:0 16:0 17:0 18:0 19:0 20:0 21:0 22:0 23:1 24:0 25:0 26:0 27:0 28:0 29:0 30:0 31:0 32:0 33:0 34:0 35:0 36:0 37:0 38:0 39:0 40:0 41:0 42:0 43:0 44:0 45:0 46:0 47:1 48:1 49:1 50:1 51:1 52:1 
-1 1:0.02348107 2:0.010333855 3:0.089954773 4:0.62730788 5:1 6:1 7:1 8:1 9:1 10:1 11:1 12:1 13:1 14:1 15:1 16:1 17:0 18:0 19:0 20:0 21:0 22:0 23:0 24:0 25:0 26:0 27:0 28:0 29:0 30:0 31:0 32:0 33:0 34:0 35:0 36:0 37:0 38:0 39:0 40:0 41:0 42:0 43:0 44:0 45:0 46:0 47:0 48:0 49:0 50:1 51:1 52:1 
-1 1:0.10301656 2:0.044639749 3:0.13134199 4:0.54300039 5:0 6:0 7:0 8:0 9:0 10:0 11:1 12:1 13:1 14:1 15:1 16:1 17:1 18:1 19:1 20:1 21:1 22:1 23:1 24:1 25:1 26:1 27:1 28:1 29:1 30:1 31:1 32:1 33:1 34:1 35:1 36:1 37:1 38:1 39:1 40:1 41:1 42:1 43:1 44:1 45:1 46:1 47:0 48:0 49:0 50:0 51:0 52:0 
-1 1:0.14051673 2:0.054889864 3:0.11469323 4:0.65308101 5:0 6:0 7:0 8:0 9:0 10:0 11:0 12:0 13:0 14:0 15:0 16:1 17:0 18:0 19:0 20:0 21:0 22:1 23:1 24:1 25:1 26:1 27:1 28:1 29:0 30:0 31:0 32:0 33:0 34:0 35:0 36:0 37:0 38:0 39:0 40:0 41:0 42:0 43:0 44:0 45:0 46:0 47:0 48:0 49:0 50:0 51:0 52:0 
-0.8856736468165823 1:0.074123524 2:0.026018561 3:0.15487247 4:0.90533612 5:1 6:1 7:1 8:1 9:1 10:1 11:1 12:1 13:1 14:0 15:1 16:1 17:0 18:1 19:1 20:1 21:1 22:1 23:1 24:1 25:1 26:1 27:1 28:1 29:0 30:0 31:0 32:0 33:0 34:0 35:0 36:0 37:0 38:0 39:0 40:0 41:0 42:0 43:0 44:0 45:0 46:0 47:0 48:0 49:0 50:0 51:0 52:0 
-1 1:0.20491577 2:0.067613427 3:0.21954638 4:0.91155896 5:1 6:1 7:1 8:1 9:1 10:1 11:0 12:0 13:0 14:0 15:1 16:1 17:0 18:1 19:1 20:1 21:1 22:0 23:0 24:1 25:1 26:1 27:1 28:0 29:0 30:0 31:0 32:0 33:0 34:0 35:0 36:0 37:0 38:0 39:0 40:0 41:0 42:0 43:0 44:0 45:0 46:0 47:0 48:0 49:0 50:0 51:0 52:0 
-1 1:0.052557544 2:0.024420894 3:0.093007486 4:0.4620068 5:1 6:1 7:1 8:1 9:1 10:1 11:0 12:0 13:0 14:0 15:0 16:0 17:1 18:1 19:1 20:1 21:1 22:1 23:0 24:0 25:0 26:0 27:0 28:0 29:0 30:0 31:0 32:0 33:0 34:0 35:0 36:0 37:0 38:0 39:0 40:0 41:0 42:0 43:0 44:0 45:0 46:0 47:0 48:0 49:0 50:1 51:1 52:1 
-1 1:0.20965774 2:0.015597378 3:0.11321193 4:0.3433723 5:0 6:0 7:0 8:0 9:0 10:0 11:0 12:0 13:0 14:0 15:0 16:0 17:1 18:1 19:0 20:0 21:0 22:0 23:1 24:1 25:1 26:1 27:1 28:1 29:0 30:0 31:0 32:0 33:0 34:0 35:0 36:0 37:0 38:0 39:0 40:0 41:1 42:1 43:1 44:1 45:1 46:1 47:0 48:1 49:1 50:1 51:1 52:1 
-1 1:0.20397259 2:0.043366509 3:0.16935829 4:0.68084726 5:1 6:1 7:1 8:1 9:1 10:1 11:1 12:1 13:1 14:1 15:1 16:1 17:0 18:0 19:0 20:0 21:0 22:0 23:0 24:0 25:0 26:0 27:0 28:0 29:0 30:0 31:1 32:1 33:0 34:0 35:0 36:0 37:0 38:0 39:0 40:0 41:0 42:0 43:0 44:0 45:0 46:0 47:1 48:1 49:1 50:1 51:1 52:1 
-1 1:0.043857246 2:0.0205427 3:0.12808385 4:0.7843529 5:0 6:0 7:0 8:0 9:0 10:0 11:1 12:1 13:1 14:0 15:0 16:0 17:1 18:1 19:1 20:1 21:1 22:1 23:1 24:1 25:1 26:1 27:1 28:1 29:1 30:1 31:1 32:1 33:1 34:1 35:1 36:1 37:1 38:1 39:1 40:1 41:1 42:1 43:1 44:1 45:1 46:1 47:1 48:1 49:1 50:1 51:1 52:1 
-1 1:0.049688604 2:0.03796569 3:0.10724366 4:0.53998658 5:0 6:0 7:0 8:0 9:0 10:0 11:0 12:0 13:0 14:0 15:0 16:0 17:1 18:1 19:1 20:1 21:1 22:1 23:1 24:1 25:1 26:1 27:1 28:1 29:0 30:0 31:0 32:0 33:0 34:0 35:0 36:0 37:0 38:0 39:0 40:0 41:0 42:1 43:0 44:0 45:0 46:0 47:0 48:0 49:0 50:0 51:0 52:0 
-1 1:0.1270293 2:0.037005958 3:0.19121579 4:0.76286215 5:1 6:1 7:1 8:1 9:1 10:1 11:1 12:1 13:1 14:1 15:1 16:1 17:0 18:0 19:0 20:1 21:1 22:0 23:0 24:0 25:0 26:0 27:0 28:0 29:1 30:1 31:0 32:0 33:0 34:0 35:1 36:1 37:0 38:0 39:0 40:0 41:0 42:0 43:0 44:0 45:0 46:0 47:0 48:1 49:0 50:0 51:0 52:0 
-1 1:0.13125596 2:0.08077857 3:0.079958449 4:0.84457868 5:1 6:1 7:1 8:1 9:1 10:1 11:1 12:1 13:1 14:1 15:1 16:1 17:1 18:1 19:1 20:1 21:1 22:1 23:0 24:0 25:0 26:0 27:0 28:0 29:0 30:0 31:0 32:0 33:0 34:0 35:0 36:0 37:0 38:0 39:0 40:0 41:0 42:0 43:0 44:0 45:0 46:0 47:0 48:0 49:0 50:0 51:0 52:0 
-0.0315284832436616 1:0.22002121 2:0.057002064 3:0.98054874 4:22.532578 5:1 6:1 7:1 8:1 9:1 10:0 11:0 12:0 13:0 14:0 15:0 16:0 17:1 18:1 19:1 20:1 21:1 22:1 23:1 24:1 25:1 26:1 27:1 28:1 29:0 30:0 31:0 32:0 33:0 34:0 35:0 36:0 37:0 38:0 39:0 40:0 41:0 42:0 43:0 44:0 45:0 46:0 47:0 48:1 49:0 50:0 51:0 52:0 
-1 1:0.050612224 2:0.01821769 3:0.128278 4:0.89571078 5:1 6:1 7:1 8:1 9:1 10:1 11:0 12:0 13:0 14:0 15:0 16:0 17:1 18:1 19:1 20:1 21:1 22:1 23:0 24:0 25:0 26:0 27:0 28:0 29:1 30:1 31:1 32:1 33:1 34:1 35:1 36:1 37:1 38:1 39:1 40:1 41:1 42:1 43:1 44:1 45:1 46:1 47:0 48:0 49:0 50:0 51:0 52:0 
-1 1:0.090195725 2:0.033356118 3:0.20618472 4:0.86363536 5:1 6:1 7:1 8:1 9:1 10:1 11:1 12:1 13:1 14:1 15:1 16:1 17:0 18:0 19:0 20:0 21:0 22:0 23:0 24:0 25:0 26:0 27:0 28:0 29:0 30:0 31:0 32:1 33:1 34:1 35:1 36:1 37:1 38:1 39:1 40:1 41:1 42:1 43:1 44:1 45:1 46:1 47:0 48:0 49:0 50:0 51:0 52:1 
-1 1:0.066612067 2:0.025823906 3:0.14668439 4:0.77844339 5:0 6:0 7:0 8:0 9:1 10:1 11:1 12:1 13:1 14:1 15:1 16:1 17:0 18:0 19:0 20:0 21:0 22:0 23:0 24:0 25:0 26:0 27:0 28:0 29:0 30:0 31:0 32:0 33:0 34:0 35:0 36:0 37:0 38:0 39:0 40:0 41:1 42:1 43:1 44:1 45:1 46:1 47:1 48:1 49:1 50:1 51:1 52:1 
-1 1:0.050105048 2:0.030947145 3:0.098114677 4:0.63570296 5:1 6:1 7:1 8:1 9:1 10:1 11:1 12:1 13:1 14:1 15:1 16:1 17:0 18:0 19:0 20:0 21:0 22:0 23:1 24:1 25:1 26:0 27:0 28:0 29:0 30:0 31:0 32:0 33:0 34:0 35:0 36:0 37:0 38:1 39:1 40:1 41:0 42:0 43:0 44:0 45:0 46:0 47:0 48:1 49:1 50:1 51:1 52:0 
-1 1:0.10269621 2:0.047194078 3:0.15444702 4:0.80301851 5:0 6:0 7:0 8:0 9:0 10:0 11:1 12:1 13:1 14:1 15:0 16:0 17:1 18:1 19:0 20:0 21:0 22:0 23:0 24:0 25:0 26:0 27:0 28:0 29:0 30:0 31:0 32:0 33:0 34:0 35:0 36:0 37:0 38:0 39:0 40:0 41:0 42:0 43:0 44:0 45:0 46:1 47:1 48:1 49:1 50:1 51:1 52:1 
-1 1:0.24547926 2:0.032573795 3:0.15713633 4:0.61750384 5:0 6:0 7:0 8:0 9:0 10:0 11:0 12:0 13:0 14:0 15:0 16:0 17:1 18:1 19:1 20:1 21:1 22:1 23:0 24:0 25:0 26:0 27:0 28:0 29:0 30:0 31:1 32:1 33:0 34:0 35:0 36:0 37:0 38:0 39:0 40:0 41:1 42:1 43:1 44:1 45:1 46:1 47:0 48:0 49:0 50:0 51:0 52:0 
-1 1:0.037183112 2:0.021544075 3:0.13508423 4:0.86960167 5:1 6:1 7:1 8:1 9:1 10:1 11:1 12:1 13:1 14:1 15:1 16:1 17:0 18:0 19:0 20:0 21:0 22:0 23:0 24:0 25:0 26:0 27:0 28:0 29:0 30:0 31:0 32:0 33:0 34:0 35:0 36:0 37:0 38:0 39:0 40:0 41:0 42:0 43:0 44:0 45:0 46:0 47:0 48:0 49:0 50:0 51:0 52:0 
-1 1:0.054718896 2:0.037231864 3:0.055013866 4:0.3048625 5:1 6:1 7:1 8:1 9:1 10:1 11:0 12:0 13:0 14:0 15:0 16:0 17:0 18:0 19:0 20:0 21:0 22:0 23:0 24:0 25:0 26:0 27:0 28:0 29:0 30:0 31:0 32:0 33:0 34:0 35:0 36:0 37:0 38:0 39:0 40:0 41:1 42:1 43:1 44:0 45:0 46:0 47:1 48:1 49:1 50:1 51:1 52:0 
-1 1:0.10238957 2:0.037821922 3:0.1749455 4:0.7677896 5:1 6:1 7:1 8:1 9:1 10:1 11:0 12:0 13:0 14:0 15:0 16:0 17:0 18:0 19:1 20:1 21:0 22:0 23:0 24:0 25:0 26:0 27:0 28:0 29:0 30:0 31:0 32:0 33:0 34:0 35:0 36:0 37:0 38:0 39:0 40:0 41:0 42:1 43:1 44:1 45:0 46:0 47:0 48:1 49:1 50:1 51:0 52:0 
-1 1:0.022428814 2:0.0069632647 3:0.15924406 4:0.89825881 5:1 6:1 7:1 8:1 9:1 10:1 11:1 12:1 13:1 14:1 15:1 16:1 17:0 18:0 19:0 20:0 21:0 22:0 23:0 24:0 25:0 26:0 27:0 28:0 29:0 30:0 31:0 32:0 33:0 34:0 35:0 36:1 37:1 38:1 39:1 40:1 41:0 42:0 43:0 44:0 45:0 46:0 47:1 48:1 49:1 50:1 51:1 52:1 
-1 1:0.16186011 2:0.051865356 3:0.15071418 4:0.71062702 5:1 6:1 7:1 8:1 9:1 10:1 11:0 12:0 13:1 14:0 15:0 16:0 17:1 18:1 19:1 20:1 21:1 22:1 23:1 24:1 25:1 26:1 27:1 28:1 29:0 30:0 31:0 32:0 33:0 34:0 35:0 36:0 37:0 38:0 39:0 40:0 41:0 42:0 43:0 44:0 45:0 46:0 47:0 48:0 49:0 50:0 51:0 52:0 
-1 1:0.071307327 2:0.039147844 3:0.14657192 4:0.94000062 5:0 6:0 7:0 8:0 9:0 10:0 11:1 12:1 13:1 14:1 15:1 16:1 17:0 18:0 19:0 20:0 21:0 22:1 23:0 24:0 25:0 26:0 27:0 28:0 29:0 30:0 31:0 32:0 33:0 34:0 35:1 36:1 37:1 38:1 39:1 40:1 41:1 42:1 43:1 44:1 45:1 46:1 47:0 48:1 49:1 50:0 51:0 52:0 
-1 1:0.032981921 2:0.014106553 3:0.13050313 4:0.5854002 5:1 6:1 7:1 8:1 9:1 10:1 11:1 12:1 13:1 14:1 15:1 16:1 17:0 18:0 19:0 20:0 21:0 22:0 23:0 24:0 25:0 26:0 27:0 28:0 29:0 30:0 31:0 32:0 33:0 34:0 35:0 36:1 37:1 38:1 39:1 40:0 41:0 42:1 43:1 44:1 45:1 46:0 47:0 48:1 49:1 50:1 51:1 52:0 
-1 1:0.1168746 2:0.062496443 3:0.15945246 4:0.75805821 5:1 6:0 7:0 8:0 9:0 10:1 11:0 12:0 13:0 14:0 15:0 16:0 17:0 18:0 19:0 20:0 21:0 22:0 23:1 24:1 25:1 26:1 27:0 28:0 29:1 30:1 31:1 32:1 33:0 34:0 35:0 36:0 37:0 38:0 39:0 40:0 41:0 42:0 43:0 44:0 45:0 46:0 47:0 48:0 49:0 50:0 51:0 52:0 
-1 1:0.23513512 2:0.054340146 3:0.1663454 4:0.7914362 5:1 6:1 7:0 8:0 9:0 10:0 11:1 12:1 13:0 14:0 15:0 16:0 17:0 18:0 19:0 20:0 21:0 22:0 23:0 24:0 25:0 26:0 27:0 28:0 29:0 30:0 31:0 32:0 33:0 34:0 35:0 36:0 37:0 38:0 39:0 40:0 41:0 42:0 43:0 44:0 45:0 46:0 47:1 48:1 49:1 50:1 51:1 52:1 
-1 1:0.05514143 2:0.022975852 3:0.11057067 4:0.56865523 5:1 6:1 7:1 8:1 9:1 10:1 11:1 12:1 13:1 14:1 15:1 16:1 17:0 18:1 19:1 20:1 21:1 22:1 23:0 24:0 25:0 26:0 27:0 28:0 29:0 30:0 31:0 32:0 33:0 34:0 35:0 36:0 37:0 38:0 39:0 40:0 41:0 42:0 43:0 44:0 45:0 46:0 47:0 48:0 49:0 50:0 51:0 52:0 
-1 1:0.029764202 2:0.0038824345 3:0.19523781 4:0.81625024 5:0 6:0 7:0 8:0 9:0 10:0 11:0 12:0 13:0 14:0 15:0 16:0 17:0 18:0 19:0 20:0 21:0 22:0 23:1 24:1 25:1 26:1 27:1 28:1 29:1 30:1 31:1 32:1 33:1 34:1 35:1 36:1 37:1 38:1 39:1 40:1 41:0 42:0 43:0 44:0 45:0 46:0 47:1 48:0 49:0 50:0 51:0 52:0 
-1 1:0.13720091 2:0.045284161 3:0.13935906 4:0.67873508 5:1 6:1 7:1 8:1 9:1 10:1 11:1 12:1 13:1 14:1 15:1 16:1 17:1 18:1 19:1 20:1 21:1 22:1 23:1 24:1 25:1 26:1 27:1 28:1 29:1 30:1 31:1 32:1 33:1 34:1 35:0 36:0 37:0 38:0 39:0 40:0 41:0 42:0 43:0 44:0 45:0 46:0 47:0 48:0 49:0 50:0 51:0 52:0 
-1 1:0.018565287 2:0.007763211 3:0.099539831 4:0.39518591 5:1 6:1 7:1 8:1 9:0 10:0 11:0 12:0 13:0 14:0 15:0 16:0 17:0 18:0 19:0 20:0 21:0 22:0 23:0 24:1 25:1 26:1 27:1 28:1 29:0 30:0 31:0 32:0 33:0 34:0 35:0 36:0 37:0 38:0 39:0 40:0 41:1 42:1 43:1 44:1 45:1 46:1 47:1 48:1 49:1 50:1 51:1 52:1 
-1 1:0.046807834 2:0.026638808 3:0.074583526 4:0.45397377 5:0 6:1 7:1 8:1 9:0 10:0 11:1 12:1 13:1 14:1 15:1 16:1 17:0 18:0 19:0 20:0 21:0 22:0 23:0 24:0 25:0 26:0 27:0 28:0 29:0 30:0 31:0 32:0 33:0 34:0 35:0 36:0 37:0 38:0 39:0 40:0 41:0 42:0 43:0 44:0 45:0 46:0 47:0 48:0 49:0 50:0 51:1 52:1 
-1 1:0.20721388 2:0.01393549 3:0.16015106 4:0.69411074 5:0 6:0 7:0 8:0 9:0 10:0 11:0 12:0 13:0 14:1 15:1 16:1 17:0 18:0 19:0 20:0 21:0 22:0 23:0 24:0 25:0 26:0 27:0 28:0 29:0 30:0 31:0 32:0 33:0 34:0 35:0 36:0 37:0 38:0 39:0 40:0 41:0 42:0 43:0 44:0 45:0 46:0 47:1 48:1 49:1 50:1 51:1 52:1 
-1 1:0.046202074 2:0.021520684 3:0.15430673 4:0.89682796 5:0 6:0 7:0 8:0 9:0 10:0 11:1 12:1 13:0 14:0 15:0 16:0 17:1 18:1 19:1 20:1 21:1 22:1 23:0 24:1 25:1 26:1 27:1 28:1 29:0 30:0 31:1 32:1 33:1 34:0 35:0 36:0 37:0 38:0 39:0 40:0 41:0 42:0 43:0 44:0 45:0 46:0 47:0 48:0 49:0 50:0 51:0 52:0 
-1 1:0.13490823 2:0.065775651 3:0.060406017 4:0.34443238 5:0 6:0 7:0 8:0 9:0 10:0 11:0 12:0 13:0 14:0 15:0 16:0 17:0 18:0 19:0 20:0 21:0 22:0 23:1 24:1 25:1 26:1 27:1 28:1 29:0 30:0 31:0 32:0 33:0 34:0 35:0 36:0 37:0 38:0 39:0 40:0 41:0 42:0 43:1 44:1 45:0 46:0 47:0 48:1 49:1 50:1 51:0 52:0 
-0.1268049743076615 1:0.22157041 2:0.034312859 3:1.1942712 4:21.637742 5:0 6:0 7:0 8:0 9:0 10:1 11:0 12:0 13:0 14:0 15:0 16:1 17:1 18:1 19:0 20:0 21:0 22:0 23:0 24:0 25:0 26:0 27:0 28:0 29:0 30:0 31:0 32:0 33:0 34:0 35:1 36:1 37:1 38:1 39:1 40:1 41:1 42:1 43:1 44:1 45:1 46:1 47:0 48:0 49:0 50:0 51:0 52:0 
-1 1:0.13733253 2:0.039315109 3:0.20736022 4:0.82560291 5:0 6:0 7:0 8:0 9:0 10:0 11:1 12:1 13:1 14:1 15:1 16:1 17:1 18:1 19:1 20:1 21:1 22:1 23:0 24:0 25:0 26:0 27:0 28:0 29:0 30:1 31:1 32:1 33:1 34:0 35:1 36:1 37:1 38:1 39:1 40:1 41:0 42:0 43:0 44:0 45:0 46:0 47:0 48:0 49:0 50:0 51:0 52:0 
-1 1:0.24844683 2:0.021769337 3:0.23294963 4:0.79143047 5:1 6:1 7:1 8:1 9:0 10:0 11:1 12:1 13:1 14:0 15:0 16:0 17:1 18:1 19:1 20:1 21:1 22:1 23:0 24:0 25:0 26:0 27:0 28:0 29:0 30:0 31:0 32:0 33:0 34:0 35:0 36:0 37:0 38:0 39:0 40:0 41:0 42:0 43:0 44:0 45:0 46:0 47:0 48:0 49:0 50:0 51:0 52:0 
-1 1:0.03475788 2:0.023151063 3:0.11954914 4:0.86660716 5:0 6:0 7:0 8:0 9:0 10:0 11:0 12:0 13:0 14:0 15:0 16:0 17:0 18:0 19:0 20:0 21:0 22:0 23:1 24:1 25:1 26:1 27:1 28:1 29:1 30:1 31:1 32:1 33:1 34:1 35:0 36:0 37:0 38:0 39:0 40:0 41:0 42:0 43:0 44:0 45:0 46:0 47:1 48:1 49:1 50:1 51:1 52:1 
-1 1:0.30319173 2:0.070535452 3:0.20251715 4:0.7682452 5:0 6:0 7:0 8:0 9:0 10:1 11:0 12:0 13:0 14:0 15:0 16:0 17:0 18:0 19:0 20:0 21:0 22:0 23:0 24:0 25:0 26:0 27:0 28:0 29:1 30:1 31:1 32:1 33:1 34:1 35:0 36:0 37:0 38:0 39:0 40:0 41:0 42:0 43:0 44:0 45:0 46:0 47:0 48:0 49:0 50:0 51:1 52:1 
-1 1:0.053885073 2:0.033417704 3:0.13247659 4:0.57394291 5:0 6:0 7:0 8:0 9:0 10:1 11:0 12:0 13:0 14:0 15:0 16:0 17:0 18:0 19:0 20:0 21:0 22:0 23:0 24:0 25:0 26:0 27:1 28:1 29:0 30:0 31:0 32:0 33:0 34:0 35:0 36:0 37:0 38:0 39:0 40:0 41:0 42:0 43:0 44:0 45:0 46:0 47:0 48:0 49:0 50:0 51:0 52:0 
-1 1:0.091917729 2:0.046352207 3:0.15475964 4:0.85970885 5:1 6:1 7:0 8:0 9:0 10:0 11:1 12:1 13:1 14:1 15:1 16:1 17:0 18:1 19:1 20:0 21:0 22:0 23:0 24:1 25:1 26:0 27:0 28:0 29:1 30:1 31:1 32:1 33:1 34:1 35:0 36:0 37:0 38:0 39:0 40:0 41:0 42:0 43:0 44:0 45:0 46:0 47:0 48:0 49:0 50:0 51:0 52:0 
-1 1:0.23858341 2:0.055266248 3:0.16491682 4:0.76531148 5:0 6:0 7:0 8:0 9:0 10:0 11:1 12:1 13:1 14:1 15:1 16:1 17:1 18:1 19:0 20:0 21:0 22:0 23:0 24:0 25:0 26:0 27:0 28:0 29:0 30:0 31:0 32:0 33:0 34:0 35:0 36:0 37:0 38:0 39:0 40:0 41:0 42:0 43:0 44:0 45:1 46:1 47:0 48:0 49:0 50:0 51:0 52:0 
-1 1:0.1988066 2:0.059931836 3:0.1718878 4:0.66614941 5:1 6:1 7:1 8:1 9:1 10:1 11:0 12:0 13:0 14:0 15:0 16:0 17:1 18:0 19:0 20:0 21:0 22:0 23:1 24:0 25:0 26:0 27:0 28:0 29:0 30:0 31:0 32:0 33:0 34:0 35:0 36:0 37:0 38:0 39:0 40:0 41:0 42:0 43:0 44:0 45:0 46:0 47:0 48:0 49:0 50:1 51:1 52:0 
-1 1:0.29663973 2:0.024023461 3:0.21184156 4:0.97324757 5:0 6:0 7:0 8:0 9:1 10:0 11:0 12:0 13:0 14:0 15:0 16:0 17:0 18:0 19:0 20:0 21:0 22:0 23:0 24:0 25:1 26:1 27:0 28:0 29:0 30:0 31:0 32:0 33:0 34:0 35:0 36:0 37:0 38:0 39:0 40:0 41:0 42:0 43:0 44:0 45:0 46:0 47:1 48:1 49:1 50:1 51:1 52:1 
-1 1:0.011967893 2:0.0060332795 3:0.055547895 4:0.44648985 5:1 6:1 7:1 8:1 9:1 10:1 11:1 12:1 13:1 14:1 15:1 16:1 17:0 18:0 19:0 20:0 21:0 22:0 23:0 24:0 25:0 26:0 27:0 28:0 29:1 30:1 31:1 32:1 33:1 34:1 35:1 36:1 37:1 38:1 39:1 40:1 41:0 42:0 43:0 44:0 45:0 46:0 47:0 48:0 49:0 50:0 51:0 52:0 
-1 1:0.31862677 2:0.059712386 3:0.24921953 4:0.93579106 5:1 6:0 7:0 8:0 9:0 10:1 11:0 12:0 13:0 14:0 15:1 16:1 17:0 18:0 19:0 20:0 21:0 22:0 23:0 24:0 25:0 26:0 27:0 28:0 29:0 30:0 31:0 32:0 33:0 34:0 35:0 36:0 37:0 38:0 39:0 40:0 41:1 42:1 43:1 44:1 45:1 46:1 47:0 48:0 49:0 50:0 51:0 52:0 
