svm_type c_svc
kernel_type rbf
gamma 0.25
nr_class 2
total_sv 22
rho 0.707821
label 1 -1
nr_sv 8 14
SV
1 1:0.25620215 2:0.085400716 3:0.085400716 4:0.085400716 
1 1:0.0071901406 2:0.0023967135 3:0.0023967135 4:0.0023967135 
1 1:0.23605159 2:0.078683862 3:0.078683862 4:0.078683862 
1 1:0.30012006 2:0.10004002 3:0.10004002 4:0.10004002 
1 1:0.16218218 2:0.054060726 3:0.054060726 4:0.054060726 
1 1:0.50343478 2:0.16781159 3:0.16781159 4:0.16781159 
1 1:0.18892029 2:0.062973431 3:0.062973431 4:0.062973431 
0.003155144289071234 1:0.013549187 2:0.0045163956 3:0.0045163956 4:0.0045163956 
-0.005531736140554742 1:0.36101815 2:0.035271035 3:0.53297938 4:5.3351415 
-0.1526233959785118 1:0.0283875 2:0.018799261 3:0.35349221 4:7.363151 
-1 1:0.15843612 2:0.055461996 3:0.24165832 4:1.0229989 
-1 1:0.14830514 2:0.039194631 3:0.14198834 4:0.76414619 
-1 1:0.033670302 2:0.024596879 3:0.13143087 4:0.84906386 
-0.2045200665291646 1:0.30677517 2:0.059170074 3:0.71742343 4:5.2507753 
-0.1314163504688305 1:0.49257501 2:0.022051883 3:0.94618419 4:8.9084207 
-1 1:0.064755894 2:0.026283888 3:0.16018897 4:0.85631583 
-0.1136719301613366 1:0.29451577 2:0.078316122 3:0.94306354 4:11.663471 
-0.09070161687328719 1:0.061155914 2:0.011994449 3:1.1033964 4:10.264301 
-0.2568926081718794 1:0.19277396 2:0.025293816 3:1.1134944 4:14.124152 
-0.04779743996550644 1:0.39232555 2:0.075744224 3:1.025886 4:11.475076 
-1 1:0.056262192 2:0.022946551 3:0.14755799 4:0.7104903 
-1 1:0.020362246 2:0.010580262 3:0.056865935 4:0.24655677 
